<?xml version="1.0"?>
<opencv_storage>
<opencv_ml_ann_mlp>
  <format>3</format>
  <layer_sizes>
    48 3</layer_sizes>
  <activation_function>SIGMOID_SYM</activation_function>
  <f_param1>6.6666666666666663e-01</f_param1>
  <f_param2>1.7159000000000000e+00</f_param2>
  <min_val>-9.4999999999999996e-01</min_val>
  <max_val>9.4999999999999996e-01</max_val>
  <min_val1>-9.7999999999999998e-01</min_val1>
  <max_val1>9.7999999999999998e-01</max_val1>
  <training_params>
    <train_method>BACKPROP</train_method>
    <dw_scale>1.0000000000000000e-03</dw_scale>
    <moment_scale>0.</moment_scale>
    <term_criteria>
      <iterations>300</iterations></term_criteria></training_params>
  <input_scale>
    7.3909659483251611e+00 -8.4095556949475136e-01 1. 431602080.
    1.5170771904612074e+01 -7.0803453980662900e-01 1. 431602080.
    8.3995721217356198e+00 -4.6767921833324042e+00 1. 431602080.
    1.3372052652377908e-01 -2.6650009674224253e+00 1. 431602080.
    1.5278805584605823e+01 -1.2339274489268066e+01 1. 431602080.
    9.8864336434004707e-01 -4.8558369525544220e+00 1. 431602080.
    7.3314241484338156e+00 -7.8017514429164148e-01 1. 431602080.
    1.5391244962992067e+01 -6.5939696622563571e-01 1. 431602080.
    5.7715199034529192e+00 -2.4888937909812512e+00 1. 431602080.
    9.4225921147079575e-02 -3.3884826544926119e+00 1. 431602080.
    9.4085272570470817e+00 -6.0476778161219755e+00 1. 431602080.
    8.2117766278735349e-01 -4.3537822039359204e+00 1. 431602080.
    7.5453488913598985e+00 -9.5313855169454997e-01 1. 431602080.
    1.4201410722086736e+01 -7.0917578396486713e-01 1. 431602080.
    5.2571146094302330e+00 -2.9077043590782559e+00 1. 431602080.
    7.9786317041992030e-02 -1.4292539737052572e+00 1. 431602080.
    8.2084723872398477e+00 -6.7806777626689261e+00 1. 431602080.
    8.0225988386078573e-01 -3.9693045276055052e+00 1. 431602080.
    7.3748244905780407e+00 -7.8041159288631667e-01 1. 431602080.
    1.5621941527382187e+01 -6.6227997915037229e-01 1. 431602080.
    5.8104712578933038e+00 -2.5040578119119692e+00 1. 431602080.
    8.8890854303346686e-02 -3.1739874849221130e+00 1. 431602080.
    8.9944085093007011e+00 -5.8195870207344296e+00 1. 431602080.
    8.2740385557904639e-01 -4.3817229850445951e+00 1. 431602080.</input_scale>
  <output_scale>
    5.2631578947368418e-01 4.9999999999999994e-01 5.2631578947368418e-01
    4.9999999999999994e-01 5.2631578947368418e-01 4.9999999999999994e-01</output_scale>
  <inv_output_scale>
    1.8999999999999999e+00 -9.4999999999999996e-01
    1.8999999999999999e+00 -9.4999999999999996e-01
    1.8999999999999999e+00 -9.4999999999999996e-01</inv_output_scale>
  <weights>
    <_>
      -7.5814444871182640e-01 6.1931809067955135e-01
      4.2573913887441689e-01 2.0063728662926916e-01
      -3.7769001215589360e-01 3.2687428950857456e-01
      -2.5635018065419485e-01 4.1893666121218248e-01
      5.9868095610807881e-01 -9.5621046911217333e-01
      -1.6531694028628052e-01 9.8205977159479141e-01
      -5.9969975848445278e-01 6.0113557549001284e-01
      4.3461168707603165e-01 -6.3824218824941792e-01
      -9.8707522997771746e-01 4.6546746282061902e-01
      6.0350010703782153e-01 -5.9414036473660448e-01
      -5.6150805055884279e-01 -5.2303272743560258e-01
      -2.9601935448527561e-01 -9.5734173559489233e-01
      -4.9975975484707041e-01 3.7396451213420007e-01
      -3.3494529280085122e-01 7.1879665875581678e-01
      6.5820516882772440e-01 2.1468626211762554e-01
      6.5951793693841521e-01 7.3226087068504253e-02
      4.9945168206724566e-02 1.1048436702681386e-01
      5.9059094276927993e-01 8.6816078786356865e-01
      -5.0699436742777249e-01 -5.2439134297370060e-01
      9.7747145096369981e-01 -6.0126523232830187e-01
      -4.2424182954132206e-01 7.9576005797181626e-01
      -2.1561627886936544e-01 1.1376642371790631e-03
      -3.6281004637110398e-01 -6.9536624730774421e-01
      -4.5233211921680050e-01 7.2223924248510318e-01
      -3.7228138263805444e-01 -7.1057793134397906e-01
      4.8908008258404245e-01 -2.9304682745516009e-02
      8.2720232191466980e-01 -2.0866543292042150e-01
      -6.0264352506715624e-01 -5.2391941381215557e-01
      1.1269761759009021e-01 -3.1915808939125556e-01
      4.4247289179266658e-01 6.0405318357924731e-01
      6.4149255935369465e-01 -3.3416405247780756e-01
      -4.2326727013792859e-01 -5.9913752002407827e-01
      -7.0700469230450380e-01 6.9815547018521862e-01
      -3.8914684966902707e-01 -7.3733617167803189e-01
      8.0656925456295894e-02 -7.5678580456146238e-01
      7.0084205360524132e-01 -7.6282742804578252e-02
      7.4008970952849162e-01 -2.6432830942566621e-01
      6.2604479238345190e-01 -9.3030276996609673e-01
      -5.2898616768286377e-01 9.6734016399947853e-01
      -6.6218376167147941e-01 4.6980836104363544e-02
      -7.8806862989785431e-01 -9.4104030637524738e-01
      3.6440394496166162e-01 -3.6885253384835615e-01
      8.0367218935500029e-01 -4.3181574119633231e-01
      1.7614609759403302e-01 -8.2884227148099743e-01
      4.0317154081098106e-01 -1.6919420469643898e-01
      -8.8954543637665928e-01 3.7647283223850397e-01
      1.4420367753581878e-01 4.2695201109314596e-01
      -8.9670913575704891e-01 3.8712830829105060e-01
      -1.8815648389207462e-01 -7.4560912800557611e-01
      6.1186022738024948e-01 4.0119041731354121e-01
      -2.7736812622704798e-01 4.1215203391536437e-01
      7.6798165867373827e-02 -3.8552269055174038e-01
      6.0369471837150079e-01 -7.4096354260767638e-01
      -6.4168673253617348e-01 2.2014203960829759e-01
      -1.8788028071294177e-01 -3.9703825940714538e-01
      -3.2733634272454681e-02 7.9979832499533954e-01
      8.9262344011268713e-01 8.6946837657097409e-01
      6.1575791817606451e-01 -2.6394466497676849e-01
      3.6704010202561704e-01 6.7521281498259711e-01
      -4.4783055816411388e-01 5.7741929042846030e-01
      -7.4561919686777400e-01 -3.7503905002976529e-01
      8.2815497923658599e-01 -7.3693080364552088e-01
      -5.6695827882883088e-01 -4.9408526273939202e-01
      9.3632365144228402e-02 5.8992472463014245e-01
      4.7245753115355331e-02 5.7360431000228140e-01
      -7.1350504274227089e-01 2.6347128449351387e-01
      -6.2553093908136848e-01 4.6565683726165159e-02
      7.6759874690532692e-02 9.8168057798433184e-01
      -3.9129167116193386e-01 3.2822384388736214e-01
      -2.9881192950769447e-01 -5.0400491207270115e-01
      5.2715242304547472e-01 -7.7723779150659911e-01
      -4.9089380261849913e-01 -6.0863740545446021e-01
      -7.9621571029495541e-01 -3.0569098247154536e-01
      -3.7145674413380803e-01</_></weights></opencv_ml_ann_mlp>
</opencv_storage>
