<?xml version="1.0"?>
<opencv_storage>
<opencv_ml_ann_mlp>
  <format>3</format>
  <layer_sizes>
    48 3</layer_sizes>
  <activation_function>SIGMOID_SYM</activation_function>
  <f_param1>6.6666666666666663e-01</f_param1>
  <f_param2>1.7159000000000000e+00</f_param2>
  <min_val>-9.4999999999999996e-01</min_val>
  <max_val>9.4999999999999996e-01</max_val>
  <min_val1>-9.7999999999999998e-01</min_val1>
  <max_val1>9.7999999999999998e-01</max_val1>
  <training_params>
    <train_method>BACKPROP</train_method>
    <dw_scale>1.0000000000000000e-03</dw_scale>
    <moment_scale>0.</moment_scale>
    <term_criteria>
      <iterations>300</iterations></term_criteria></training_params>
  <input_scale>
    7.3909659483251611e+00 -8.4095556949475136e-01
    1.5170771904612074e+01 -7.0803453980662900e-01
    8.3995721217356198e+00 -4.6767921833324042e+00
    1.3372052652377908e-01 -2.6650009674224253e+00
    1.5278805584605823e+01 -1.2339274489268066e+01
    9.8864336434004707e-01 -4.8558369525544220e+00
    7.3314241484338156e+00 -7.8017514429164148e-01
    1.5391244962992067e+01 -6.5939696622563571e-01
    5.7715199034529192e+00 -2.4888937909812512e+00
    9.4225921147079575e-02 -3.3884826544926119e+00
    9.4085272570470817e+00 -6.0476778161219755e+00
    8.2117766278735349e-01 -4.3537822039359204e+00
    7.5453488913598985e+00 -9.5313855169454997e-01
    1.4201410722086736e+01 -7.0917578396486713e-01
    5.2571146094302330e+00 -2.9077043590782559e+00
    7.9786317041992030e-02 -1.4292539737052572e+00
    8.2084723872398477e+00 -6.7806777626689261e+00
    8.0225988386078573e-01 -3.9693045276055052e+00
    7.3748244905780407e+00 -7.8041159288631667e-01
    1.5621941527382187e+01 -6.6227997915037229e-01
    5.8104712578933038e+00 -2.5040578119119692e+00
    8.8890854303346686e-02 -3.1739874849221130e+00
    8.9944085093007011e+00 -5.8195870207344296e+00
    8.2740385557904639e-01 -4.3817229850445951e+00
    8.0271549431870852e+00 -7.2678943722250744e-01
    1.8838894185714306e+01 -6.5966144019380024e-01
    8.3675227875941101e+00 -3.4711058038819491e+00
    4.5273574247621920e-02 -2.6156920222029907e+00
    7.8915409959696037e+00 -3.1864626904180229e+00
    8.9634721762818037e-01 -4.7619676234484505e+00
    7.7279066173544564e+00 -6.7338067864324314e-01
    1.8037934599606391e+01 -6.3192278506702182e-01
    5.9898814099949194e+00 -1.9425802453042584e+00
    4.8455159152026153e-02 -4.0602409182773007e+00
    8.3413023581344596e+00 -7.8319421153721069e-01
    7.9008711535371523e-01 -4.3380844191977168e+00
    7.9342310318373936e+00 -9.3873025831433765e-01
    1.6035537282699270e+01 -6.9413822800255820e-01
    4.9615764493605035e+00 -2.2863792191554606e+00
    4.8585899876955579e-02 -1.7516781960134142e+00
    4.5101870659580552e+00 -2.8842113026067486e+00
    7.9362674681423706e-01 -4.1370038053992912e+00
    7.8122584722416279e+00 -6.7144688850362544e-01
    1.8510588876810303e+01 -6.3747322400628881e-01
    6.1080758234756916e+00 -1.9834989765862350e+00
    4.4944192213722395e-02 -3.7027030310489066e+00
    7.6722297100429531e+00 -8.7311079592924190e-01
    7.9618281780597322e-01 -4.3700641584939079e+00</input_scale>
  <output_scale>
    5.2631578947368418e-01 4.9999999999999994e-01 5.2631578947368418e-01
    4.9999999999999994e-01 5.2631578947368418e-01 4.9999999999999994e-01</output_scale>
  <inv_output_scale>
    1.8999999999999999e+00 -9.4999999999999996e-01
    1.8999999999999999e+00 -9.4999999999999996e-01
    1.8999999999999999e+00 -9.4999999999999996e-01</inv_output_scale>
  <weights>
    <_>
      -9.4794086546141620e-01 7.4077525153118717e-01
      3.1062705149325953e-01 2.3226543085776619e-01
      -2.5369550420386783e-01 2.6217974470808814e-01
      -8.3405640608074649e-01 8.3466987134501947e-01
      5.4365145635356860e-01 -3.7904888634465500e-01
      -4.3430343707599744e-01 8.9542495744911998e-01
      -1.3997665607430283e+00 7.6079084501376715e-01
      4.2874967991721591e-01 -3.8421425563827932e-01
      -1.2332054785347866e+00 5.0269400740155457e-01
      7.5660101882399700e-01 -7.8469916882293433e-02
      -7.4360350843015899e-01 -4.6624543012343816e-01
      -1.7956501204643693e-01 -1.0217004124171287e+00
      -6.0713816084294991e-01 -6.0764403567194325e-01
      -2.6372963314778547e-01 7.2160843948204600e-01
      7.4942331095994474e-01 -8.5244396429334582e-02
      8.5513362521321856e-01 2.8153460266341734e-01
      9.7781529226635078e-02 2.2444760981828987e-01
      4.4163719519074818e-01 8.9605820398461788e-01
      -8.1649592772621016e-01 -2.8938437257511723e-01
      8.4010493256491781e-01 -6.0038986149739071e-01
      -2.8630286191933330e-01 7.2382235326609190e-01
      -4.5808818871495327e-01 1.9957501694216001e-01
      -3.8621203490015671e-01 -9.8370286407202279e-01
      -2.6483313297942129e-01 4.9475411017119586e-01
      -3.0154794013255509e-01 -6.8252071462687702e-01
      3.9810627691431294e-01 4.0564753786553956e-02
      6.9627158733711980e-01 -1.9766653893856034e-01
      -4.4072818970049399e-01 -4.7123113795235799e-01
      4.3758033492313753e-01 -2.6053549215249155e-01
      5.5798623495919952e-01 5.4004504508503171e-01
      6.0721803735912061e-01 -6.7957022678808299e-01
      -8.3902271510810345e-01 -7.4255128867088993e-01
      -5.3762461646046455e-01 3.8169281047542442e-01
      -5.8730139570317490e-04 -7.6524860793601490e-01
      2.6853818594242063e-01 -6.7039564883435399e-01
      5.6660224477966326e-01 -5.5028143132590752e-02
      7.3134802040732805e-01 -3.6400579490643814e-01
      5.3525742051754599e-01 -8.3399737789584105e-01
      -4.2348021258013518e-01 9.0956359562206512e-01
      -1.0503424550654101e+00 3.3483705996625546e-01
      -9.0125838599434971e-01 -5.0501573334234973e-01
      1.9111538162399441e-01 -4.0102736557948648e-01
      -7.4621152625272663e-02 1.9612863263716757e-01
      -3.3956253552545951e-01 -6.4039048268077492e-01
      2.0133812105252036e-01 -1.2684414079500300e-01
      -7.6300963540225075e-01 3.2425156146839457e-01
      4.8115457361016795e-01 5.3584733903664294e-01
      -8.0231212251898176e-01 3.2974492112419057e-01
      -1.4943467844666139e-01 -6.3452577609284144e-01
      1.9133000871650691e-01 2.9812803106138880e-01
      -1.0471996039769819e-01 2.3690621435791726e-01
      2.8657239604932117e-01 -1.5095096187766646e-01
      5.0935409004625598e-01 -6.2665615212569969e-01
      -7.8657045085829336e-01 2.5587532884388886e-01
      -4.7674755115701162e-01 -1.4481733189075666e-01
      -1.7174226209273788e-01 8.2975147588922549e-01
      1.0370712616858786e+00 8.0001590747654427e-01
      2.6881594444932772e-01 3.4122044823902013e-02
      3.0378833232890934e-01 4.0248812963582670e-01
      -3.3593004364489176e-01 4.1573432829349610e-01
      -7.7474281071944961e-01 -2.2574707945262007e-01
      6.3662966289297773e-01 -5.8769980776502140e-01
      -7.5884556962216132e-01 -4.6331182404379501e-01
      4.0831048296139366e-01 5.6170821103033142e-01
      3.6544705631826946e-01 6.7799143053215472e-01
      -6.1042225974485487e-01 2.0499864371465226e-01
      -8.2930947269815170e-01 -1.6530887957406143e-01
      -3.4847431672239682e-01 7.6782004048490216e-01
      -1.9650019199861246e-01 1.4492637806304587e-01
      3.0248417396387639e-01 -4.4180011014233722e-01
      4.8219026004079646e-01 -6.7732232728839747e-01
      -6.2966055098074025e-01 -5.7441323927125654e-01
      -7.0615648841933520e-01 -1.6433147323247674e-01
      -2.5357200921822404e-01</_></weights></opencv_ml_ann_mlp>
</opencv_storage>
