<?xml version="1.0"?>
<opencv_storage>
<opencv_ml_ann_mlp>
  <format>3</format>
  <layer_sizes>
    48 100 100 100 3</layer_sizes>
  <activation_function>SIGMOID_SYM</activation_function>
  <f_param1>6.6666666666666663e-01</f_param1>
  <f_param2>1.7159000000000000e+00</f_param2>
  <min_val>-9.4999999999999996e-01</min_val>
  <max_val>9.4999999999999996e-01</max_val>
  <min_val1>-9.7999999999999998e-01</min_val1>
  <max_val1>9.7999999999999998e-01</max_val1>
  <training_params>
    <train_method>BACKPROP</train_method>
    <dw_scale>1.0000000000000000e-03</dw_scale>
    <moment_scale>0.</moment_scale>
    <term_criteria>
      <iterations>300</iterations></term_criteria></training_params>
  <input_scale>
    7.3909659483251611e+00 -8.4095556949475136e-01 1. 431602080.
    1.5170771904612074e+01 -7.0803453980662900e-01 1. 431602080.
    8.3995721217356198e+00 -4.6767921833324042e+00 1. 431602080.
    1.3372052652377908e-01 -2.6650009674224253e+00 1. 431602080.
    1.5278805584605823e+01 -1.2339274489268066e+01 1. 431602080.
    9.8864336434004707e-01 -4.8558369525544220e+00 1. 431602080.
    7.3314241484338156e+00 -7.8017514429164148e-01 1. 431602080.
    1.5391244962992067e+01 -6.5939696622563571e-01 1. 431602080.
    5.7715199034529192e+00 -2.4888937909812512e+00 1. 431602080.
    9.4225921147079575e-02 -3.3884826544926119e+00 1. 431602080.
    9.4085272570470817e+00 -6.0476778161219755e+00 1. 431602080.
    8.2117766278735349e-01 -4.3537822039359204e+00 1. 431602080.
    7.5453488913598985e+00 -9.5313855169454997e-01 1. 431602080.
    1.4201410722086736e+01 -7.0917578396486713e-01 1. 431602080.
    5.2571146094302330e+00 -2.9077043590782559e+00 1. 431602080.
    7.9786317041992030e-02 -1.4292539737052572e+00 1. 431602080.
    8.2084723872398477e+00 -6.7806777626689261e+00 1. 431602080.
    8.0225988386078573e-01 -3.9693045276055052e+00 1. 431602080.
    7.3748244905780407e+00 -7.8041159288631667e-01 1. 431602080.
    1.5621941527382187e+01 -6.6227997915037229e-01 1. 431602080.
    5.8104712578933038e+00 -2.5040578119119692e+00 1. 431602080.
    8.8890854303346686e-02 -3.1739874849221130e+00 1. 431602080.
    8.9944085093007011e+00 -5.8195870207344296e+00 1. 431602080.
    8.2740385557904639e-01 -4.3817229850445951e+00 1. 431602080.</input_scale>
  <output_scale>
    5.2631578947368418e-01 4.9999999999999994e-01 5.2631578947368418e-01
    4.9999999999999994e-01 5.2631578947368418e-01 4.9999999999999994e-01</output_scale>
  <inv_output_scale>
    1.8999999999999999e+00 -9.4999999999999996e-01
    1.8999999999999999e+00 -9.4999999999999996e-01
    1.8999999999999999e+00 -9.4999999999999996e-01</inv_output_scale>
  <weights>
    <_>
      -5.7538626581948568e-02 9.0226869845657018e-03
      2.7349466559511090e-02 4.7878893163483455e-02
      1.3497101506052276e-02 5.6766791981207210e-02
      -1.4817702543127729e-02 7.0761195966934139e-03
      -6.0948779251925232e-02 -3.8692116964867712e-02
      4.1779603222145160e-03 3.8020366787206599e-03
      6.4545056132373671e-02 4.0579662517352844e-02
      3.3469616499359485e-02 5.9429284751789362e-03
      1.5573946085141750e-02 -5.3450775360079972e-02
      3.4415658743407240e-02 -2.1648896215098579e-02
      1.1442943306386809e-02 -1.3634639876347091e-02
      -1.1825621018740027e-02 5.6301825597965885e-02
      4.2231956205730586e-02 3.1678637707562497e-02
      3.5957777139920905e-02 -4.1503211256931904e-02
      3.5211193176698401e-02 2.5704537718570602e-02
      1.3522399329123962e-02 1.6776201853685196e-02
      8.3521539600109665e-04 5.4331804016490466e-03
      -3.9501144048620193e-02 -9.3106260473708787e-03
      -4.3501783506902647e-02 -1.6409006989557035e-03
      -5.9547444300025948e-03 4.9778661317887600e-02
      2.8854191822536235e-02 -3.0358962563361375e-02
      6.9015350399426547e-04 -4.3565943533794005e-02
      3.2226183230141051e-02 3.3684731968221436e-02
      -1.7995335830447910e-02 1.2630979805353550e-02
      4.5092357806747037e-02 -3.5597444767881507e-02
      -1.5998984306133262e-02 6.4316388601139710e-02
      2.8521158965171857e-02 2.3648674526105206e-02
      -1.2555077976462159e-02 1.4235656733391725e-02
      2.7019828552102228e-02 6.1378097300110917e-03
      6.4025417992652342e-03 -6.5456934608425429e-02
      -3.3848734319425942e-02 3.9440976665721196e-02
      -6.4740471656635507e-03 -4.1798399678818696e-02
      2.9953375146337599e-03 -2.9919945960218765e-02
      -2.4917985971696800e-02 -2.2846953532076660e-02
      2.5926118737365660e-02 -1.7301641396076928e-02
      -2.0283585029908227e-03 3.3248229842339459e-02
      -3.1918708877085485e-03 1.8797023420702934e-02
      -4.1489708610942179e-02 -1.6954389659437449e-02
      -4.1642394621499738e-03 -2.2514708086995662e-02
      3.7165304871094880e-02 2.6769416119512498e-02
      -9.6457453376429438e-03 -3.5351133313536696e-02
      -4.2327262831456387e-02 -5.3308475789345479e-02
      -5.2055800114501746e-03 2.3472489043595425e-02
      -4.4158389679440895e-03 -5.9978119035513283e-02
      -8.6294092106239794e-03 1.4195715364795712e-02
      9.1909478611531467e-03 2.9862930067971055e-02
      1.8401472915162836e-02 -3.1852587560996605e-02
      1.9558671409033543e-02 -1.1183495682387333e-04
      2.8542852820908449e-02 -6.7195835970728195e-03
      2.4140964028215865e-02 1.2624038685029424e-02
      6.9410691981451863e-03 -1.5902712510497439e-02
      1.3670888325040511e-02 6.7321978437297385e-03
      2.3839844528572175e-02 -1.4059415604707603e-03
      2.8157532770537945e-02 -6.0781009355983110e-03
      1.6417859489006505e-02 1.1035077216791107e-02
      -3.7545304947710446e-02 -3.1552727347269931e-02
      -3.3100811607261270e-02 1.6119544712168411e-02
      -4.0796148964891296e-02 5.7422779523220203e-03
      2.4989918321644419e-02 -2.2336495487229178e-02
      -2.0190901162111360e-02 -2.1735138009517745e-02
      2.7247649498532828e-02 -3.1051225999281763e-02
      -1.3091045501214889e-03 -1.5640424193176048e-02
      -3.8346555444173286e-02 2.4849416931401844e-02
      -8.9128250326560837e-03 -3.8568600452135268e-02
      -1.9910616333741509e-02 -2.4692446839019486e-02
      1.3497443393258044e-02 4.1814422516651351e-02
      -7.3746258846658615e-03 -3.1170584453040013e-02
      -1.7966326280568132e-02 4.8777846383401906e-04
      -1.1464820672685884e-03 -2.0601393936265439e-02
      -1.8746828196714107e-02 -1.4712091096895117e-02
      1.6066438171416023e-02 -1.4515678464819203e-02
      -1.4595566086258567e-02 1.0257634420062818e-02
      -2.2108011721195253e-02 3.1152244996770818e-02
      5.8184839171415885e-03 -2.8685644472110351e-02
      -1.9270506894423250e-02 1.1947658156699650e-02
      2.3872746008648617e-02 9.5891025517059365e-03
      3.8007796296494291e-02 3.8974484986382410e-02
      7.8878742371821901e-03 -1.1397162166200998e-02
      -3.1020690229842891e-02 2.9036850578891993e-02
      -4.2631857000638276e-02 2.5357112594749785e-02
      3.7055633343012560e-02 3.3744318102717143e-02
      -2.7684935290725757e-02 -2.3804596592677044e-02
      -3.4876906668389378e-02 1.7423464175121743e-02
      -3.2068930375484112e-02 -1.7514831704833887e-02
      6.6138425573555393e-03 -1.0185527779413322e-02
      -2.8830123177849235e-02 1.1319979159837333e-02
      -1.3321117587516201e-03 1.9400935613767340e-02
      -8.1098725567561557e-03 -1.6849431920616949e-02
      -4.0435685569825901e-02 -3.3176392885405442e-02
      -1.6565552638585987e-02 -3.5826108233626225e-02
      2.8950934550862620e-02 -1.7457058743785268e-03
      -2.9467478235344794e-02 -1.5083516694338228e-03
      1.5758994416949147e-02 -1.6907197809268030e-02
      1.5297969876319243e-02 -2.0582904239300842e-02
      4.1689120563484609e-02 -1.5456140560046567e-02
      -6.8023330151589520e-03 -6.9519682119008183e-03
      2.1409245943296466e-02 -3.3516331200640202e-02
      5.5578840013299925e-03 -8.4739981142043354e-04
      3.3289359661950055e-02 -1.0343884617067894e-03
      -3.0900207287784170e-02 -2.3178063490245600e-02
      -3.7331301745948627e-02 1.0793642693010475e-02
      3.4186638525830544e-02 2.1918307735112469e-02
      2.8538614379791861e-02 2.6945202274258197e-02
      -1.1373333839652682e-02 -2.4802353651029902e-04
      -4.4768119440113378e-02 -1.1428647699359926e-02
      -2.8672487487386992e-02 -1.5343792026821396e-02
      4.7045168015221774e-02 4.4652322144108615e-02
      -2.8955275338247315e-02 4.3455410062450982e-02
      -2.2837691553840914e-02 -2.6176105713052625e-02
      4.0698926254461747e-02 -2.5009527086428129e-02
      1.3583658683324017e-02 3.6564697059424535e-02
      -3.2883687203786455e-02 -3.9071633858497211e-03
      -3.6512194501380948e-02 2.1747419842627413e-02
      -1.0128104727818027e-02 -2.5445003862790364e-02
      -1.6760230111022806e-02 6.9702591441078892e-03
      -3.1571736428452790e-02 4.6951345851892680e-02
      8.5702339326325580e-03 -1.0791113626145585e-02
      2.1738108908803060e-02 5.4451746833773108e-02
      -4.3741453562009286e-02 3.6611494476890064e-02
      -2.1455699683429211e-02 -1.7874919682362832e-02
      -1.4677019744901109e-02 2.9284229625289954e-02
      2.9308155549798109e-02 -5.3311253467886496e-02
      2.7984209110891015e-03 4.0899949809665118e-02
      1.0451374785401899e-02 4.8500436329027549e-02
      -1.6408932937184130e-02 -9.3564519598315216e-04
      2.1463659172844679e-02 3.0257390726701625e-02
      -8.8833008628332044e-03 -1.6856149254296023e-02
      -2.5244548003458125e-02 3.8914006459712269e-02
      2.7992176427456977e-02 -2.9472274626142672e-02
      1.7991960004785677e-02 -3.2565858576633036e-02
      2.6637772684605616e-02 -1.7917388592271561e-02
      8.6171622076881803e-03 -2.0268603483062024e-02
      3.4569481783496151e-03 -7.4381986964499654e-03
      1.3618555083150753e-02 2.4633018586769358e-03
      -4.9789661434302343e-02 -3.8584626750308132e-02
      -9.8436140015950111e-03 -1.5022072583713577e-02
      1.4791963476028427e-02 -1.4636772893655992e-02
      3.3721004457364076e-02 -6.3489658755931022e-03
      -1.7529740634071383e-04 -3.8837627732045125e-02
      4.5245395013347248e-02 -9.1419447968509593e-03
      -1.7221648798658163e-02 -2.3410190466867528e-02
      1.7432889586375355e-02 -2.4356444287040795e-02
      -2.8803930195719168e-02 2.6046772270265538e-02
      -1.9694242760166708e-02 -1.6530139997775254e-02
      2.0338139237156768e-02 -1.9873996587214324e-02
      -1.4622011030690108e-03 -2.3912283498391116e-02
      -2.6862400573127252e-02 1.7884952538834355e-02
      -2.9225068851775501e-02 3.0687413511973370e-02
      2.0636675670768136e-02 4.5765811830603263e-02
      2.0449933049476766e-02 -8.3943087046434856e-04
      -3.3080207301458969e-02 -6.9607024011073462e-03
      4.1072760681702389e-02 3.0545278534012170e-02
      3.0380012749591099e-02 4.8600869541893785e-02
      1.0796221206137845e-02 4.3827795365130616e-02
      1.4153176641009698e-02 2.0975886861007687e-03
      -3.1322217003527671e-02 -8.3309522120621083e-03
      -1.9859072977027291e-03 -3.4042831870613514e-02
      -4.9185800985631616e-03 -2.1486379151344655e-02
      1.1758128973607617e-03 2.1679019957450748e-02
      -2.7525141362888590e-02 -1.7217443435793570e-02
      1.0321012651882401e-02 7.5719711840021272e-03
      7.2682045233474742e-03 3.4752606908907281e-02
      -1.1692032826204374e-02 -3.0285851217106561e-02
      -1.1491788660314816e-02 3.0193581010835330e-02
      -3.5632289307675410e-02 -2.1653004079673712e-02
      2.6161751596287339e-03 1.0174904926220802e-02
      2.1123159676261685e-02 3.9940227903911940e-02
      -1.7587452336186780e-02 2.4927058598729762e-03
      2.5411551736795195e-02 -5.9527203226141922e-03
      -2.9937180196516082e-02 -6.8836930711091591e-03
      7.2749519094554582e-04 -3.0908489736864497e-02
      -1.1740227092196765e-02 -2.8010403914274260e-02
      1.8581740978920156e-02 2.3052871740371135e-02
      -3.9630435046635715e-02 3.9784728232300816e-02
      8.4171102472081431e-03 1.5513764464070906e-02
      1.0209280473344790e-02 -3.3982600009982593e-02
      2.6513019739916571e-02 -1.3446518848676944e-02
      2.6076370369730862e-02 3.1265745177642655e-02
      1.3472961661818161e-04 3.6834700167727671e-03
      4.1824422080275940e-03 -9.8250976787444978e-03
      3.5567095921783788e-02 2.8417677115000942e-02
      2.2850685941079425e-02 3.5424930830884284e-03
      -3.2630518066606246e-02 2.4829389332928595e-02
      1.9305753648763510e-02 4.5730681455519338e-03
      -1.5201188831567550e-02 3.2753928053396945e-03
      -2.2982447821018547e-03 4.0432418551077473e-02
      1.2731101328204602e-02 9.9429104079702558e-03
      -2.2902608196858968e-02 -1.9131511705771945e-02
      -9.5723366089637083e-03 -2.0880213250159936e-02
      3.5288439651503620e-02 -7.0510586642409294e-03
      -1.7019152910197361e-02 1.6085086378011721e-02
      -2.6037998528948249e-02 -2.9749856722249327e-03
      9.5275368019741222e-03 -9.0297641671850584e-03
      -3.0909600198900898e-02 -1.2730210329446951e-02
      -7.0251244272476043e-03 -3.3006439537894235e-03
      2.7689956269210263e-02 3.9306347465081298e-02
      -3.2199255336382709e-02 -1.5231630801427138e-02
      2.1537957678971646e-02 -7.1881657859834188e-03
      -1.8144671010797753e-02 -3.6452322455392747e-02
      9.8547070024963372e-03 -3.0378670069180463e-02
      -6.0315001004654555e-02 1.0370453015173808e-02
      3.9723815727449395e-02 2.4095751861229617e-02
      2.1725040531775878e-02 7.3386037690800890e-02
      -4.1448045050829198e-02 -2.5437853520625216e-02
      -2.5915170730988080e-02 2.0691485994000166e-02
      -2.1334228532789427e-02 -5.8394316840164877e-02
      2.9932354118983810e-02 4.8579214680175620e-02
      2.4163108498747823e-02 4.9377720211232233e-02
      -2.0455215395526850e-02 -2.7949719555379341e-02
      4.2433112984867329e-02 1.6500348549978512e-02
      2.9286857565742248e-02 -7.6033873480862392e-03
      4.4215219703225301e-03 4.5872540934084945e-02
      -1.0325839141784268e-02 -3.8148798161096363e-02
      3.3857606961581903e-02 -6.9587569369637184e-02
      2.1099451179181689e-02 -2.3334745476045159e-02
      2.1421417952155564e-02 3.7998480707412532e-02
      2.4965867263109180e-02 -2.9635264344460378e-02
      -3.1579682602460774e-02 8.2242180709252068e-03
      9.2560242606439178e-03 -5.9481975778587354e-03
      -1.1872467899037424e-02 -5.6580863906472911e-03
      -7.7443694725787167e-03 -4.5179044539480052e-02
      -2.4647099420363468e-02 1.5739108024006600e-02
      3.4004981830020521e-02 6.5254128869218553e-02
      1.6806363837299618e-05 6.4263376338206737e-02
      6.3498013058395281e-02 -1.7624512522964056e-02
      -2.0751180716905834e-02 6.3901259274698946e-02
      -3.5370486594681463e-02 8.4127978934435514e-03
      1.6344064234479943e-03 2.3771984597916948e-03
      3.0146192552761797e-02 2.8801878217727721e-02
      -3.8381488478797412e-03 -5.0149898075853939e-02
      -1.0965217982418961e-02 -3.1540729413717175e-02
      -7.3819978547482283e-03 -5.3209038744443634e-03
      -5.6543579560874111e-03 2.3148856337942707e-02
      8.6914603911737807e-03 2.4063553402362524e-04
      -4.5085730925807553e-02 2.1783002933634811e-02
      -6.3206101160313520e-03 2.9609630494084702e-02
      3.2606350042287818e-02 3.2453245283182511e-02
      3.2953536407850405e-02 3.6403780598462693e-02
      3.5465158002731798e-02 -1.0279285239551553e-02
      -3.1610591282065746e-02 -1.5883847917743690e-02
      -3.1505487445344510e-02 3.6254472235083643e-02
      -1.8490902762540926e-02 3.8906247182231126e-03
      -8.1946860034107661e-03 -3.6328083818861816e-02
      4.8198924291087565e-04 2.1261920001250507e-02
      4.8284019726279595e-03 -7.9785940355741967e-03
      -1.9750547086922693e-03 7.2429038990389910e-03
      -6.2834848924049613e-02 -3.8705351948575946e-02
      1.8036364238510991e-02 5.0895527486110669e-02
      5.5813374347743671e-03 1.0078686172989603e-02
      5.1076458839539908e-02 1.1059360011163812e-02
      -2.2080059336132149e-02 -4.1560997387692880e-02
      1.9467281176281395e-02 -6.9261945162225292e-03
      -1.5088344355901619e-02 1.3078068280678910e-04
      -1.5505666906872448e-02 1.8191512802173172e-02
      3.2503741287491922e-02 3.1523780471109063e-02
      -1.5634280868630245e-02 4.4138288841561821e-03
      -2.2902203234287780e-02 -2.6115850900621667e-02
      -1.9513014469719828e-02 8.9466160558866765e-03
      9.4770289277152123e-04 -1.8946505858653848e-02
      3.0593465557293514e-02 5.4402127942472988e-03
      -3.0612360983079404e-02 3.4230756169740674e-02
      2.6579741235605199e-02 2.4819239050467897e-02
      -2.5636770741772452e-02 -2.8257499540533661e-02
      -6.2157147241811133e-03 3.1042670312807432e-03
      -5.7294042914998223e-04 6.2107327957467186e-03
      6.8713944792209184e-03 1.9779443805278251e-02
      -5.1535371066159137e-03 3.7567072432595661e-02
      1.6904672780763533e-02 2.4028619617911568e-03
      2.3441086689629895e-02 1.8952211635702085e-02
      -1.4877784332362582e-02 -7.5589872346828856e-03
      3.4030024244392471e-02 2.9047525712611728e-02
      -3.3236377149112227e-02 -3.2768760925878382e-02
      -3.6143961769490807e-02 -6.6263096192995035e-03
      -2.6617934910895983e-02 -4.5372985416284588e-02
      4.3953256259216464e-02 2.4044783122128807e-02
      4.2557760367235541e-02 -3.2754316928121523e-02
      1.8083913131972110e-02 -1.4268017800509170e-02
      -3.1238200915039704e-02 -2.0844832556804149e-02
      -2.8967175204590148e-02 1.6562628096035690e-03
      4.0638972881430176e-03 3.1488774749475930e-02
      2.4239605435628937e-02 -2.6416148150938647e-02
      -2.6157747432754640e-02 -3.8942680508851225e-02
      -3.1847595654021983e-03 2.0257269187372372e-02
      1.4766048048356481e-02 2.9551084753325907e-02
      1.3603931107839305e-02 -1.4018378458837785e-02
      2.6265815050042305e-02 2.8819267507744135e-03
      1.7383816903333828e-02 1.7394971161748447e-02
      -7.2345283665772161e-03 3.6752130008429434e-03
      2.0515585019853559e-02 -5.3917374928543222e-03
      1.8125922142537859e-02 -1.8413920495581888e-03
      -2.4409198647194957e-02 -4.9701260951412500e-03
      1.0360493296373828e-02 -1.3281994218747067e-02
      -1.0996944567211925e-02 1.9762881780209823e-02
      2.5162631373701651e-02 -2.8913989774512604e-02
      -3.8514754909681884e-02 -3.2082908599692803e-02
      2.7563995163839602e-02 -3.4360340583912685e-02
      3.4606563582085186e-02 2.8956728789519506e-02
      2.5494383464383159e-02 -1.9862610787123938e-02
      -2.9637192498245354e-02 -2.5453368029206173e-02
      3.7844494548613120e-02 -3.3371922572077745e-02
      2.7471887153982119e-02 -3.7022479796325065e-02
      -3.7463255744177276e-02 8.8343868551506541e-02
      5.2290611663009322e-02 -2.1761125400081495e-02
      -9.2431038943482178e-03 -6.8282842820265297e-02
      -5.5902510751802005e-02 7.9354169966635683e-03
      -2.2417071657955683e-02 6.0244336609308882e-04
      4.3382230122578462e-02 4.6304262701227346e-02
      -3.4803490585461914e-02 1.2632472838535070e-02
      -3.2239250546200547e-02 -3.7830532909554952e-02
      -2.7678744656670976e-02 -4.5897216353801638e-02
      3.0318319240179564e-02 -6.3800855794538995e-03
      5.5605893261533507e-02 2.4394792566163871e-02
      3.8159797280120540e-02 4.8494105058092915e-02
      4.3685590904078975e-02 -1.3042173584683540e-02
      -2.5860443798676944e-02 -2.6612629912002472e-02
      -6.4319134097849062e-02 -1.4687382963638302e-02
      -9.5961029243570098e-03 -1.1834077571597978e-01
      -2.1193937784189369e-02 4.2206784264710397e-02
      9.3135791664442202e-03 -3.3387801364902062e-02
      4.1378455114946415e-02 -3.1151184733517648e-02
      -2.9957731467495120e-02 9.3258555478065497e-02
      3.0336371051495666e-02 -1.4154512384216923e-02
      1.5887372194452930e-02 -1.2547467818676475e-02
      6.8849965315735465e-02 -1.2031609447164691e-02
      -3.1979831174141111e-02 -4.3607866435050081e-02
      -7.8653557739903311e-03 -3.0806163548282380e-04
      4.9471934323656618e-02 2.9759800649541575e-03
      -6.0493345531258021e-03 1.2543910081552155e-03
      4.3068021566126845e-02 9.4614803025938662e-03
      -4.3334940426216037e-02 -2.2781020127151112e-02
      -3.7771515616934405e-02 2.7437857600500187e-02
      -5.0946673876604641e-02 -4.7322865978442125e-02
      8.2844559515087166e-02 4.8539695083910692e-02
      1.6593527315983278e-02 -4.5036922817158632e-02
      2.4858223880939102e-02 -2.0504711259046113e-02
      -2.7098763850281146e-02 3.6908224841776680e-02
      5.9761401461247102e-02 1.7791081622075874e-02
      -1.4000843186779115e-04 -3.3948445316651824e-02
      5.8165378062034166e-02 -2.6149387193072891e-02
      9.0565480569927845e-02 -8.7323874899457483e-03
      -4.6722292014844576e-02 -2.6464065506719252e-02
      -3.4038742361635982e-02 1.2027677031309551e-02
      -3.5792116039816170e-02 6.1793857343330351e-02
      7.2634830395812578e-03 -8.1000712053133916e-02
      -3.3337086107044750e-02 6.9659133410385723e-02
      3.0485213888652957e-02 -2.3463445690385899e-03
      4.4640879876655763e-02 -7.4049517949195155e-03
      -1.0667071970121238e-01 -2.6701859377397030e-03
      -2.8824954068572849e-02 8.8624197415715547e-02
      -4.4057870040606864e-02 2.0526171173168959e-03
      -1.8094375253056880e-02 -1.2463953349074314e-02
      -4.0038976378027176e-02 3.1976055002355258e-02
      -1.4011192947393572e-03 -1.8142434731873859e-02
      6.1680615134369248e-04 -3.6467531386717107e-02
      2.6639300488440109e-02 3.1716819738157993e-02
      -5.8415748237598021e-03 -1.1691991072586984e-02
      -2.0384611995617499e-02 2.1869742487748218e-02
      2.1775413691960687e-02 -6.4531553601282678e-03
      8.5720358341349785e-03 -3.7054126839846532e-02
      -2.5762497261828769e-02 1.1386153144402104e-02
      1.4229762016944139e-02 -2.4099309011775795e-02
      8.1718096048629622e-03 3.6365970972232187e-03
      9.8582470076447812e-03 1.3579434633051746e-02
      -2.0375228387335822e-02 -1.5097893076173456e-02
      -4.1630810177753505e-03 -5.4577754124442825e-03
      2.7559302340271416e-02 -3.3622736183233581e-03
      -3.0615333535440790e-02 -1.7523277768846407e-02
      -2.7579201813985343e-03 -2.4893466071657003e-02
      -2.9651791228325234e-02 3.9190266665577921e-02
      -2.1555631970832233e-02 -3.9085562844675806e-02
      -3.6084684992246874e-02 1.0952316958230698e-03
      7.8470524350290356e-03 -2.9224729148816252e-02
      -2.6945021105078282e-02 -3.8427296762679440e-02
      -3.5979344792269073e-02 -2.4421350847231367e-03
      3.3300890154708829e-02 2.5212005800690565e-02
      -4.0758689247630271e-02 5.3004884993083420e-03
      2.8512893432051982e-02 1.5177505988897796e-02
      2.0503153386641493e-02 9.5317355238928748e-03
      -2.8684270287627055e-02 3.4704072157572777e-02
      9.7583971900766699e-03 -2.6531131173832198e-02
      -1.8765839661134275e-02 1.2641601516412975e-02
      -2.7396459996629031e-02 -5.7964697518268693e-03
      -1.9856089981319013e-02 4.8050472911779331e-03
      4.4632878043108999e-04 -1.0926279149166419e-02
      2.5209108968425299e-02 2.5781074987513843e-02
      -3.8340250709670551e-02 -9.4276995690025563e-03
      -1.7578559388796173e-02 3.1342589385269501e-02
      1.8022963516507378e-02 1.8601419733834498e-02
      -6.1502261028326816e-03 -2.6081851409412490e-02
      1.4082950556295363e-02 1.3639616596274020e-02
      -2.4097724934151809e-02 -6.4520080682868774e-03
      1.5453654059083751e-02 -1.3265579337708729e-02
      5.3599147423119631e-03 2.3178972239891134e-02
      -2.9742659397237921e-03 -1.5023220258486803e-02
      -1.0298922350719521e-02 -3.7114513983863891e-03
      -3.3893450354665094e-02 6.6147357607237636e-03
      -3.3311627191874804e-02 -2.5003760933184942e-02
      -9.5885880507822104e-03 3.6039083064586898e-02
      -9.9978492964193973e-03 2.0300238065003022e-02
      2.0611001543624420e-02 -3.0348198642883451e-03
      -5.4515134959647125e-02 -1.5650115435452170e-02
      1.4634581234080669e-02 -4.5739899538984136e-02
      -1.0154164838687980e-02 5.4404034774789389e-02
      1.8698896099922143e-02 2.2264976039702504e-02
      5.8138502832753340e-02 4.9966014426091150e-03
      7.2475109780564415e-02 -5.6991960639621767e-02
      4.2306594769821883e-02 -3.6265407138601852e-02
      -2.1465271937434645e-02 -5.1405797754743021e-03
      5.6904555788490824e-02 -1.7316265064202582e-02
      -9.0755012998408845e-03 3.1163107516420558e-02
      2.8060001203641643e-03 1.9408556545128425e-02
      -6.3438639598206892e-02 -5.4882148715193566e-03
      -5.7271657300775616e-02 -4.7090859103962511e-02
      -3.5828049812777527e-02 -8.1895277403932418e-02
      1.9651462447762731e-02 -1.2642647477107713e-02
      6.8637142230079731e-02 7.2926918514959263e-02
      -6.5016932190231844e-02 6.4826975902181505e-02
      -3.9163995239336245e-02 4.7551333607059952e-02
      -2.4449429350010876e-02 1.0803677900211320e-02
      1.0512548644060111e-02 3.5124462649574429e-03
      2.8876132058232837e-02 -5.8753758729899942e-02
      -4.5362478490399566e-02 1.9637340916929823e-02
      1.1015975122390350e-02 8.1967700165630292e-02
      -3.8063010980327064e-02 5.9142422921558198e-02
      9.0669497728713910e-02 1.3740325997697644e-02
      -5.0503358641325456e-02 3.1463047352947450e-02
      -3.8560369784727010e-02 -1.7895823829398232e-02
      7.5872915453263209e-03 -1.2541393972207455e-02
      -6.2958601135316275e-02 -1.5053335784079257e-02
      5.6609979909851574e-02 -2.8717519667809076e-02
      3.7537755331408122e-02 6.6639690459647672e-03
      2.9450456149439155e-02 2.4227871317691746e-02
      -8.1549896767551533e-02 -1.9249756167473788e-02
      -6.9210561100763360e-02 5.1153411901315060e-02
      -6.2458004994046024e-02 -9.9229644758527559e-03
      -1.6829247844800409e-02 -5.6008687637736530e-03
      -5.6933061273357011e-02 6.2630198920525249e-05
      -1.2321589181792849e-02 -3.5154117099967775e-03
      -1.6177471800513990e-03 4.0505090163851482e-02
      -2.1569007727734835e-02 5.1093666499830374e-04
      -1.7712328964409531e-02 4.8771724732554866e-02
      1.4656149410380960e-02 6.1209356765214655e-02
      1.5505989786062453e-02 -1.0292427033308724e-03
      1.5134521285190364e-02 -7.0147977847299040e-03
      1.8761350756491685e-02 -7.9223252342006348e-02
      1.4035852040489419e-02 -2.5357411891445390e-02
      -5.6772347145571840e-02 -4.3747348103705105e-02
      1.4170853514185663e-01 -9.8358605319940565e-04
      -5.8846737996331652e-03 -8.8803223504833537e-02
      3.3876809593124335e-02 4.1476529892549296e-03
      2.4866850183428688e-02 2.7713858550409108e-02
      8.9788399043034695e-03 -1.9574854266329267e-02
      -2.9825280953528401e-02 -4.0926772130012799e-02
      3.8059932420777494e-02 3.3060992945489191e-02
      3.7561773534151917e-02 3.0274466514435657e-02
      -2.7444683191305292e-02 -2.1112469028354647e-02
      -1.2294687571567556e-02 2.8123781742579217e-02
      1.3541164904302171e-02 1.4763347651725300e-02
      -1.5290628525585662e-02 -8.2924919710182510e-03
      -3.8946869284350101e-02 6.9530661152261142e-03
      -2.9127893914022450e-02 2.8643344127750367e-02
      1.3429011746345322e-02 5.7594180750855199e-03
      1.6928072902160335e-02 1.4871650124704318e-02
      -1.0776926720952464e-02 4.0213312774453995e-02
      -1.4195082360543830e-02 -1.1581501201345707e-02
      -1.5872027589294964e-02 4.0999842898497986e-02
      -2.7460796494014117e-02 1.6528740093834510e-02
      -2.5781120384456447e-02 -2.1915113539599077e-02
      3.6296598172976327e-02 -2.5075411201278024e-02
      9.3431752547463963e-03 -2.8849315819021098e-02
      2.7697229638639055e-02 -2.6442048210376094e-02
      3.5241722499127805e-02 -4.0800606077105908e-02
      4.5121277249049581e-02 -2.1804974214971489e-04
      -1.3055209670285981e-02 6.5354789254664101e-03
      -2.2637940970041241e-02 -3.2118581734112202e-02
      3.6841084207075839e-02 -2.9537170252843182e-02
      -2.5334341139112121e-02 1.9434007567105825e-04
      2.5115369990371322e-02 -4.5358444885040677e-02
      -4.3980408688535869e-03 3.4044437317952148e-02
      2.0302876423396527e-02 -1.4921657322953278e-02
      9.1406294494402827e-03 3.3645942203832865e-03
      -3.9760799759158104e-02 -2.4305590158029494e-02
      1.2006986627439422e-02 1.8399492476013232e-02
      3.1062124310973969e-02 -2.3505320627564181e-02
      -1.1477012583830449e-02 -3.0371209302524974e-03
      1.5903543946256146e-02 3.4379036606452522e-02
      -3.2466448917658548e-02 -2.9851207493680754e-02
      6.8978291576976035e-03 1.0481750864759869e-02
      -3.5857336006102948e-02 3.7769347317570624e-02
      9.5569071491722023e-03 -1.0907482356432182e-02
      -3.6795460245489121e-03 -4.1909400435563814e-03
      3.9092857237191204e-03 1.8079641345856094e-02
      -3.5070932413533658e-02 7.0360819497089014e-03
      -2.7093455285636617e-02 -9.4924848744236158e-03
      -1.1518335072985268e-02 -4.4230371977975080e-02
      1.7981419182928865e-03 -3.8597473719081711e-02
      -2.0520318812463526e-02 -1.2494425521758922e-03
      -3.2933738324454898e-02 1.3393090707897770e-02
      -3.4653353201616437e-02 1.1533837164704795e-03
      3.3665444815681412e-03 2.5689001274962500e-02
      5.4193413517030754e-02 1.9962021259291616e-02
      -9.8048839614188858e-03 -2.6754604450793772e-02
      -1.8657875249017769e-02 -3.7295687576512131e-02
      -2.6376446678762388e-02 3.0092755600833493e-02
      4.6603248964117182e-02 -3.0248125541886047e-02
      -2.8747708229883897e-02 4.9731426831455270e-03
      -3.4282716675048633e-02 -5.7125811959238534e-02
      1.7937801170573461e-02 2.9837274703262251e-02
      2.4107180873871877e-02 4.7047278097571152e-03
      2.5026537710796576e-02 2.4328164563393470e-02
      -2.1889584754819873e-02 -4.0977589622871159e-02
      8.1679123977327506e-03 -4.6508789642338401e-03
      3.7907856152758823e-02 -3.2506224002977345e-03
      2.4813273290713957e-02 6.7505878305108999e-02
      -1.0973846667969011e-02 1.2879247991511220e-03
      3.0189055870669221e-03 -2.7901962584362019e-02
      1.2051218755844941e-02 5.0132848682829863e-02
      4.3793663311368650e-02 2.4936157322507920e-02
      5.4858848582483868e-02 -4.9461889414442184e-02
      2.8128020534762318e-02 -3.5396390750361689e-02
      -1.3247407581438050e-02 2.0193853017842927e-03
      4.1375254295252524e-02 4.2348821811457101e-03
      -7.0970061672702830e-03 -2.5249501441731874e-02
      1.3502514316825325e-02 -2.1634473841307244e-02
      -3.3477207200533828e-02 -2.6374844716698306e-02
      -1.0271047793503893e-02 -2.1986857273533462e-02
      -3.1083827993642232e-02 -3.7555089223109031e-02
      -1.5087332655712143e-02 -2.1743225299264344e-02
      6.7119968920829288e-03 -3.3801983193678851e-02
      -4.6964052162520586e-02 -4.6959539812491249e-04
      2.1806174181142349e-02 -6.0091624550379009e-02
      -8.9535228377474220e-03 4.0941845024663602e-02
      -4.0103766286260320e-02 -2.8382688053715792e-02
      -4.0411771088183619e-02 1.8660340391813073e-02
      5.1103171212895726e-03 1.8400052096825756e-02
      9.3991770830028198e-03 -3.5996804727150569e-02
      -1.7581755288993459e-02 3.0496552360897645e-02
      1.8396769757223290e-03 1.8803843558493405e-02
      -1.7934426193742480e-02 4.5096700056859167e-02
      -3.7774469369060773e-02 -1.4942357220536559e-02
      -9.4609425173512937e-03 -2.3710570997439288e-02
      1.7816952727234468e-02 4.0543097606927279e-02
      4.4405552041921301e-02 -2.0774276224467666e-03
      -4.2652491178891680e-02 1.0072236387059846e-02
      3.8588154391434745e-02 6.2488447280550060e-03
      -3.2768232588189734e-02 -2.8177688923939823e-02
      5.7679771375411769e-02 2.1675572102362737e-02
      3.3707909405145120e-02 2.1889255010479568e-02
      -2.0563488372973678e-02 -2.5131951525634567e-02
      3.7274583895872598e-02 4.0174258323618234e-02
      3.8222189391117502e-03 2.4866948216483171e-02
      3.6309154803534027e-02 2.5645216093933020e-02
      -2.3522299812968078e-02 2.6134046684620191e-02
      -2.0922959565337882e-02 4.0710675826512700e-02
      -3.1511750772983800e-02 2.7071256076956957e-02
      -3.6627120490603682e-02 4.1309439892491293e-02
      6.4477239429149014e-03 2.9501579808161347e-02
      2.0575429737476583e-02 -8.9218739104903778e-03
      3.1821226446049393e-02 2.3733630141014869e-02
      -1.8629692328693357e-02 -3.6727941875052406e-02
      -3.3312674083360368e-02 -3.2792221819773868e-03
      5.6388894630068423e-03 -2.6170466446946823e-02
      -3.9986593503560514e-02 -1.2360274520051692e-02
      -2.7013844316512523e-03 -2.8701826918286346e-02
      7.9155823566973947e-03 -3.3191163750595659e-03
      -1.5149462876680658e-02 -4.2501602987012284e-02
      -1.6566201965385632e-02 -1.9915035758255183e-03
      -3.0687613668983312e-02 -1.1024867778728943e-02
      2.9616558317242969e-02 -1.1545162767969980e-02
      -1.1973117428220379e-02 1.5043207613420170e-02
      -1.2382284453722091e-02 -2.3353060188308866e-03
      -3.6050343730954807e-03 -2.7996961708022908e-02
      -7.6918329651193005e-03 3.3286788342063035e-02
      -6.1434563754607296e-03 6.0435055203153327e-03
      9.7109379920640188e-03 1.4333383070070609e-02
      -1.6012963905642205e-02 -6.6560558979232723e-03
      1.4223490427963044e-02 9.3470354923620193e-04
      -3.4470000765403845e-02 2.9458448814608403e-02
      4.9229252437416682e-03 -2.7035556946927580e-03
      2.7315959469616593e-02 2.5276586824935884e-02
      4.9612420434931527e-04 2.7744207728297485e-02
      3.2609157683682291e-02 -3.0308637139641260e-02
      2.5113811648089807e-02 1.6181079779788131e-02
      1.5346182863396811e-02 2.0402756712669518e-02
      -1.2621646545653802e-02 -1.3939652937624562e-02
      -1.2898111987581333e-02 -2.5791292514023127e-02
      1.5703422970910462e-03 -2.2509470808743239e-02
      1.4456387780332184e-04 6.9841594971383212e-03
      1.9416731762140680e-02 1.9571632493407279e-02
      1.5116966415035042e-02 7.6164423057261017e-03
      3.3976276103556122e-02 -4.1151430891533079e-02
      -3.7546806399001376e-02 2.6884836705009406e-03
      -1.5341099447534479e-02 1.1311624815927701e-02
      3.8286155519436434e-02 1.2642499507848445e-02
      6.4482806629154489e-03 -4.8132753344401702e-02
      3.5794879630083536e-02 -2.7635800087224511e-02
      2.1560132395943366e-03 -1.6109897849592103e-02
      5.0674248999814056e-02 1.7364874928234769e-02
      -3.5912808155587464e-02 -9.8258113271974291e-03
      -2.8504075070004072e-02 2.3313711966841898e-03
      -4.8523241462875746e-02 -3.9450829612330901e-02
      5.0963091445382171e-02 7.7877906215428070e-04
      1.2330418022935391e-02 3.8282623313576854e-02
      2.5428718450964016e-02 2.9053211904034856e-02
      -3.6284673222171250e-02 -4.8812886195051686e-03
      -4.2413469984777527e-03 -1.8219928920040322e-02
      1.0750766110611929e-02 3.6341010885001773e-02
      2.7202679568426865e-02 3.7185093445256841e-02
      -3.6504958022396524e-03 -3.5738977456619400e-02
      -2.4934144122594173e-02 3.7917818364956252e-02
      -6.9220767198324247e-03 4.2808323218127269e-02
      4.5117528124517033e-02 1.4687086806234755e-02
      4.5002275470165810e-02 1.8630295170891240e-02
      1.1466835530849287e-03 -3.1585688973021026e-02
      1.8848960254884563e-02 1.9335850865138768e-03
      -1.9943324211718797e-02 -1.5567318222894984e-03
      9.3051897939119953e-03 -6.0409817532610897e-02
      -2.8869292126568948e-02 2.5362173443270943e-02
      -4.7324152280871369e-02 3.0593159852584730e-02
      5.0025539059866467e-02 4.0290869276631280e-02
      -2.9912936366194218e-02 -2.7648453252188773e-02
      -3.2613518616904466e-02 -1.9925371874318414e-02
      1.2426728525260477e-02 2.2949165565505841e-02
      1.5027388053229415e-02 1.6114589700927860e-02
      6.1630571238605030e-03 3.3463799639639358e-02
      2.9277998968988842e-03 3.1136083331899080e-02
      -2.7666472099878148e-02 3.3026881608172791e-02
      -1.3349743210972253e-02 2.6340285328786420e-02
      3.0253521695490768e-02 -3.7727644395619035e-02
      1.9934798055228301e-02 -2.7292906094417143e-02
      -2.2392337909040091e-02 -4.3628962744292525e-03
      1.4546584048609479e-02 -4.3491124772247730e-02
      2.2506369411259122e-02 -2.3115825501995268e-02
      5.1466161449489484e-02 -2.5037527244454530e-02
      -1.0612419175830464e-02 -4.1955368998692196e-03
      8.9185639363296969e-03 2.3753686392741464e-02
      2.8494018822269190e-02 3.0709388761162634e-02
      2.9699522148457897e-03 -3.7434163002551687e-02
      -2.0089737940861465e-02 -1.6165655103732593e-02
      4.1187754256200762e-02 -3.6866785053546367e-03
      -2.5583345923891960e-02 -3.5638791473608780e-02
      -2.8995696549080564e-02 -2.9980498077720286e-02
      -3.4814889275805866e-02 -2.7886010791192243e-02
      2.7000354043576029e-03 -4.0270317141057103e-02
      -2.1725240522582501e-02 -6.2657126401656368e-02
      1.9108945511792170e-02 1.0420629711065126e-02
      -3.9455619123369545e-03 -4.6210546135350951e-02
      -3.7621998611803553e-03 3.3043058627035091e-02
      -1.2246921856699209e-02 -1.0027292692191847e-02
      -3.8251259506334678e-02 -2.9531871082575847e-03
      -2.0800837442250190e-02 -1.7862785969935607e-02
      3.3281133558762478e-02 -2.1825500573794388e-02
      3.1103092151194230e-03 -1.0725551751918461e-02
      2.6161848670039754e-02 -2.5072466927071414e-02
      8.9614248444074476e-03 -1.3966458541096740e-02
      -3.2291898662563656e-02 -1.9745656367718262e-02
      -2.7515426011941499e-02 2.9468233772870247e-02
      -4.1934579302794019e-02 2.6919277343260266e-02
      -3.1320432469489193e-02 -7.4483098345058691e-03
      -2.3114018605180250e-02 -3.1658982776883338e-02
      -1.7082272656032810e-02 1.2889116183578735e-02
      1.4384655310517734e-02 -2.9882409501417958e-02
      -4.1786188572912213e-02 1.7113387799496716e-02
      3.2037957673180427e-02 -2.0038445972125098e-02
      3.7808004246582143e-02 2.9535777998152959e-02
      2.2682515831117144e-02 1.8833121729321355e-03
      -3.1070502441702823e-02 -1.3608121684210566e-02
      6.4783257486623483e-03 -1.9745783814338676e-02
      7.2213818944135118e-03 3.6302084081595611e-02
      -3.2423208784513748e-02 2.0965231968122156e-02
      8.4120542313295601e-04 1.1822208476327242e-02
      -3.1916600590850996e-02 -2.8803172818999696e-02
      2.1118878692146570e-02 3.7662745128478371e-02
      -1.6890624831881147e-02 4.1982404749397698e-02
      8.9540670678898374e-03 -1.4208490032761737e-02
      -8.7804964475129733e-03 -1.2156563422126366e-02
      -3.1085451562530494e-02 -1.7226093167288715e-02
      5.9287358685894184e-03 1.6800465321679430e-02
      3.6964423986102370e-02 -1.7182680912416423e-05
      3.3054370642866871e-03 -3.7362868315585926e-02
      -3.4709233451917731e-02 -1.4396304389666922e-02
      -2.6472216782730620e-02 -7.0286522869818496e-03
      3.2596963501957350e-02 -4.0111383168216072e-03
      1.5981135401202981e-02 3.6260007415941091e-02
      -3.0845536215151081e-02 -4.5345031454755984e-02
      4.0823655380505801e-02 2.8492628831041009e-02
      -7.6892093874926558e-03 1.9216821086384499e-02
      4.6119904411003262e-02 -2.0555209794963062e-02
      -1.7877485458438102e-02 -2.6930012205821550e-02
      2.6652876210494614e-02 -3.6362219946164100e-02
      -4.6158656584529131e-03 1.2929498883327364e-02
      -3.9283776578787163e-02 1.5177282037757282e-02
      -2.0595941118323538e-02 -2.5043528704654941e-02
      2.6429591252497588e-02 -1.2932533182652578e-02
      -2.6956575775716933e-03 -4.3432894450280571e-03
      1.4599442621386823e-02 2.4807291358255740e-03
      -2.0838952310144265e-02 -2.5929590023549047e-02
      -5.1419064025080910e-03 -1.4693114542896112e-02
      4.0578204674699470e-02 1.7704505657481683e-02
      1.1572608066458757e-02 -3.7558591863740241e-02
      -3.5266376547738905e-02 -6.9520324688946301e-03
      -6.6359233511881248e-03 3.3082801975502542e-02
      -1.9022333137304077e-02 5.1794276586763055e-02
      -4.7540981122989167e-03 -2.8616128290298588e-02
      -4.3232611561769163e-02 1.8238075375689285e-02
      -3.3712248065339380e-02 -1.6627241891107303e-02
      4.3916927630099786e-02 3.7153303123394106e-02
      -2.2716842614638341e-02 -3.8277022035127180e-02
      -2.2417881591926653e-03 7.9447345862550907e-05
      3.5280905061072726e-03 3.6904469003057071e-02
      2.6031110973814765e-02 2.6467982379461266e-02
      3.7205144233227690e-02 5.0616142817224957e-02
      3.7328992038664757e-02 2.3005674514314362e-02
      -1.2578420612164999e-02 -2.4095927979020628e-02
      4.2627516654311151e-03 4.4399955547560722e-03
      1.9639406490473067e-02 -1.4006531583799296e-02
      -2.9100934533631863e-02 -1.4210402299116531e-02
      -7.6284199937052388e-03 2.2198666654629925e-02
      -4.4724562778747229e-02 2.3685462890370703e-03
      9.8950920091423807e-03 -2.8750605656528410e-02
      -2.5439157329050378e-02 2.9251836187861580e-02
      -4.5571956563920275e-02 -5.3184637814494083e-02
      3.2030606363628131e-02 1.7143491255695718e-02
      7.7671804005900345e-03 1.1406238788774661e-02
      2.4193695705916750e-02 9.2266314639503010e-04
      2.5115558564029243e-02 3.3803714357830701e-02
      -2.4244622248095142e-02 -1.1780443992281309e-02
      4.0035984343462228e-02 2.5746751617858172e-03
      2.6896608751863092e-02 2.5201485679196792e-02
      3.6642612891768012e-02 -2.7813454847331845e-02
      2.7256895133084845e-02 1.9973870638237242e-02
      -3.4387308013255295e-03 -4.2919882718712304e-02
      1.6556448930996913e-02 1.3312529674967131e-02
      -1.6775622056542233e-02 4.0147298548298613e-02
      3.1042030623131385e-02 2.3251597748907404e-03
      4.1108526032633583e-02 1.9577361763596909e-02
      2.5006335244091574e-02 -1.7362172947670652e-02
      -3.3849726085047674e-02 3.6576868832519767e-02
      4.1088210595509489e-02 -3.5683222945085040e-03
      -7.5140793812070745e-03 2.9984078877709611e-02
      1.5877908956082529e-02 -3.3163283350361346e-02
      3.8147179826722850e-04 -1.5123952837471871e-02
      -8.9239127988760703e-03 -2.6492051699851530e-02
      -8.3119573826755840e-03 -5.6279629175614082e-03
      -2.0388196239301572e-02 -1.0911200726710887e-02
      -1.5139453182034043e-02 1.0566804961524763e-02
      -1.5003267516884666e-02 -4.9436555490697948e-02
      -2.4839479043660618e-02 2.6121178493709016e-02
      -1.7267857416879102e-02 -5.2019916658729639e-05
      -2.2595589212545647e-02 -4.9836583814548644e-03
      -2.4056272499019555e-02 -1.9045533161199286e-02
      3.0206266888778033e-02 -3.9287584356816681e-02
      7.1385687600666555e-04 4.1480508410246801e-02
      2.3581558302280283e-02 -5.7318463783942808e-03
      6.7102745036641768e-03 3.0753229816228331e-02
      1.3458272728316957e-02 -3.3599544465350385e-02
      2.6468171272264203e-02 -1.5103017746080249e-02
      1.7332998988846823e-02 -5.7022488091651273e-03
      2.6110269281161527e-02 3.9781403932558267e-02
      -2.3823827838949860e-02 -1.6027862958297175e-02
      -4.0342987603830038e-02 -2.8299013515000623e-02
      1.9810680210255494e-02 3.7986460466924561e-02
      -1.3323069281513085e-02 3.8447684775839527e-02
      -1.8555920184807197e-02 3.9406701180557356e-02
      -2.6747245316410782e-03 -3.6033235963987213e-02
      3.4413856441481282e-02 -3.9197911557938760e-02
      -2.7974928392016592e-02 -1.7243110639304737e-02
      2.2554946049624661e-02 1.0891608065637834e-02
      1.4529062692936899e-02 4.0876096418441032e-02
      2.7751465978629593e-02 2.6927998863951082e-02
      1.5207482630294377e-02 2.1941773525983317e-02
      -1.4863215729485171e-02 8.5245123586663758e-03
      -4.1329418842322899e-02 -3.3890259723029281e-02
      3.6395289952962529e-03 1.6233715624260635e-02
      1.8028364603380243e-02 2.0185019466025186e-02
      -2.4895622969025654e-02 1.5808481208188070e-02
      2.6343844476075375e-02 2.7709318235203648e-02
      -2.4533562024501968e-02 1.4722815970790765e-03
      -2.0085835106746514e-02 -2.5466164983102852e-02
      6.2057192371315802e-03 -3.1348451343658275e-02
      2.9836270560443915e-02 -3.0221964179103632e-02
      -6.6794238789811104e-03 -4.0565615222439351e-02
      2.5657369199319205e-03 -1.7206393713064441e-02
      -6.0465751298517346e-03 3.0888059965447679e-02
      -3.8588806974720492e-03 -2.0218483969123655e-02
      -2.9670516332880020e-02 -3.9229788079108811e-02
      2.6234679994501648e-02 -1.3868407674527627e-02
      -2.6630522947886311e-02 -3.5263362088602729e-02
      -5.0489138614168193e-03 1.4421042876043393e-02
      -5.3748905272132160e-03 2.5825042243195189e-02
      -3.3141864321094533e-02 -3.8588643781421489e-02
      -2.4997212723817903e-02 -4.1192673977864171e-02
      4.3735263442415878e-02 -2.9188281500062311e-02
      -7.5235795916005670e-03 1.9434926579364322e-02
      -6.8191969578252085e-03 1.5994166985498048e-02
      3.1714115755046283e-02 -3.0048302228541445e-02
      -3.7788558562311596e-03 5.8012769854088563e-03
      3.4372996763569287e-02 3.9492332455971606e-03
      1.4656249913389222e-02 3.9635749264363786e-02
      2.0174879355790099e-02 2.6909929098437223e-02
      -3.8815271143222377e-02 -4.5084994300734246e-02
      2.0800784566776340e-02 4.5335716979408358e-02
      5.2917541372755533e-02 5.7367536314427627e-02
      3.4061187958482037e-02 -1.9868296124079841e-02
      -4.3023650782458102e-02 1.3249691398639510e-03
      1.8484037055478290e-02 -2.8971243089430734e-03
      3.0835766649406154e-02 -5.4297715302556396e-03
      -1.1097275642150092e-02 2.0845949443096652e-02
      -1.5138554285154299e-03 -3.7370361787353729e-02
      -3.6046202416058555e-02 -2.3656674466635975e-02
      -5.0606738848202621e-03 2.3400002346646794e-02
      5.7069352488128874e-02 -1.1978617008079003e-02
      -2.2538288479749338e-02 2.7326078607663496e-02
      -3.0252861407022394e-02 1.4712037442690624e-02
      -4.1211570615353556e-02 7.0369041822744595e-03
      -2.9104870094223700e-02 -1.2424646041604422e-02
      1.8509775192577866e-02 -4.9838831762894255e-02
      -4.6331104242038408e-02 5.7064543058817747e-04
      -3.1153044607908163e-02 2.7338493539604176e-02
      4.2544910935868395e-02 -1.3682033266084611e-02
      -4.1208784920251637e-02 4.1518272412767641e-02
      2.6952491783392745e-02 -5.2019019645964233e-02
      1.2602524953775522e-02 -5.7936757087461797e-03
      3.1675410420986725e-03 7.9229297789763127e-03
      -2.4089681859804046e-02 -1.6751791845052749e-02
      6.6827114680794511e-03 4.7697304391009804e-02
      3.0868551089617273e-02 -2.3255229000425332e-02
      2.4222882005999983e-02 -3.2469074982773016e-02
      -2.0280975099577738e-02 2.0200371422556377e-02
      4.5778948523602689e-02 -2.1088447746913430e-02
      1.4879594379627546e-02 1.6552744077985730e-02
      -5.2219589154801863e-02 -2.8444098724190958e-02
      9.7165303840026484e-03 -2.8421697050230284e-02
      4.4745378129375464e-02 -9.7363534123118475e-03
      -1.0509913643980000e-02 6.0350798280437122e-03
      -1.9106393262178948e-02 -3.2437658705813601e-03
      -3.3164633930981590e-03 -2.2195252351331900e-02
      -3.8051746860942925e-02 2.0511215533240812e-02
      2.2718735723655473e-02 -2.0108484624400610e-02
      5.9072891022028604e-02 -7.5668767728713357e-03
      -3.0181253626584265e-02 -2.3617941967566638e-02
      -2.8815572925156353e-03 -4.1995548345691538e-02
      -4.0176434899389248e-02 -2.0315183308147459e-02
      -3.4380827387993890e-02 -5.1554367531083658e-03
      -3.3154425075476598e-02 -1.0997615193367795e-02
      3.5105939098960773e-02 -4.1358724406588762e-02
      -4.8636864160089603e-02 -3.3732865176307671e-02
      -7.3307906369336609e-02 2.4381788733977693e-02
      -2.8974716860884785e-02 2.1215944032225299e-02
      -7.1292435910739436e-03 -2.0031605034452657e-02
      -1.0137987518848595e-03 3.4829517037890986e-02
      -8.7270303058707959e-03 1.6385610309722274e-02
      1.0484500840741060e-03 -7.9998476571277802e-03
      2.6050529938099184e-02 2.4798162840725814e-02
      -1.3145325466545833e-02 -2.5773674483781060e-02
      -2.3367552464221401e-02 6.3792191317148363e-03
      1.5334206128469110e-02 3.0101614537365044e-02
      4.7440634460553131e-03 3.8097526108795819e-02
      -2.7672549178576877e-02 2.0344505907223222e-02
      8.9918948260734478e-03 2.8504046170687952e-02
      -2.4665991974706668e-02 3.2046625937195851e-02
      2.9752094714384694e-02 2.3603016431852264e-03
      1.6682111254944069e-02 2.5972390330696305e-02
      1.9587008693496194e-02 2.8340032572907845e-03
      -4.1094611559642173e-03 3.1180042195195285e-02
      6.9207848633617008e-03 -3.9477677349594356e-02
      1.9481729122095531e-02 1.8673230485912625e-02
      -1.4972851190945859e-02 -1.7717170347344574e-02
      -1.8419188937783684e-02 -7.6526634497654953e-03
      -1.7976251478388293e-02 -4.8702277449756536e-03
      1.5354883226277202e-02 -1.5851053824903056e-02
      8.4934150958479570e-03 2.3136805518363671e-02
      -1.4416913391962211e-02 4.2322060289646031e-02
      2.5101991817133231e-03 1.8389419244457632e-02
      -1.8537239444344978e-02 3.7692503545873612e-02
      -1.8844605750124047e-02 -3.0677710655007216e-03
      -2.1775638226334583e-02 -3.1315587860249905e-02
      -3.6149862353897798e-02 2.6439270140281967e-02
      -2.9780552800644497e-02 -3.5832948471185587e-02
      1.0266222503077448e-02 3.2316986409043000e-02
      2.5873266873188337e-02 1.1599047791694309e-02
      3.3564634859251471e-02 1.8572670819494140e-03
      -3.7008373309264889e-02 1.3983387769731362e-02
      7.3148298838315038e-03 3.4112616631370475e-02
      2.3247425480811677e-02 3.9496646205860228e-02
      2.8694753523377192e-02 1.0534004290936157e-02
      1.9565266650346851e-02 2.1788864991027803e-02
      -8.0586698587186509e-03 -3.6212681744946740e-02
      2.6390639849221534e-02 2.1196897901585476e-02
      -3.5359753011473906e-02 1.8471698287915082e-02
      1.4102520344900405e-02 -1.6320179132982074e-02
      -4.8284159991800911e-03 -8.5818033015614345e-03
      -1.1261895092296590e-02 -9.4898168959062848e-03
      -2.9463004046281136e-02 -3.4653851079380793e-02
      4.3809825286779423e-02 1.8414220730666665e-02
      -2.1599936482052766e-02 -3.1954336994868895e-02
      -2.8705332563644291e-02 3.4873059656042212e-02
      3.9390752465518722e-02 -1.5204104074528638e-03
      -4.0295607047120860e-02 -9.5670868422531516e-03
      -9.6455450568823028e-03 -2.7452529343903770e-02
      -2.6902827407145988e-02 -2.5966329835435360e-02
      2.7710266379626834e-02 -1.5507550392846388e-02
      -3.5424319700208089e-02 4.8221470998829194e-03
      4.2916802611533647e-02 1.0628505284820297e-02
      2.5249175814975242e-02 -4.1877373586118351e-02
      3.7662624317536336e-02 3.5295479846554255e-02
      1.8728054737304461e-02 2.8212854980764465e-02
      4.3089911365789664e-02 -3.1403716259762386e-03
      3.2494280498467108e-02 1.5551988323904168e-02
      -1.3506414042985056e-02 4.4308480491356515e-03
      -3.3000702675867057e-02 2.7902543568768645e-02
      -2.9811440735335603e-02 -1.8545277698339684e-02
      2.8724951205488822e-02 -1.3250199653895036e-03
      -8.2728110045609433e-03 -2.9013342305866274e-02
      -2.9950034467234082e-02 2.0602900544984547e-02
      3.8873237477970911e-02 5.0010449685980295e-03
      -6.6857054158790171e-03 2.6691061060475505e-02
      -1.4219796389175390e-02 4.3140424074177466e-02
      -2.6515430793114192e-02 3.2347170603900167e-02
      3.4493448138085268e-02 -2.4137893946999282e-02
      -1.1492494311181076e-02 -3.8831276391153524e-02
      2.9597619174593359e-02 -1.7735913884713357e-02
      8.9533115703852480e-03 3.4645315985169664e-02
      -3.6491838443921572e-02 2.8427101395473806e-03
      3.8865179971521523e-02 -2.3566383207921777e-02
      -3.3712621835557892e-02 4.4538704827159332e-02
      1.2680186173239016e-02 -3.8689897828239228e-02
      -3.9051076764433942e-04 4.0128388908767326e-02
      2.7892141432000337e-02 -3.4968251913766950e-02
      -1.1763713208616682e-02 -7.9905279607810087e-04
      1.2959993911527554e-02 -1.3295863528150717e-03
      -1.3622051751113223e-02 -2.7974469025231381e-03
      -3.9937953436326439e-02 1.3239649168956166e-02
      -4.3338132989120350e-02 3.5442813651180988e-02
      -3.8048644099079952e-02 -8.2387739101018181e-03
      -3.4781750878449348e-02 2.5892211609205375e-02
      3.2222285355232333e-02 -2.4943787820529910e-02
      4.9426338888745340e-03 -2.8523416924161306e-02
      -5.0897691426219492e-02 2.3479686388441480e-02
      1.7506330496156797e-02 2.9170130919275644e-02
      -1.1989067138082178e-02 4.6787571350086428e-05
      1.1485643560847726e-02 -3.5723669650100959e-02
      2.6111935101545986e-02 2.1584788245613594e-03
      2.3588493277242183e-02 -2.6787925528491744e-02
      4.6929683953532739e-02 1.0303927778245268e-02
      -1.5651349158705197e-02 -2.1815037922833225e-02
      -2.9227811422181622e-02 -1.1685151377679464e-02
      5.5478093800994950e-02 -5.0005197936269247e-03
      -2.0914042165965444e-02 -5.1173838879260816e-02
      -3.0079509119256671e-02 3.3302716575029756e-02
      -1.1041309523418077e-02 1.8630408444486102e-02
      2.5263362338812708e-02 1.6411858793798223e-02
      1.2622873201050565e-02 -2.9750823381374095e-02
      7.5194823334507272e-03 -2.2995352053490289e-02
      1.1055796925496792e-02 -9.4550907580063064e-03
      2.0910981963106208e-02 -1.6467014690361065e-02
      -3.5825627564564110e-03 -2.8157255966279181e-02
      -5.4066445557605734e-03 3.6019517078328511e-02
      -3.7162042287320397e-03 2.5347759535161991e-03
      3.0554453029698419e-03 3.1653932871895718e-02
      2.5476896818707358e-02 3.0497653493681456e-02
      -1.2924953438567614e-02 -3.3474751584867561e-02
      -3.1720464849294867e-02 -2.2409290197863307e-02
      -9.1822023449210349e-03 -1.3205428501939521e-02
      -3.4636689177991599e-02 1.2576844430340354e-02
      -3.6080466876087222e-02 -1.6297846625007675e-02
      2.9564999112327126e-03 3.4304253372291170e-02
      7.5393756770576878e-03 -4.1474922618917061e-02
      3.8613781618366885e-02 -3.0958455736166398e-02
      6.2919193816856624e-04 -6.4856123242063926e-03
      -1.9797526178696939e-02 4.5276960394519663e-03
      1.3716164862310348e-02 2.8799327613233890e-02
      3.3795147789924353e-02 4.2364259895770175e-02
      3.4049707327018092e-02 3.7233525117171547e-02
      -2.3535086514376920e-02 2.6801601935162272e-02
      -7.6688956447044767e-03 -1.4673390197052178e-02
      -3.7208442798727905e-02 1.1631670839328452e-02
      1.3120289089022880e-04 2.6627025387899086e-02
      -1.2833725631200030e-02 -5.4747785737786448e-03
      -3.7068940881440937e-03 -3.7812237295977734e-02
      -3.3913322730018076e-02 3.0195680722259595e-02
      -2.3987364997770520e-02 -2.0290544530074939e-02
      3.2338141188339373e-02 1.1556204589953200e-02
      -2.8982403888835304e-02 -2.9905166080700738e-02
      1.3978084015528738e-02 3.5181351042257301e-02
      -2.0814841339610281e-02 -3.4655866164841904e-02
      3.1138553089415093e-02 8.4677233279677952e-03
      9.7633857206401321e-03 3.1918066155688041e-02
      -1.2053213178503816e-02 2.4932152716883902e-02
      1.0219463697833987e-02 2.6991374613155324e-02
      -1.4107421343603779e-02 -4.1322954765370831e-02
      -1.9263005293286173e-02 2.5005426235181340e-02
      2.6563630890663225e-02 2.8001041270906408e-03
      1.9428030133737118e-02 -2.7786733643138283e-02
      3.2257263679549848e-02 -3.8634498100222271e-02
      -2.1477247195936053e-02 -3.1260141824186051e-02
      3.0833175981843115e-02 -2.8341210526556072e-02
      2.9166572344908607e-02 -3.6392398506655238e-02
      3.1373334641111236e-02 -1.7048192734439311e-03
      -2.5763834253477745e-02 2.6125168770432056e-02
      4.5288552149653390e-03 -4.6211222875832396e-02
      -2.9027508434290455e-02 5.1245321839090772e-02
      -1.9980939351352905e-02 -1.0691644768919603e-02
      -3.9026224292145806e-02 -3.1844826836385884e-02
      1.3658348346314643e-02 3.5391551028744923e-02
      -1.2070170726871906e-03 -5.5195527221915938e-02
      -1.0744892981795548e-02 2.4229635397849118e-02
      1.8210783891071626e-03 -1.6486496062572492e-02
      6.8782227552736273e-03 -4.3022865775727712e-02
      1.9412205564676571e-02 -1.4949099049923380e-03
      4.5142050483236003e-02 -7.6600687613574631e-03
      -2.4366061621230173e-02 -1.4626435433183796e-02
      2.0303517761313363e-02 2.8172248655654569e-02
      -1.9074682097489363e-02 1.1624904043968810e-02
      2.9947894055767088e-02 -3.2985971295941413e-02
      1.0596675873413768e-02 -2.5359856774211202e-02
      2.3137168299049861e-02 -7.6331330433616229e-02
      -3.5530837131282432e-02 7.5653193174173581e-03
      -3.1351173771790426e-02 2.4381433998434923e-02
      2.5134019106461257e-02 1.0989307918704784e-02
      -4.1260279739810196e-02 4.6808486037911372e-02
      -2.9669591304346529e-02 -1.6189157602148813e-02
      5.2159290021241232e-03 -2.2556308767797528e-03
      3.1567659686720123e-02 1.4374342472311920e-02
      -1.8761171342829560e-02 -3.0860978400244908e-03
      4.1427729148847039e-03 5.6126420219972641e-02
      -2.0003994098676658e-02 -2.4986976560322401e-02
      1.7767468449311298e-02 1.7698219601831402e-02
      1.2819211311848381e-02 -1.8116216322774742e-02
      1.6350237478518357e-02 -4.2227467612122267e-02
      -4.3790498290356611e-02 4.2533499793329120e-02
      -4.4480177232691653e-03 -5.7603177914705263e-03
      1.3815771514343945e-02 3.0606429778860300e-02
      5.7668081615420197e-02 2.1583970050204609e-02
      -1.7010419614386419e-02 3.7431078548106206e-02
      -6.3243123150479681e-03 -2.5326188832817592e-02
      4.2135151129914271e-03 3.6997194899039701e-02
      2.8549173925758621e-04 3.5623432976467188e-02
      4.3200224386408206e-02 -4.0130673082649906e-02
      1.6836639301023384e-02 1.4908649458452066e-03
      -2.0593168572101398e-04 -3.0886962524366852e-02
      -3.4029366073783457e-02 -2.9732784887639002e-02
      -4.0421314596053935e-02 1.7579105626173160e-02
      -2.1054223274160535e-02 -3.3853167417966956e-02
      3.2794833307557315e-02 -1.9897208881436108e-02
      3.7855162373377641e-03 1.5431457225302156e-02
      -3.6116079677674891e-02 2.3705718924851463e-02
      7.3325826838886460e-03 3.5628180947197080e-04
      3.8955352926224901e-02 4.5084454729006899e-02
      -4.6701368247779554e-02 3.8796594619668501e-02
      -2.0727228998946978e-02 -2.9768572118477138e-02
      2.9199009444173203e-02 -1.7772124256760812e-03
      -4.0762080195774403e-02 -1.8812303352890920e-02
      3.9936387210239239e-02 2.5846702699416916e-02
      2.8363117623075936e-03 -3.0301319715386188e-02
      1.3301364798621113e-02 -1.6051870488567429e-02
      4.0072852023285206e-02 8.2098673499030120e-03
      2.2806361640414892e-02 -2.9450190179729496e-02
      -1.7994814089916503e-02 -3.3190258323191314e-02
      3.0864612195848327e-02 -3.2425613021537673e-02
      -4.6112935646406891e-03 -2.0885866559386009e-02
      2.0271780930322246e-02 -1.2085125271489763e-03
      -9.5202698342854563e-03 6.9827081339693996e-03
      -3.9089322010636370e-02 5.6476576687515267e-03
      4.4289367501498724e-03 1.4590021448747468e-02
      1.3399635894541713e-02 1.4760072611585528e-02
      -2.2900712994725562e-02 -3.0968825631197194e-02
      1.0648643185760715e-02 4.9534838816312288e-03
      3.8226215642805136e-02 2.8284211022605362e-02
      6.6627725546201059e-03 -3.6201259276502390e-02
      -2.5378536379930369e-02 9.2664946362803324e-03
      2.1367548007453295e-02 -4.3811996639124863e-03
      -2.6538980940872557e-02 2.6385833095928790e-02
      2.4220674135136941e-02 -4.5957097844063079e-02
      4.2809265874696342e-02 2.7044844607580594e-03
      1.7832804078957473e-02 -8.1277956949091339e-03
      1.5218276483297379e-02 -1.2934103763612663e-02
      2.3855555326075067e-02 -3.4065174607642089e-03
      -9.8669984349032897e-04 -1.4391417972812294e-02
      -2.6428830327887586e-02 -2.7706110474950137e-02
      -3.6935069074649704e-02 2.8012604533929640e-02
      -1.1132809594983990e-02 -2.0438171038605242e-02
      -1.4250441321804365e-02 8.9572448276609047e-03
      -1.9801064195140387e-02 -2.6507643018057695e-02
      1.3150739192006286e-02 -2.7072241310976849e-02
      1.6691387584345147e-02 -7.0101740244877635e-03
      -3.7454384482222394e-02 -3.3925826030145129e-02
      5.0598846866553575e-02 -2.7523418937812971e-02
      -1.5295099777682099e-02 2.5698408341555755e-02
      3.5128207176892620e-02 -1.5502725989188219e-02
      3.2767290609694848e-02 3.0206887011382171e-02
      2.2368683180591355e-02 -3.4512736322320395e-02
      -1.1434962200821189e-02 -2.9785886913695783e-02
      3.0647166053092586e-02 1.6369352149770627e-02
      3.0077507812185281e-02 -1.9929389714713221e-02
      -6.0110491594238405e-03 1.8530123446842569e-02
      1.7342973555823080e-02 3.1511109156579287e-02
      8.7067401822983805e-03 2.6494849116622865e-02
      1.9398899829428728e-02 1.8473106203178791e-03
      -2.3522737601825154e-02 -1.6215691081419186e-03
      1.2877321094234211e-02 -1.4251165050903883e-02
      -1.6308849407405064e-04 -3.1657974921132141e-02
      1.5528381599688426e-02 -7.6548178080567547e-02
      2.4861493393956692e-02 -3.5188866971068274e-02
      -3.2293226733893939e-03 1.7887969213031221e-02
      1.9714257900107012e-02 1.3960602272677402e-02
      -5.9950727162267167e-02 -5.3402470187158768e-02
      1.1757756805849741e-02 -1.3156725649416065e-02
      4.5640383592434788e-02 4.7072178486602910e-02
      1.3101344206778233e-02 1.7177666022404659e-02
      -3.4793240376475104e-02 6.4161323275311747e-03
      2.3389644321661060e-02 -7.5511337902968208e-03
      -3.9647296054493393e-03 -2.9299970215456304e-02
      -1.2730687566170152e-02 5.6556511873698185e-05
      1.9289941598278033e-02 -1.7449016258251650e-02
      -8.4238758126302174e-03 -2.7026007680587740e-02
      -2.6772135631294245e-02 6.9931840696942277e-02
      -6.4155255627846670e-03 -4.8260701709505784e-02
      3.2383552452336838e-02 -4.9338387518739313e-02
      -2.9343058278740911e-02 -1.0979328834650373e-02
      -2.6381297859565767e-02 -3.3638604598148630e-02
      -2.3808346847485180e-02 3.7894851642734581e-02
      -1.8762954815637292e-02 -4.8967715123794220e-02
      -2.3570923926165339e-02 -4.0691778074232139e-02
      -2.6389236704600524e-02 -1.5723544501558131e-02
      1.3475625164810406e-02 -2.2167362674255800e-02
      -3.3718832940067785e-02 3.2560449225475865e-02
      -4.2571759134725606e-02 -1.0257563496121827e-02
      -2.7834997479423924e-02 -2.8664415688328490e-02
      -2.1291783821976249e-02 2.9406539643023758e-02
      -2.6136522207389559e-02 -4.2162257856091186e-02
      1.0023080586346897e-02 3.9566517481057564e-02
      -4.4063192549333705e-02 1.3551331996954174e-02
      -1.1407680457995676e-02 2.9543361951181474e-02
      2.1713074293195682e-02 4.1736781843554217e-03
      3.8633049295202164e-02 9.4136464769542325e-03
      -4.9066144175118176e-02 4.1802137336688864e-03
      4.3122345600081262e-02 -3.2944681248860248e-02
      -1.6118774352245017e-02 6.0514311742500626e-03
      -5.9390532242648487e-02 -4.3246391845293677e-02
      -2.8097989784901828e-02 1.7202968293950030e-02
      1.1899327559993039e-02 -6.4542950694484764e-04
      2.5115340723161159e-02 1.4453129087995476e-02
      -2.3794142113653723e-02 5.0118753312952714e-02
      1.8388450074981563e-02 -3.6049175292885011e-02
      2.0854349845001861e-02 -1.5789766218349328e-02
      9.7524080697948250e-03 -4.4532508700481730e-03
      2.3800482549806570e-02 -3.7650374063918489e-02
      -8.4647368592051433e-03 -4.1357795043091006e-02
      9.5477879426989296e-03 1.8435115494632153e-02
      -2.6181088898701198e-02 2.9509092999659491e-02
      -3.1903789667183991e-03 -1.5568784896894264e-03
      2.6445917375112534e-02 -3.5731121432975958e-02
      -3.4898429495412608e-02 -8.9670348406291310e-03
      -1.9975674997426415e-02 -4.8724020866287845e-03
      -3.0457550763464031e-02 4.6109481358690991e-03
      -3.8111447912201162e-02 9.0022395171746525e-03
      -2.0049768668558138e-02 -1.8822675801708780e-02
      -2.0281278130392259e-02 1.6956920007573033e-02
      9.4876342484758389e-03 1.9640193613149448e-02
      2.8788423851793771e-02 3.8088723289088064e-02
      1.0048132960155186e-02 -2.4365670575762847e-05
      7.7955313051418680e-03 2.1838007668510202e-02
      1.9480303344446431e-02 -2.3777056272423221e-02
      3.5828820283684920e-02 2.7260919126598657e-02
      2.3952847081814686e-02 1.7791248356476903e-02
      1.6977059636151266e-02 -6.8213264108676914e-03
      3.2352899515151794e-02 3.5238552036154419e-02
      -1.1100150718707605e-02 -2.9003199275059646e-02
      1.2541661142005145e-02 -9.1879711340526523e-03
      3.6868805585775336e-02 1.1192377743359676e-02
      1.0291325958491389e-02 4.1606624613482135e-02
      4.8263576314004165e-02 2.7682465495334270e-02
      1.8244381050119739e-02 3.7176743072046799e-03
      2.8884866398650157e-02 -3.9892709227870991e-02
      -6.7059789914377093e-04 1.5909342275973289e-02
      -1.8384485568015255e-02 3.4145707887940205e-02
      -2.7431338193282834e-02 -3.1870174647390684e-02
      -3.0377794737151208e-02 2.4301950915971589e-02
      -3.7104212998990055e-02 -2.8215167649238992e-02
      6.3330390359231702e-03 2.0970617493243925e-02
      -3.3525955425379374e-02 4.5169079433727130e-03
      -2.8970502735811147e-02 2.7589205392773105e-03
      -1.7046640850153189e-02 -1.2794031541420680e-02
      4.2385470078605166e-02 3.8893050287448917e-02
      8.6770362636075845e-03 4.9115918908691014e-05
      2.2930778850879102e-02 -3.1806134495043020e-02
      -4.9513096843618832e-03 -3.0366381223049185e-02
      -6.3885135621002146e-03 2.6434312554245304e-02
      6.4916712608791369e-03 -3.1694366447440066e-02
      3.5984385199792517e-02 -3.2393482143531736e-02
      4.1079289857883977e-02 -1.5284211876547781e-02
      -4.1246060318973557e-02 2.6055482674155021e-02
      -3.6781968720430401e-02 2.8305599257389371e-02
      -1.3291297667428753e-02 5.4808179455050419e-02
      -4.2098281611036570e-02 -8.3264531890657779e-03
      2.4453489703572077e-02 -3.6673431145323766e-02
      1.1990276367115096e-02 -7.0159270416616194e-03
      -2.3533127092666598e-02 3.0538976993749425e-02
      -9.4984659655549617e-03 4.1007463723938251e-02
      -4.1808831239369959e-03 -3.3076827689968509e-02
      3.8717615081411007e-02 3.2941389310475619e-02
      2.9907753087805342e-02 4.3590259341567981e-02
      2.7767579481316688e-02 4.8097597784962877e-03
      1.0713488144524505e-02 -1.2575633228055955e-02
      -1.7325554832740141e-02 -1.5916016459187630e-02
      5.7998994202096359e-02 3.7157598271489005e-02
      3.1221235478778728e-02 -3.0851656902015214e-02
      -1.1731355412972657e-02 -4.7193889123543054e-02
      -5.8957308105343194e-03 1.4613052919488450e-02
      -1.9869055629488052e-02 -2.3323354072731180e-02
      -3.0504652746407027e-02 4.9903640054644934e-02
      2.1317695941429422e-02 6.4203378124717012e-04
      8.2686019870688255e-04 9.5671468674842931e-03
      -4.0736380037468947e-02 2.8021111359038276e-02
      1.4958398296112016e-02 3.0974653433062629e-02
      -4.0229774812109209e-02 -1.2378167234652310e-02
      -5.2580776566798236e-02 6.7134164434583324e-03
      -1.2625940179663843e-02 1.9839131638329129e-02
      2.7746471488734353e-02 -1.4989114448192462e-02
      2.7533853364633674e-02 -2.1259843964139831e-02
      -3.9143033115909678e-02 -5.1681073438655113e-02
      2.3212681216867440e-02 2.1620561454544274e-02
      3.8049557743815535e-02 -4.3796504256428618e-03
      -9.4251242431904990e-03 -3.3618035570031735e-02
      -3.8656438901206965e-02 6.7525968213665910e-02
      2.5047399748965082e-02 -2.3220798021775770e-02
      -1.5613493593829813e-02 -8.2297125175333895e-03
      4.2610515591951288e-02 2.4425549219741789e-02
      -1.3588366824333224e-02 -5.4391246237086251e-02
      -2.0544794273258088e-02 2.4320665162622577e-02
      -3.3683445093433344e-02 -1.8749943840252394e-02
      -2.0678437455279548e-02 2.1961279492423609e-02
      -5.0343541125695331e-03 2.1746626529026817e-02
      -2.8399084553577193e-02 -5.7028888788827205e-02
      4.6515107020740611e-02 -2.7979770134840532e-02
      -2.6409548744032698e-02 3.9582492758216965e-02
      -3.9966977399645727e-02 2.1731205452521878e-02
      4.5275645416809389e-02 -5.0745315794509971e-02
      4.6360128720464917e-02 3.0269569599426650e-02
      2.9873047985464033e-02 3.9823550711792062e-02
      1.7286528285232472e-02 4.1109623038196293e-03
      -5.4077203885639510e-02 3.2503508145759752e-02
      -7.4493444301591419e-03 -1.1815924707625682e-02
      3.0132650230446600e-02 -5.9824630464406524e-02
      3.5329959299395572e-02 2.0837916434716535e-02
      -3.8839557073474251e-02 -3.1165015253162648e-02
      -2.4150554424641202e-02 -2.1190858349069593e-02
      1.1423542206221346e-02 -2.5339601601045309e-05
      -3.4831315730246004e-03 -2.2852178348454814e-02
      -3.2183927574202076e-02 -2.2273067001883400e-02
      4.0457141411289685e-02 1.0663806508963787e-03
      3.1160397584863140e-02 -1.6586220969455356e-03
      1.0298309292219044e-02 1.4136956576458557e-02
      -4.0492829883974464e-02 1.7278781402673436e-02
      2.4060064789079877e-02 3.3831068016652303e-02
      3.3746897315435620e-02 2.1039450592926532e-02
      2.7929236155929463e-02 -1.2962944739587715e-02
      1.4536937428169939e-02 -1.2660348121283390e-02
      3.9817790485227773e-03 3.4909555873593727e-02
      3.5533879491495279e-02 2.7141940917798129e-02
      1.0623409258825873e-02 1.3523107517877794e-02
      4.1362803636509730e-02 3.4562671848784379e-02
      2.3282496650570052e-02 -3.8296788800209321e-02
      3.2670123291127506e-02 2.2721100627705021e-02
      -3.0232925273168947e-02 -1.0552258078379761e-02
      -2.8660231626713606e-02 3.7689300278434069e-02
      -5.1314175935620546e-03 -1.5768285116420696e-02
      1.2136889568899594e-02 4.1831490620166095e-03
      3.2624200526026589e-02 2.9072261650697338e-02
      3.6776291112511392e-02 -3.7679134781054301e-02
      -3.8682249729382605e-02 2.2384353542282843e-02
      3.7355812827288573e-02 3.4321433616857418e-02
      2.8285996039934331e-02 -2.7741122494320640e-02
      -1.8839000200241908e-03 2.2170474108705839e-02
      1.3271443957444276e-02 2.5970444559758259e-02
      1.1733159626783113e-03 2.6373729041989796e-02
      1.0313606999846126e-02 -2.3443283430787491e-02
      -3.4566382415819157e-02 -2.4840382066965077e-02
      1.7366161749609456e-02 3.9847815620202176e-02
      1.8336832621747935e-02 3.6621041912629701e-02
      6.2484640821225627e-03 -3.4393717876692091e-02
      2.2003073312697921e-02 1.4730275301422178e-02
      1.4107513361115232e-02 1.4167501443771904e-02
      4.6833559357259302e-02 -2.1919410481333997e-02
      -2.0101725538828347e-02 -8.9307909583751129e-03
      -1.1498955489438361e-02 1.5736919345439526e-02
      1.3144743291749666e-02 -2.0312644660932348e-02
      4.4647196260209548e-02 1.7200551212763149e-02
      -2.1621331220378268e-02 -2.6762676860920622e-02
      -3.5995074951076636e-02 -1.1302410241676445e-02
      -1.0980581112148545e-02 4.0081211117117370e-02
      1.4250488139245635e-02 1.2199368689123943e-03
      -8.9622026894778245e-03 -4.1513543426488931e-03
      -1.3474805494109350e-03 -2.7786671655466474e-03
      -3.9719118085818787e-02 2.4512113756750085e-02
      1.6961790581405300e-02 -2.6179033182410563e-02
      -1.8724991967940936e-02 7.7681414955572906e-03
      1.4706881910579292e-02 3.1411303433210047e-03
      1.7816027722319112e-02 -1.1145605192347377e-02
      -5.0808355932129977e-02 -8.2170831742389393e-03
      -2.5034434856518694e-02 -2.4290914431609783e-02
      -1.7254636324671880e-02 5.1921558235896309e-02
      9.8161035228526341e-03 -3.6674773370244287e-02
      -1.4571858197519463e-02 1.3180632722940159e-03
      -2.1660779699121353e-02 1.7099068986953774e-02
      3.4608249409399230e-02 5.4344740988589026e-02
      -2.2912452383193421e-02 -1.7725776880767558e-02
      3.6646007443510473e-02 -5.1851732796763889e-02
      3.4363234987102878e-02 -1.1853432573213665e-02
      1.6847305139178131e-02 2.1890653417267685e-02
      4.9402937739900010e-02 3.5679836162234947e-02
      3.9043954249070756e-02 -2.2523748829472862e-02
      -7.3426718816736432e-03 -1.0396009661544215e-02
      -4.2773944815932566e-02 -2.3788548421791504e-02
      3.2000341914710941e-02 2.8070910200088540e-02
      2.5831178183376425e-02 -4.5187008481868518e-02
      -4.7282904537138640e-02 5.2784359369578003e-02
      -4.0681442788548697e-02 4.5849862683783320e-02
      -1.1157232167412915e-02 4.4277757551550119e-02
      3.7982030123301421e-03 9.4447790325505113e-03
      4.5824681587824543e-03 -1.0339761262139029e-02
      2.9507875130682946e-02 2.2456045231497499e-02
      2.9862881282409274e-02 -6.8576792559647331e-03
      9.0985699318317844e-03 -2.7503686578917663e-02
      -3.4602543272378968e-03 5.6921673301580496e-02
      -3.1692690482533196e-02 -6.2827436871767299e-03
      -2.5889815101098980e-02 -1.9624480016841458e-03
      -2.2562505081287210e-03 -3.3503364660040190e-02
      5.0545272933379071e-02 -3.1993008033098499e-02
      -4.1551253559202143e-03 -2.9966610233833305e-02
      -2.3001188790995716e-02 -3.5607598073365325e-02
      -1.7393103209714437e-02 -3.0218311756547468e-02
      -2.9002673416961382e-02 5.3452083161512308e-03
      1.6115282730979594e-02 -4.0609976887331325e-02
      -3.5274256755118342e-03 3.7872304961403556e-02
      -2.5294736785978721e-02 3.0105671769296568e-02
      -5.1689789232441614e-02 2.7164561522100124e-02
      3.2464028841367530e-02 -3.6057045928498246e-02
      -6.3720270952263552e-03 -1.5707217490618760e-02
      1.9807056729842162e-02 1.2959140067093427e-03
      -1.2646710244901511e-02 7.7650226090412878e-03
      -1.3329747914628945e-02 3.9125174381302773e-02
      2.8030641775255100e-03 -2.0463618186926061e-02
      1.6779020900831196e-02 3.6125788423490994e-05
      2.6532381103766260e-02 -4.6707195630519664e-02
      -4.1479224987760743e-02 -2.6811214302342720e-02
      -1.4382933581525408e-03 3.1675990769253412e-02
      -1.6447198563586174e-02 -1.8188539932629602e-02
      -1.3009852636003339e-02 2.1672032574809333e-02
      -3.2555393837954097e-02 1.5343300028872658e-02
      -1.5426547637717546e-02 -1.2951854975573791e-02
      2.3711498228128250e-02 4.5213543910817807e-03
      5.2530799315334224e-03 3.6345693616852328e-03
      -1.8878478624392108e-02 -3.5902316889460280e-02
      6.0647379437185379e-03 3.8706142778905203e-02
      -3.9057984566925504e-02 -2.5176797574593585e-02
      -4.8234490096801808e-02 -1.1061134922190406e-02
      9.7422089907859520e-03 8.9863580817209885e-04
      -6.7070263166989635e-03 2.6110855138929821e-02
      -2.1807543902685727e-02 2.5715655146491767e-02
      1.2489990242982710e-02 -5.9707387705429885e-03
      -1.6283523878661183e-02 -1.3848792539164457e-02
      -4.2053021888939862e-02 2.9137124813554655e-02
      -2.8017426529526650e-02 1.1822196810233858e-02
      -2.6366238760767633e-02 2.0236135832057224e-02
      -2.0698966167668059e-02 4.0053411867557306e-03
      -3.1392297087832123e-02 3.8825130584947021e-02
      2.3643542029338424e-02 7.8426082775579428e-03
      7.8508889443195291e-03 -3.6287169278151954e-02
      -8.5048318597357991e-03 -1.1997786512652773e-02
      -3.7111746275484067e-02 -2.3062648552766483e-02
      -5.6593076687742674e-03 5.6981694300830650e-03
      -3.8059551155399857e-02 1.1963770283739164e-02
      -3.3704829481852328e-02 2.2188564982441581e-03
      -2.0621981140570133e-02 2.3385080167971712e-02
      1.5928954363279235e-02 2.0482459371664097e-02
      3.7585952129464773e-03 2.5517433191743842e-02
      -2.4419595493014364e-02 2.8076817086226884e-02
      -2.9153959092518195e-02 1.2065199191199361e-03
      -1.3130786950428540e-02 -1.6100481702752308e-02
      1.1604264542864149e-02 5.6517792535614843e-03
      -8.1465958432969474e-03 -3.0089958332427520e-02
      3.5341303063476465e-02 1.6436604742483565e-02
      -1.4409053199045445e-02 -1.8604560471989235e-02
      -4.3349644279293623e-02 -2.0339874029156719e-03
      -2.8102767879695133e-02 -2.8115686657064147e-02
      -4.6817044467521031e-02 7.5394716825871299e-03
      1.3092385693750695e-04 3.7726442764685383e-02
      -1.0238757391585189e-02 1.9859149891548838e-02
      1.9660847048523123e-03 3.3050203613992732e-02
      -2.5277659013650693e-02 4.2089771383507446e-02
      -1.5510095161467306e-02 3.2315923537032047e-02
      8.3294773142209670e-03 3.6412869961935206e-02
      -1.4674673367801315e-02 -1.1008133612469123e-03
      2.1553156075782655e-02 -4.9943953317119040e-03
      -3.0861701592315607e-03 1.8346200850360875e-02
      -7.4346970919446677e-03 3.1687532900277426e-02
      7.5425943448289333e-03 2.3919806861855887e-02
      -8.7942595033813822e-03 -4.0652929568335931e-02
      8.7326886402294759e-03 -3.9755712592122509e-02
      9.9887232292195801e-05 6.8210896492488432e-02
      3.4220760002789945e-02 -7.6552487538865208e-03
      1.7142689362794044e-02 1.6602032231271498e-02
      -6.5924804509551488e-02 -2.0618473345856699e-02
      -2.2412089598267102e-02 -2.7007171852647050e-02
      2.8496774546341138e-02 1.2823544884489000e-02
      -3.5342848501429387e-02 8.0362126143394233e-04
      -4.4508419861860875e-02 -1.3218115091709194e-03
      -7.6416529114607008e-03 1.6293616212843573e-02
      6.3538085837287012e-02 2.7685812177896726e-02
      6.5572918929644064e-02 4.4213155849945618e-02
      5.2793581622963583e-02 -2.1936326290101726e-02
      -3.2307140020505033e-02 -1.0456623006943503e-02
      -4.6509382557530753e-02 2.2068619440169780e-02
      1.3353082571621057e-02 -2.7716877168876285e-02
      3.4240141899897193e-02 -7.2408507658916252e-02
      -1.4832529687389078e-02 4.2590557310264419e-02
      -2.0492773767374298e-02 -2.4575634412114970e-02
      -3.9743200602607451e-03 3.2426633845413347e-02
      -9.7839350377408041e-03 4.2914592004645008e-02
      -2.4150098545366566e-02 -7.3726983065808402e-03
      -2.5269035021359000e-02 -2.4603469457982791e-03
      2.4693818124179315e-02 2.1229380345805806e-03
      -1.6402584887521564e-02 1.3269140531479977e-02
      3.7924768451966004e-02 3.7450226205820645e-05
      1.7912831600762923e-02 3.4247682072740052e-02
      -1.6952661213040180e-02 1.0806714551059571e-02
      7.0886558074229916e-02 -1.7704820529455371e-02
      3.6932908405158268e-02 -9.4986932824044912e-03
      8.9208335822407812e-03 3.0573382230778517e-02
      -1.6263991747813657e-02 -4.0565733273587173e-02
      -6.4732884507650535e-03 4.2956913138791533e-02
      1.5998106662787090e-03 2.2190820856399663e-02
      9.5259400091805210e-03 1.2735856056961281e-03
      -5.8947691302041593e-03 2.0932713040651686e-02
      4.8964775881877490e-02 4.6699478827535099e-02
      2.7678447320144718e-03 -1.6479002080621421e-03
      -4.9159335602060195e-05 -5.8811228852675361e-02
      6.0564686912128907e-02 -1.0741896084546546e-02
      -2.8487644300350942e-02 -4.9776479020914824e-02
      -2.3440671199166110e-02 -1.2230927953564757e-02
      -3.0249615451503318e-02 4.0247691372101019e-02
      -2.0234641106356980e-02 -2.1020926352410246e-02
      -4.2556375144660728e-02 1.3825636791058865e-02
      -2.9809197889798276e-02 -2.0341971166512106e-03
      1.4616500062017694e-02 -8.9378647758277911e-03
      -5.0429698946508845e-02 1.6096139985772762e-03
      2.8609912298996166e-02 5.1618994138877800e-02
      -5.4748477606358335e-02 4.6742918780514731e-02
      -2.8673890368781436e-02 1.6975617304078795e-02
      -7.0762221192939272e-03 -4.3633869825302754e-03
      3.5259124591728933e-02 1.4664692619312216e-02
      5.8262746117284502e-03 -3.7258457290150538e-03
      -2.9623333585738130e-02 -3.5206648191931061e-02
      -1.0116002052302890e-02 -3.6566471925135631e-02
      2.3041307659408910e-05 -1.2623127524901622e-02
      -4.3905312557112025e-02 -3.0975446862145033e-02
      -1.7695335663423486e-02 3.7241764846317624e-02
      -4.4555460222945814e-03 3.1176710095749186e-02
      -1.5535014778334421e-02 2.6422723551962415e-02
      -1.2864357848399661e-02 2.7683665966100536e-02
      4.9737928310502715e-03 -2.5621118748127697e-02
      1.7102599807246564e-02 -3.1691080691012632e-02
      1.0067544667278785e-02 -8.6468627839076731e-03
      -1.6628462745576965e-02 1.7226131516050180e-02
      3.6773190244717729e-02 2.2786140037984060e-02
      3.5217601107798764e-02 1.1589594141700832e-02
      -1.4435467980704957e-02 4.6085134236483489e-03
      -3.3725935187388437e-02 3.3059366505851381e-02
      -2.1549888649920700e-02 -2.1440693778780027e-02
      -2.3723969496854302e-02 1.8998165452534788e-02
      -1.0427373974581048e-03 -2.0196855045545629e-02
      -2.0218389688794997e-02 3.3334017832015138e-02
      -1.6053481629669075e-02 -3.6551256028701018e-02
      -4.3040866878361679e-02 -2.2929439020300261e-02
      3.7650517372421921e-02 -3.6067083544684506e-02
      5.9767105958252456e-03 1.9944711119865111e-02
      2.9902808647050628e-02 -1.0351669456818506e-02
      -1.9817480953995943e-02 4.0944759600097712e-02
      -3.3855835127256789e-02 1.7753136524536100e-03
      1.4906479907179176e-02 4.0117864577499496e-02
      -3.2894681930353928e-02 -1.9232205632608509e-02
      2.4210733296032945e-03 1.9093367583174731e-02
      -4.0470119361257995e-02 2.3968725604056371e-02
      -4.0584733327492031e-02 3.3403790659026579e-02
      2.6260253880195421e-02 -3.3970294280736772e-02
      -1.0959072604384976e-02 -3.7523553590275663e-02
      3.8982224754533723e-02 2.4812574276109760e-02
      -3.5617019996532821e-02 -1.4300021151189278e-02
      -3.5903671862338310e-02 1.9729634640128408e-02
      3.6588116336104086e-02 4.6272806574517635e-02
      2.7709808319527299e-02 3.4420185711056824e-02
      2.1558138151471749e-02 3.1414874905175572e-03
      -1.2425100860600301e-02 -9.5839439056717764e-03
      3.4216681999394469e-02 2.3430388848687941e-03
      1.5255524387739625e-02 1.5018878457676386e-02
      -7.7989745899667725e-04 3.7742571767819671e-02
      9.9322133354972086e-03 -2.9664385823735782e-02
      -1.5110248720861872e-02 -6.0913587801446258e-03
      -3.9153310563051741e-02 2.2089837570924267e-02
      3.2890623461682755e-02 -6.7969366363079903e-02
      -2.9940492821883838e-02 -1.8440069640874496e-02
      -3.8395685225332890e-02 5.3133020205103090e-02
      6.8923736116271214e-02 1.7528087537770967e-03
      -7.4347630366712386e-04 1.3674406428027181e-02
      1.8011406589540629e-02 1.0814562451448531e-02
      2.6773589253796765e-02 2.9369279267626513e-02
      2.1611593082287869e-02 2.5103734274808588e-02
      -3.2759128851468693e-02 3.9721702678805294e-02
      1.6288408053442852e-02 7.1813626099135920e-03
      -6.9267369086217223e-02 1.8843580358354428e-02
      -1.4435618358317089e-02 -5.1193429566688362e-02
      -4.8047941807061970e-02 -3.5814229829187305e-02
      -7.8963169118869310e-03 3.8277420215287988e-02
      2.0935500860646484e-02 5.4105736049285924e-02
      -2.1728628042734791e-02 9.2199260879288092e-02
      3.9427829188590717e-02 -1.2635614951422829e-03
      -3.0206079722021831e-02 4.2332248874044180e-02
      4.9288993246164540e-03 -4.8521512901068065e-03
      1.3779717363276127e-02 -6.9735594815845597e-02
      -3.1813316002120583e-02 -3.7768834610380012e-02
      -4.1042114759842888e-02 1.4332690265782332e-02
      -1.7665172240369727e-02 -1.4204640023522917e-03
      1.5103457665467125e-02 2.5360149730705255e-02
      -6.6026402172265700e-02 2.7301723785443318e-02
      -3.3074397178174321e-02 -4.0309903896529949e-02
      -2.5325497421176311e-02 -3.5370981028807105e-02
      -5.6597235788773410e-02 -2.0525355258981741e-02
      3.6905050448663476e-02 -2.5534442362036249e-02
      4.1831321884955822e-02 2.4398804925805252e-03
      -2.7094877025410340e-02 -1.1611478328444861e-02
      -9.8420263946805229e-03 8.2574671798741565e-03
      -4.3445608868167639e-02 4.3933971339027936e-03
      -3.1055409928148935e-02 -3.7067070486319888e-02
      3.8262113762658437e-02 -1.0249282255370062e-02
      -7.7364822159737218e-03 -3.3977588557904795e-02
      4.8006518656578102e-02 -1.6927088477618028e-02
      -6.2152362937077162e-02 -1.2689273613098788e-02
      -2.4483027318778258e-02 3.9841178863472715e-02
      1.0072977985546142e-02 1.9235772579594530e-02
      2.9071902593386215e-02 2.5060718887884123e-02
      6.9721857120407960e-02 -1.6137990845124964e-02
      5.1599933416312097e-02 -4.7745345301068408e-03
      5.1894215548912791e-02 -7.3567096887338229e-02
      2.0760866866808322e-02 2.1605920165497703e-02
      2.1185384355598254e-02 -4.2250325724866408e-02
      1.0618667076447727e-01 4.2111559215803569e-02
      3.9802010075205251e-02 -7.9964762950699486e-02
      5.7315842358973870e-02 -2.4074452938902358e-02
      1.4770452207922048e-02 -3.7756115154019568e-02
      1.6190896745245476e-02 1.7903984922072205e-02
      -4.1217418407743796e-02 2.5535681491536798e-02
      -3.8837545593697315e-02 1.4283236585834485e-02
      8.4528586361861374e-03 5.2911299383730428e-03
      -2.2263252665962290e-02 -2.3279398640391465e-02
      1.8533326783376686e-02 -1.2718264509036433e-02
      -3.4504690477114726e-03 -3.8928618027342268e-03
      -2.4107226321427627e-02 -7.5755669105762209e-03
      1.9048092840224171e-02 -2.5804427580686424e-02
      2.9173415022282830e-02 8.4881207033945180e-03
      -1.4019439176231887e-02 3.9986630852146543e-02
      2.4868565571481007e-02 1.8821709574231116e-02
      -7.7739359710425763e-03 -2.7034846742740773e-02
      1.8984537827410222e-03 -4.0159968997714984e-02
      2.3371493048818321e-02 -3.2241426678807569e-02
      4.1360822979259228e-02 -4.3397345013817631e-02
      3.7166098098305310e-02 -3.9212094253106858e-02
      1.1527413953577256e-02 1.0914108459649874e-02
      -7.3634221646238357e-04 -7.9636812775096249e-03
      -2.8922139983770464e-02 -2.6426333637441044e-02
      -3.8862634459685810e-02 1.3167435640912656e-02
      6.6463183211129461e-03 -2.1500519113424085e-02
      2.2469616644826537e-02 4.2458468084420123e-02
      -3.2328692257731675e-02 3.4401849898581235e-02
      -1.9320094342243407e-02 -2.8775554882223213e-04
      -1.0937049597518201e-02 4.4611861045362015e-03
      3.7679862950179374e-02 -1.8200402701959044e-02
      2.2175289876265112e-03 6.3311680283517444e-03
      4.4204405199975039e-02 -3.8306079488947757e-02
      -1.0554666107869008e-02 1.3996486227539781e-02
      9.8465300894971467e-03 2.0698088856931085e-02
      -6.7985341392677512e-03 -1.8416999562540708e-02
      1.6287744938044156e-02 2.5086258264763014e-02
      2.4658579199993012e-02 1.2972334331732449e-02
      3.6279134170411141e-02 2.1659661655138471e-02
      -2.5856758977611024e-02 -2.2435452621759177e-02
      -6.1988242264027120e-03 3.4948918344921642e-02
      -1.9196611771341618e-02 -3.5724316291773750e-02
      2.1707260389681085e-02 -3.7210518833852957e-02
      -1.2761750626764830e-02 -1.1702345418923286e-02
      2.1032421197644403e-02 2.5045676753573179e-02
      -4.2342836459025035e-02 -2.7751742638721384e-02
      1.5233586203979162e-02 2.2969518122842290e-02
      2.3260015626111824e-02 -4.2002225151833430e-03
      -7.7111058230019470e-04 -3.6073353274121048e-02
      1.4020770384342227e-03 -2.7471344824634970e-02
      1.2198755834350736e-02 2.8436869673906035e-02
      2.0966035261026403e-02 -2.8563873802692895e-02
      -2.6963560633595576e-03 -2.2823620327750226e-02
      -1.6197204508094122e-03 -4.5818571648441934e-02
      3.7637316105196199e-03 6.0604172508223343e-02
      2.4895609506785373e-02 4.2594615240916144e-02
      1.9957890034481067e-04 -2.8720700473777786e-02
      -4.0256076181446609e-02 -1.1258105926439690e-02
      3.0189287075747021e-03 3.9919182897987550e-02
      4.7799104254141354e-03 -1.6717515104888264e-02
      -2.2574160979789426e-02 -4.2428098053601149e-02
      1.2989214659688527e-02 -4.2300590322503828e-02
      1.7743343291047296e-02 1.3223935654161948e-02
      -3.5156351443221072e-03 6.8525215724251909e-03
      2.7843978853930147e-02 -1.8851989476622304e-02
      1.5248139983582498e-02 2.8289687546652412e-02
      2.7770990920037476e-02 -3.4630345433060016e-03
      -1.6895416765342612e-02 2.7790308260580831e-02
      -2.8051404092327863e-02 -9.0914860220590796e-03
      -3.3497085551106751e-04 -8.4684608018617255e-02
      1.9301524200770381e-03 3.6558949722836104e-02
      1.2987848511832177e-02 1.9369278897137347e-02
      4.0260038207266889e-02 2.3596129356539330e-02
      -2.2183180390865581e-04 1.4230712276313239e-02
      2.9907620631025648e-02 -3.6518732519298935e-02
      2.3650036277182698e-03 1.3814385821801143e-02
      4.1428866963028436e-02 -1.4933171654839263e-02
      -4.9683000900601730e-02 -3.3172351389042794e-02
      5.5007158055651040e-03 1.9992600884022684e-02
      2.3385032747563751e-02 3.7291558157081628e-02
      4.2072623359954951e-02 3.6536744999085290e-02
      3.5420331089893058e-02 -3.4375989482818795e-02
      -4.7549473307122829e-02 -2.6937144838134315e-02
      -5.4423833047006778e-02 -2.9829562497303692e-02
      -5.3669828301236018e-02 -4.9173934620270761e-02
      6.7152719899314151e-02 3.2841290531778464e-02
      4.6400601840914241e-02 2.0827155136757602e-02
      3.2538038911416586e-02 -2.3338845568442436e-02
      -5.1325867515903345e-02 -3.9447542693550774e-02
      4.4692886874150767e-02 1.0809996055394110e-03
      -5.2416563971684968e-02 3.0423899950846678e-03
      3.2286427377745654e-02 -2.7205019575258331e-02
      5.5551172582632848e-02 2.8877369618433391e-02
      -4.2087494062885603e-02 -3.1490547234834763e-02
      -3.9228201567268674e-02 -5.4849464804879303e-02
      -2.9489308699504045e-03 4.2376911016100895e-02
      -2.9730029421969551e-02 -5.8787026167999773e-02
      -1.7950986633176871e-02 5.1713332860948230e-02
      2.0044853469755333e-02 -3.3037878135409489e-02
      -1.3990012907205706e-02 2.2247748166035627e-02
      -9.5589063836657315e-02 -4.4627513335238060e-02
      -8.2496330762759969e-03 3.7385066668531197e-02
      -6.4108385736630177e-02 1.4280493779319177e-02
      1.3879227012033370e-02 -1.1678639701871395e-02
      1.7237465929382776e-02 3.4514251431779400e-02
      4.8306845582250539e-03 -9.8684864239690605e-03
      4.0510429069243823e-03 -1.3194820867221799e-03
      -1.3183409240980621e-02 -3.3799602045288077e-02
      -9.6166120655170938e-04 -1.6502019162700371e-03
      -3.6588752039988605e-02 -1.0020999386409797e-02
      -3.4092377466148232e-03 3.4044026467344148e-02
      3.0828624580272437e-02 -1.3774517728065153e-02
      -3.8874406239260438e-02 2.9714116385922435e-02
      -5.5091457308425410e-03 -3.0202489426021705e-03
      1.9123365684179303e-02 -3.8888457964732601e-02
      -3.8628800159548192e-02 1.3987491914629047e-02
      -2.9195684620304606e-02 -4.9842234891508477e-03
      3.2185012013128872e-02 3.7280221338444393e-02
      -2.3897347054680093e-02 -6.6571434269597498e-04
      -3.5957139092785517e-03 3.6570756556548643e-02
      3.9692821827856814e-02 -1.1280977978177849e-02
      -2.8700992640615482e-02 1.2780777924069123e-02
      3.9206469156050250e-02 1.6849227288307556e-02
      -2.4179455501101645e-02 -3.5585922176803349e-02
      -1.5384452084255321e-02 2.1246711272919819e-03
      4.0080239770466250e-02 2.4014496329309732e-02
      -2.7481598554334702e-03 -1.8155266187300924e-03
      2.3276962986697992e-02 -3.3828167263991092e-02
      4.0508236739739065e-02 -3.0814499108978023e-02
      2.4987486993681623e-02 3.0357648966000138e-02
      3.3589247038893232e-02 1.9739281501924694e-02
      -3.8833285138646853e-02 2.3018987369216072e-02
      1.3004084406117873e-02 -2.3132280225165183e-02
      2.5729921297621874e-02 -2.4950376827859454e-02
      2.5537128492521415e-02 -1.7846779429527854e-02
      2.8298038725290277e-02 -2.9550267943304967e-02
      -1.8290676628531854e-02 7.2429741292306836e-03
      4.0239059477086309e-02 2.0239877100000810e-02
      1.7984339778029119e-02 2.4565906850724892e-02
      -2.7754715493644871e-02 2.4726409371397827e-02
      -5.3426539020120355e-03 -1.9314712657491670e-02
      2.3923019072681097e-02 -3.3466702459258584e-02
      -2.1353356884474727e-02 -1.3244394745349618e-02
      -2.4090302586607663e-02 3.6624734094291921e-02
      -3.2800755261586698e-02 -1.7608452387616196e-02
      -2.7592649796580573e-02 3.5654907638076938e-02
      3.7419644809616036e-02 2.9769914249745746e-02
      1.3164361196137600e-02 -9.5234499553749508e-03
      3.4460706328842163e-03 -1.0933254915962226e-02
      2.5320369546843389e-02 6.8399278143277242e-03
      4.0290860465643938e-02 -2.3930145077122832e-02
      -7.5549138849108910e-03 -1.5121366233589806e-02
      -1.5736708913366856e-02 2.4135521660460221e-02
      2.4886197956730704e-02 1.9371776509782270e-03
      2.6065524934880072e-02 -3.2656523133264712e-02
      -5.4461495176957364e-02 -2.7357445975657292e-02
      -2.4636958673001683e-02 1.2102946358539242e-02
      4.7074667622635985e-02 2.8700174838978510e-02
      4.3303030118448639e-02 5.6460849101604933e-02
      -4.2010447667003500e-02 -4.1089208341077828e-02
      1.6608875773397088e-02 2.2509395257435748e-02
      -3.1657955366949833e-02 3.1349936788768497e-02
      3.1145148362490400e-02 -3.4360508733477214e-02
      2.1939334431746796e-02 -1.4702399698397414e-02
      3.5399593778564570e-05 -4.0249533108549035e-02
      -4.3549026741404647e-03 -2.8935320580455236e-02
      -1.2952915263223081e-02 4.7985898102132343e-02
      -1.1148108121116402e-02 1.9581077286257083e-02
      2.4375803830702911e-02 3.0017520388368388e-02
      9.7980183472482271e-03 6.0682984515248298e-02
      4.5081947986515027e-02 -5.3834308024833862e-02
      4.1366323598996217e-03 8.4672033116280025e-03
      -4.7046083424881366e-05 3.0622859841430414e-02
      2.9815483124716970e-02 -3.0848805612256325e-02
      2.4021463164377088e-02 3.7780064811720387e-02
      -1.7877572919418598e-02 -4.5864359177695657e-02
      1.7180826733675183e-02 -5.9670626990660794e-02
      1.3820238616976102e-02 -1.2080642898209759e-02
      -1.8131012648946940e-02 -6.2153007363047318e-02
      -2.0116252477712870e-02 -4.1189831198499820e-03
      2.2492702454150654e-02 -4.9169890374590568e-02
      -3.5959194943483153e-02 -4.7698793252892047e-03
      -4.7677289365046970e-02 5.3328875900015373e-02
      -2.3334881356361036e-02 -1.9542896534201323e-02
      3.2919533853525099e-02 3.8795344099888505e-04
      -5.1465988736097791e-02 2.8553382912334686e-02
      -2.8563027886606349e-02 -8.7851848541254263e-03
      1.6569730405132359e-02 3.0413742228085051e-02
      -3.0608569677601647e-02 -3.3052260447382714e-02
      1.7701196612287376e-02 -2.5754764138030080e-02
      2.7703646605077348e-02 1.4493882995769619e-02
      2.6231310228903019e-02 2.2166697278211984e-02
      -5.0780729648110749e-02 -2.9412220403968035e-02
      2.9525271076795241e-03 3.6483988326804655e-02
      9.5625266347851602e-03 1.5049375185061865e-02
      7.4748742042453728e-02 8.1610634487220470e-03
      -2.3247658808710921e-03 6.2283920457989521e-02
      1.7267706274126941e-02 2.3514339893352821e-02
      -3.8261736768345204e-02 -2.5318054966380364e-02
      -2.4740555509765610e-03 -1.2095594002793891e-02
      5.5098141442911190e-02 -1.8202204523721593e-02
      2.7807213741588750e-02 2.3076682284005139e-03
      6.4391521573305827e-03 -2.9441207293078760e-02
      -2.5633715990417524e-02 -2.7018346529934827e-02
      9.2070173021446371e-03 3.8254462306955532e-05
      2.6965514140854605e-02 -3.1059446916173780e-02
      3.5658919863029441e-03 -2.6043550203897859e-02
      -1.7547288332837450e-02 -1.2900829070170785e-02
      -2.0811534094185069e-02 1.4637806255417043e-02
      -1.8756771207497139e-02 -3.7836132379426160e-03
      1.0495415300495341e-02 -1.0162350941139618e-02
      -4.4046649142559700e-02 -1.1574410475812050e-02
      1.2904781250131942e-02 1.8601235432072316e-02
      -1.0254807589147789e-02 -7.6468186625489425e-03
      2.9314518832902522e-02 2.3839294244731319e-02
      -3.9365551128762270e-02 2.6245572714170204e-02
      -2.0025205027825906e-02 2.0196570838182614e-02
      3.1150501876813258e-02 2.7318594626694864e-02
      3.7621871933055148e-02 -2.6267328363379975e-02
      -6.6118591742737884e-03 -4.2517292044025540e-03
      9.3556165806286500e-03 2.1641399531422963e-02
      -2.5601730057085562e-02 4.3934546466084891e-02
      1.8472475448037269e-02 -1.7098447127265999e-02
      -7.7161265712188615e-03 3.6408778224778948e-02
      -7.2604724534066174e-03 -3.8695824436757682e-02
      -4.7044832747313525e-02 -3.9754697852774606e-02
      -3.9161398508718991e-02 -2.1112382073682285e-02
      1.9001015011342007e-02 3.8775820780718007e-02
      3.7453769102006665e-02 -2.9462877405217844e-02
      -3.9393990986745023e-02 -1.5736138516422995e-02
      3.7377038387389587e-02 -4.5107983541862705e-03
      -2.5910319135132993e-02 4.9997359558804676e-03
      -3.3822797960633574e-02 -4.1697004064424528e-03
      -2.1762725768768514e-02 3.0825758028443062e-02
      3.3135207547667439e-02 -3.9996474830559889e-02
      -1.2276380394750827e-02 -3.5160898225631017e-02
      4.3178840878987809e-02 -1.0802867981415869e-02
      4.4281476051710664e-02 3.5815716640252133e-02
      1.8166030968619632e-02 5.5182130812153453e-03
      1.4852597152207655e-02 9.4884696598309982e-03
      -1.5326803019495901e-02 3.7178486260057673e-02
      -4.1175890782875951e-02 -7.0355302548038186e-03
      -1.5688059710226514e-02 -2.5880317880122108e-03
      3.9091119409617452e-02 -1.3020704924018736e-02
      -2.0714642517555032e-02 1.8879011810231269e-02
      1.8625313425289284e-02 -1.4743331872631294e-02
      1.6701303483639244e-02 3.6343183445170270e-02
      9.8587466408925940e-03 -3.8876251245877481e-03
      2.4921288145191088e-02 3.2878132165228856e-02
      -3.0263984567290417e-02 3.3335959116751003e-02
      -1.0788310072504805e-02 -3.1149999993496623e-02
      -2.8340442396023258e-03 -1.6911882139247023e-02
      2.1048225262509643e-02 -3.3636910157383411e-02
      -3.7652318833334843e-02 -3.4409469807243381e-02
      8.6909355936895683e-03 2.0110458654351189e-02
      1.9703549185167441e-02 2.9469319672383514e-02
      -2.2998240157298351e-02 -3.1195020126129756e-02
      -4.9410394767020513e-02 -2.9906861431834235e-02
      -4.0456527104666379e-02 2.4619743743257528e-02
      -1.2870079702783116e-02 3.3856217545389408e-02
      2.0255596792956771e-03 4.7645173289000489e-02
      -4.1021570866136225e-02 -4.0257210597799693e-02
      2.3128384501507712e-02 1.8693468078262616e-02
      4.5306889839623422e-02 -2.4244598150014632e-02
      -3.1171462701583628e-02 -1.9309969263709547e-02
      1.1502865627137644e-03 3.3113043339742316e-04
      2.0319675989515874e-02 -4.6785299834322773e-02
      3.4859236256584977e-02 1.6163733226336071e-02
      -1.2959696317145636e-02 5.3582822954699807e-03
      -3.1361829924319344e-02 -3.5474626366941542e-02
      -2.3046450280074938e-04 1.2390258095089068e-02
      5.8050011224333037e-04 -2.0222435835543021e-02
      -2.3461897053425804e-02 1.6059707219283608e-02
      -3.6144997185420233e-02 2.7566728714256947e-02
      -1.3930613141538904e-02 1.3227926519105539e-03
      7.8587295503986711e-03 7.4264665433393029e-03
      3.1598261734192994e-02 6.4148680519229603e-02
      8.9859411233653987e-04 -1.7225622616067061e-02
      -2.1860939804323496e-02 2.2583328121103434e-03
      -1.1209611305848795e-02 -1.9587540912070010e-02
      2.0950175282370920e-02 4.8111001988577116e-02
      1.9915048018167292e-02 -3.7776586530342889e-02
      -3.8389584588630365e-03 -1.9968401008473014e-02
      9.9091969413107293e-03 -2.0171936673459536e-02
      3.3581222729646414e-02 -4.5061409176068302e-02
      3.9021472883292850e-02 3.1495851686019156e-02
      2.2583135576167077e-02 3.3310903801885436e-02
      -3.6977172170076121e-03 2.9966268611680769e-02
