%YAML:1.0
opencv_ml_ann_mlp:
   format: 3
   layer_sizes: [ 48, 100, 100, 3 ]
   activation_function: SIGMOID_SYM
   f_param1: 6.6666666666666663e-01
   f_param2: 1.7159000000000000e+00
   min_val: -9.4999999999999996e-01
   max_val: 9.4999999999999996e-01
   min_val1: -9.7999999999999998e-01
   max_val1: 9.7999999999999998e-01
   training_params:
      train_method: BACKPROP
      dw_scale: 1.0000000000000000e-03
      moment_scale: 0.
      term_criteria:
         iterations: 300
   input_scale:
      - 7.3909659483251611e+00
      - -8.4095556949475136e-01
      - 1.
      - 431602080.
      - 1.5170771904612074e+01
      - -7.0803453980662900e-01
      - 1.
      - 431602080.
      - 8.3995721217356198e+00
      - -4.6767921833324042e+00
      - 1.
      - 431602080.
      - 1.3372052652377908e-01
      - -2.6650009674224253e+00
      - 1.
      - 431602080.
      - 1.5278805584605823e+01
      - -1.2339274489268066e+01
      - 1.
      - 431602080.
      - 9.8864336434004707e-01
      - -4.8558369525544220e+00
      - 1.
      - 431602080.
      - 7.3314241484338156e+00
      - -7.8017514429164148e-01
      - 1.
      - 431602080.
      - 1.5391244962992067e+01
      - -6.5939696622563571e-01
      - 1.
      - 431602080.
      - 5.7715199034529192e+00
      - -2.4888937909812512e+00
      - 1.
      - 431602080.
      - 9.4225921147079575e-02
      - -3.3884826544926119e+00
      - 1.
      - 431602080.
      - 9.4085272570470817e+00
      - -6.0476778161219755e+00
      - 1.
      - 431602080.
      - 8.2117766278735349e-01
      - -4.3537822039359204e+00
      - 1.
      - 431602080.
      - 7.5453488913598985e+00
      - -9.5313855169454997e-01
      - 1.
      - 431602080.
      - 1.4201410722086736e+01
      - -7.0917578396486713e-01
      - 1.
      - 431602080.
      - 5.2571146094302330e+00
      - -2.9077043590782559e+00
      - 1.
      - 431602080.
      - 7.9786317041992030e-02
      - -1.4292539737052572e+00
      - 1.
      - 431602080.
      - 8.2084723872398477e+00
      - -6.7806777626689261e+00
      - 1.
      - 431602080.
      - 8.0225988386078573e-01
      - -3.9693045276055052e+00
      - 1.
      - 431602080.
      - 7.3748244905780407e+00
      - -7.8041159288631667e-01
      - 1.
      - 431602080.
      - 1.5621941527382187e+01
      - -6.6227997915037229e-01
      - 1.
      - 431602080.
      - 5.8104712578933038e+00
      - -2.5040578119119692e+00
      - 1.
      - 431602080.
      - 8.8890854303346686e-02
      - -3.1739874849221130e+00
      - 1.
      - 431602080.
      - 8.9944085093007011e+00
      - -5.8195870207344296e+00
      - 1.
      - 431602080.
      - 8.2740385557904639e-01
      - -4.3817229850445951e+00
      - 1.
      - 431602080.
   output_scale:
      - 227158990.
      - -2.1580103950000000e+08
      - 227158990.
      - -2.1580103950000000e+08
      - 227158990.
      - -2.1580103950000000e+08
   inv_output_scale:
      - 4.4022030561062097e-09
      - 9.4999999559779691e-01
      - 4.4022030561062097e-09
      - 9.4999999559779691e-01
      - 4.4022030561062097e-09
      - 9.4999999559779691e-01
   weights:
      -
         - -4.2453622060236222e-02
         - 1.4844944218078693e-02
         - 1.3893803972484232e-02
         - 5.5529771645647437e-02
         - -2.0624382179846262e-03
         - 3.3061022819961122e-02
         - -1.3676162483316925e-02
         - 2.1800604794203170e-03
         - -5.1577443597612252e-02
         - -4.1889848932720068e-02
         - 8.8176432725132169e-03
         - 2.5920804099728290e-02
         - 4.3676962082185855e-02
         - 3.1704727146668159e-02
         - 3.4510752324790742e-02
         - 2.2156194674055447e-03
         - 1.8736989728926061e-02
         - -4.9770278852976767e-02
         - 3.6186356641895220e-02
         - -2.4807270084795760e-02
         - -1.0140052262899159e-02
         - -1.9900375087963960e-02
         - -1.1362013352885092e-02
         - 4.7445953767588436e-02
         - 4.0614925879887291e-02
         - 3.7325086107154279e-02
         - 4.9899297201884893e-02
         - -2.5612237392776935e-02
         - 4.7601032580765930e-02
         - 3.8958589533791943e-02
         - 1.1050579439677778e-02
         - 1.0223931284042010e-03
         - 1.7687498678550099e-03
         - 2.5996277104137263e-02
         - -2.6067342211638801e-02
         - -1.5354054508906641e-02
         - -2.7221917584473124e-02
         - -6.8605812708425725e-03
         - -1.9161036554039713e-02
         - 4.5151067055110981e-02
         - 3.2409505730086163e-02
         - -3.1909916405250566e-02
         - -4.3158695351019852e-03
         - -4.4440336335674339e-02
         - 4.1868706538955601e-02
         - 1.6537077403128705e-02
         - -1.4731431022236599e-02
         - -3.1277846810900409e-03
         - 4.0539622248921499e-02
         - -3.6680552626554550e-02
         - -5.4733656078717946e-03
         - 4.8931138218396682e-02
         - 3.7063707464690468e-02
         - 2.7890344994790872e-02
         - -1.9793416611665140e-02
         - 2.4255676025028847e-02
         - 2.2189188685962289e-02
         - 7.9863632161595172e-03
         - 3.4805688114042631e-03
         - -4.6753609898984673e-02
         - -2.3560698130280801e-02
         - 2.5565722451522065e-02
         - 1.3178816703897389e-03
         - -3.3849711892054699e-02
         - -5.3769932714284622e-04
         - -2.6620095421194031e-02
         - -1.5076638833070742e-02
         - -1.9983697057014648e-02
         - 3.2493169558442066e-02
         - -1.3115110920142461e-02
         - 5.4544545501745319e-03
         - 3.2002149153453466e-02
         - -1.1404247555789601e-02
         - 2.0119954437472325e-02
         - -4.6946616056411469e-02
         - -9.8799514320036547e-03
         - -8.7509295337899941e-03
         - -1.4486179385244227e-02
         - 2.1053705073415249e-02
         - 2.8186212800423143e-02
         - -1.9833870079323138e-02
         - -4.5808053104050062e-02
         - -3.7223462396595637e-02
         - -4.7445077590089091e-02
         - 1.3540958467360094e-02
         - 1.6160793738623131e-02
         - -9.1228110357901154e-03
         - -4.9250406261025552e-02
         - -8.8290154396652876e-03
         - 3.3697226156535851e-02
         - 5.4161667595378857e-03
         - 2.8897409709451684e-02
         - 2.8562374733226415e-02
         - -2.1856969275815000e-02
         - 2.1338177277436612e-02
         - -1.4427450576891350e-03
         - 1.9983986802306983e-02
         - -4.8378422852514849e-03
         - 3.3801857556556930e-02
         - 1.7898349924590645e-02
         - 6.9410691981451863e-03
         - -1.5902712510497439e-02
         - 1.3670888325040511e-02
         - 6.7321978437297385e-03
         - 2.3839844528572175e-02
         - -1.4059415604707603e-03
         - 2.8157532770537945e-02
         - -6.0781009355983110e-03
         - 1.6417859489006505e-02
         - 1.1035077216791107e-02
         - -3.7545304947710446e-02
         - -3.1552727347269931e-02
         - -3.3100811607261270e-02
         - 1.6119544712168411e-02
         - -4.0796148964891296e-02
         - 5.7422779523220203e-03
         - 2.4989918321644419e-02
         - -2.2336495487229178e-02
         - -2.0190901162111360e-02
         - -2.1735138009517745e-02
         - 2.7247649498532828e-02
         - -3.1051225999281763e-02
         - -1.3091045501214889e-03
         - -1.5640424193176048e-02
         - -3.8346555444173286e-02
         - 2.4849416931401844e-02
         - -8.9128250326560837e-03
         - -3.8568600452135268e-02
         - -1.9910616333741509e-02
         - -2.4692446839019486e-02
         - 1.3497443393258044e-02
         - 4.1814422516651351e-02
         - -7.3746258846658615e-03
         - -3.1170584453040013e-02
         - -1.7966326280568132e-02
         - 4.8777846383401906e-04
         - -1.1464820672685884e-03
         - -2.0601393936265439e-02
         - -1.8746828196714107e-02
         - -1.4712091096895117e-02
         - 1.6066438171416023e-02
         - -1.4515678464819203e-02
         - -1.4595566086258567e-02
         - 1.0257634420062818e-02
         - -2.2108011721195253e-02
         - 3.1152244996770818e-02
         - 5.8184839171415885e-03
         - -2.8685644472110351e-02
         - -1.9270506894423250e-02
         - 1.1947658156699650e-02
         - 2.3872746008648617e-02
         - 9.5891025517059365e-03
         - 3.8007796296494291e-02
         - 3.8974484986382410e-02
         - 7.8878742371821901e-03
         - -1.1397162166200998e-02
         - -3.1020690229842891e-02
         - 2.9036850578891993e-02
         - -4.2631857000638276e-02
         - 2.5357112594749785e-02
         - 3.7055633343012560e-02
         - 3.3744318102717143e-02
         - -2.7684935290725757e-02
         - -2.3804596592677044e-02
         - -3.4876906668389378e-02
         - 1.7423464175121743e-02
         - -3.2068930375484112e-02
         - -1.7514831704833887e-02
         - 6.6138425573555393e-03
         - -1.0185527779413322e-02
         - -2.8830123177849235e-02
         - 1.1319979159837333e-02
         - -1.3321117587516201e-03
         - 1.9400935613767340e-02
         - -8.1098725567561557e-03
         - -1.6849431920616949e-02
         - -4.0435685569825901e-02
         - -3.3176392885405442e-02
         - -1.6565552638585987e-02
         - -3.5826108233626225e-02
         - 2.8950934550862620e-02
         - -1.7457058743785268e-03
         - -2.9467478235344794e-02
         - -1.5083516694338228e-03
         - 1.5758994416949147e-02
         - -1.6907197809268030e-02
         - 1.5297969876319243e-02
         - -2.0582904239300842e-02
         - 4.1689120563484609e-02
         - -1.5456140560046567e-02
         - -6.8023330151589520e-03
         - -6.9519682119008183e-03
         - 2.1409245943296466e-02
         - -3.3516331200640202e-02
         - 5.5578840013299925e-03
         - -8.4739981142043354e-04
         - 3.3289359661950055e-02
         - -1.0343884617067894e-03
         - -3.0900207287784170e-02
         - -2.3178063490245600e-02
         - -1.3365809063455601e-02
         - 1.9767898501992894e-02
         - 1.6660422421340710e-02
         - 2.2678408410236221e-02
         - 2.2148405291988454e-02
         - -3.1738936599641737e-03
         - -1.3165424544997808e-02
         - -3.2832477054490833e-03
         - -4.0551158419150871e-02
         - -2.1608217220193970e-02
         - -2.6355526864063141e-02
         - 1.3244256119210401e-02
         - 2.6829911213453961e-02
         - 3.0655320315605424e-02
         - -3.2654773766983523e-02
         - 3.9196652888925494e-02
         - -2.1375730184382661e-02
         - -1.3459045985322184e-02
         - 4.0229712854046244e-02
         - -2.7819270634652202e-02
         - -1.7706140126745235e-03
         - 3.1516375076891048e-02
         - -2.3236436164185172e-02
         - -1.4979775765659410e-02
         - -3.5104861805998269e-02
         - 2.9084933552402995e-02
         - -2.5449797472705876e-03
         - 7.4778654598089739e-04
         - -1.1964344296558283e-02
         - 1.1020697845403504e-02
         - -3.8477873491674523e-02
         - 2.0578293570326554e-02
         - 1.1722124492044902e-02
         - 5.0457694220092187e-03
         - 4.1453735146094281e-02
         - 4.0997080286287048e-02
         - -2.5222203907039734e-02
         - 2.4139072852339093e-02
         - -2.7215621609820120e-02
         - -2.1623831726587571e-02
         - -1.7902708135674694e-02
         - 3.7180904610228396e-02
         - 3.8780109803986017e-02
         - -4.6411709227419343e-02
         - 5.2289127517203479e-03
         - 1.3657554658641387e-02
         - 1.7281900744197259e-02
         - 2.7866982310369309e-02
         - -3.4270169423043936e-02
         - -2.6802610841163183e-03
         - 2.9432191231788005e-02
         - 8.9012294852499410e-03
         - -2.4299133443162323e-03
         - -1.4951041581517933e-02
         - -3.0246680443672229e-02
         - 4.2796798654396270e-02
         - 2.6793805653812428e-02
         - -2.9254138789463861e-02
         - 6.2181691033321917e-03
         - -1.2569558404336814e-02
         - 2.6562832205383854e-02
         - -2.6051151750382844e-02
         - 1.3904478184973543e-02
         - -1.0665452303964871e-02
         - 6.9245284423056956e-03
         - -8.3624668936343131e-03
         - 1.6617979831472882e-02
         - -6.7306299702800049e-03
         - -3.4041865770141969e-02
         - -3.6694965487185982e-02
         - -7.2265298958624057e-03
         - -1.9293995377261848e-02
         - 1.3314657405729525e-02
         - -1.2185689117253698e-02
         - 3.5183959766006079e-02
         - -4.7215663761179597e-03
         - -5.3756615821774472e-03
         - -2.9061177712400594e-02
         - 3.1501550701481466e-02
         - -8.7887798311150189e-03
         - -2.3314492227191452e-02
         - -3.4320267468517685e-02
         - 2.1468377917905894e-02
         - -2.5942846591878350e-02
         - -1.1881130640969854e-02
         - 2.5681079908681841e-02
         - -2.1280121190707001e-02
         - -7.7767214490564816e-03
         - 2.1058056191879362e-02
         - 3.3993549201201140e-03
         - -3.4926957136365571e-03
         - -2.7433104914246269e-02
         - -5.6232384748138237e-03
         - 3.9416741524221789e-02
         - -3.7449419228032327e-02
         - 2.6011843522958215e-02
         - 1.4371916136353054e-02
         - 5.2631245414567880e-02
         - 2.9764247466786801e-02
         - -3.5151198246095175e-03
         - -3.3080207301458969e-02
         - -6.9607024011073462e-03
         - 4.1072760681702389e-02
         - 3.0545278534012170e-02
         - 3.0380012749591099e-02
         - 4.8600869541893785e-02
         - 1.0796221206137845e-02
         - 4.3827795365130616e-02
         - 1.4153176641009698e-02
         - 2.0975886861007687e-03
         - -3.1322217003527671e-02
         - -8.3309522120621083e-03
         - -1.9859072977027291e-03
         - -3.4042831870613514e-02
         - -4.9185800985631616e-03
         - -2.1486379151344655e-02
         - 1.1758128973607617e-03
         - 2.1679019957450748e-02
         - -2.7525141362888590e-02
         - -1.7217443435793570e-02
         - 1.0321012651882401e-02
         - 7.5719711840021272e-03
         - 7.2682045233474742e-03
         - 3.4752606908907281e-02
         - -1.1692032826204374e-02
         - -3.0285851217106561e-02
         - -1.1491788660314816e-02
         - 3.0193581010835330e-02
         - -3.5632289307675410e-02
         - -2.1653004079673712e-02
         - 2.6161751596287339e-03
         - 1.0174904926220802e-02
         - 2.1123159676261685e-02
         - 3.9940227903911940e-02
         - -1.7587452336186780e-02
         - 2.4927058598729762e-03
         - 2.5411551736795195e-02
         - -5.9527203226141922e-03
         - -2.9937180196516082e-02
         - -6.8836930711091591e-03
         - 7.2749519094554582e-04
         - -3.0908489736864497e-02
         - -1.1740227092196765e-02
         - -2.8010403914274260e-02
         - 1.8581740978920156e-02
         - 2.3052871740371135e-02
         - -3.9630435046635715e-02
         - 3.9784728232300816e-02
         - 8.4171102472081431e-03
         - 1.5513764464070906e-02
         - 1.0209280473344790e-02
         - -3.3982600009982593e-02
         - 2.6513019739916571e-02
         - -1.3446518848676944e-02
         - 2.6076370369730862e-02
         - 3.1265745177642655e-02
         - 1.3472961661818161e-04
         - 3.6834700167727671e-03
         - 4.1824422080275940e-03
         - -9.8250976787444978e-03
         - 3.5567095921783788e-02
         - 2.8417677115000942e-02
         - 2.2850685941079425e-02
         - 3.5424930830884284e-03
         - -3.2630518066606246e-02
         - 2.4829389332928595e-02
         - 1.9305753648763510e-02
         - 4.5730681455519338e-03
         - -1.5201188831567550e-02
         - 3.2753928053396945e-03
         - -2.2982447821018547e-03
         - 4.0432418551077473e-02
         - 1.2731101328204602e-02
         - 9.9429104079702558e-03
         - -2.2902608196858968e-02
         - -1.9131511705771945e-02
         - -9.5723366089637083e-03
         - -2.0880213250159936e-02
         - 3.5288439651503620e-02
         - -7.0510586642409294e-03
         - -1.7019152910197361e-02
         - 1.6085086378011721e-02
         - -2.6037998528948249e-02
         - -2.9749856722249327e-03
         - 9.5275368019741222e-03
         - -9.0297641671850584e-03
         - -3.0909600198900898e-02
         - -1.2730210329446951e-02
         - -7.0251244272476043e-03
         - -3.3006439537894235e-03
         - 2.7689956269210263e-02
         - 3.9306347465081298e-02
         - -3.2199255336382709e-02
         - -1.5231630801427138e-02
         - 2.1537957678971646e-02
         - -7.1881657859834188e-03
         - -1.8144671010797753e-02
         - -3.6452322455392747e-02
         - 9.8547070024963372e-03
         - -3.0378670069180463e-02
         - -8.2398869911799469e-02
         - 1.0635230832465497e-03
         - 4.7688538078811800e-02
         - 4.4093603015528816e-02
         - -9.3382802776922295e-03
         - 9.6788589936046013e-02
         - -3.4061569247518117e-02
         - -2.9643199104944888e-02
         - -1.9604331132156263e-03
         - 6.6195506989689470e-02
         - -2.7303587270204519e-02
         - -8.0841365327365050e-02
         - 1.2031186653743258e-02
         - 4.7767134954616194e-02
         - 3.9344533556983190e-02
         - 4.5345861745339590e-02
         - -2.4559356110115390e-02
         - -5.5992553009558431e-02
         - 5.2505706190005344e-02
         - -7.9086278421844401e-04
         - 1.1183323198367156e-02
         - -1.4495559568395789e-02
         - -2.2791275058644100e-02
         - 4.4549354918287584e-02
         - -1.8061793176176098e-02
         - -4.1661900180475303e-02
         - 6.2983023922784126e-02
         - -9.0905985085203894e-02
         - 4.2287735580394802e-02
         - 2.8813881097645407e-03
         - 1.7977414460001444e-02
         - 7.8560244962743137e-02
         - 2.9533766846851578e-02
         - -4.3783971407370609e-03
         - -4.7680010310036033e-02
         - 3.3790582542119099e-02
         - 8.1931988478248403e-03
         - 1.4494589871049082e-02
         - -4.0225712471149720e-02
         - -2.1055166429565550e-02
         - 2.3145961486072810e-02
         - -6.3029819585600472e-02
         - -6.5997909403940638e-02
         - -5.9709434365806217e-03
         - 5.2632840592574601e-02
         - 8.8261305174499788e-02
         - -7.9117655137445411e-03
         - 8.6431733584537221e-02
         - 1.0099644816414950e-01
         - -1.5888738287001603e-02
         - 2.7478314337633382e-03
         - 6.6048304811955214e-02
         - -2.4459349662484503e-02
         - 1.8341058196703428e-02
         - 3.3193798936967129e-03
         - 5.4613364045505534e-03
         - 7.1428759062087824e-03
         - 2.3154119695763798e-02
         - -5.1475074316087216e-04
         - -4.1136658384251887e-02
         - 2.8462914614009575e-02
         - -7.3879581431907843e-02
         - -9.0019489645556689e-03
         - -7.6702307511017165e-03
         - -2.9194575650786349e-02
         - 3.7136289292502470e-02
         - 3.2433376137102038e-02
         - 4.1665381950014319e-02
         - -7.4246820678528336e-02
         - 4.6504375701423711e-02
         - 3.8817698288473321e-03
         - 4.0491941550818110e-02
         - 2.2400208127835101e-02
         - 1.5580493584060705e-02
         - 1.6261150387790989e-02
         - 4.7333612135462770e-02
         - 2.9945653697185270e-02
         - -2.5793781860222052e-03
         - -3.9882369230689337e-02
         - -3.2620191456809368e-02
         - -3.4284382837463656e-02
         - 4.0240022553998479e-02
         - -8.0246640732576733e-03
         - 3.6953298371289710e-02
         - 2.2548798661582710e-03
         - -5.5324633670959467e-02
         - -2.8096072667001513e-02
         - 3.8499156557762350e-02
         - -1.2597392422140134e-02
         - -8.2488818290691063e-03
         - -1.4926798457392773e-02
         - 2.0272055575006005e-02
         - -9.3249576306903781e-02
         - -7.5775262254651532e-02
         - 4.7914359106657971e-02
         - 4.7815415411469664e-02
         - -3.5089750733071877e-03
         - 3.6974441167894122e-03
         - 3.2223066162707148e-02
         - 5.0002813542549290e-02
         - -2.2080059336132149e-02
         - -4.1560997387692880e-02
         - 1.9467281176281395e-02
         - -6.9261945162225292e-03
         - -1.5088344355901619e-02
         - 1.3078068280678910e-04
         - -1.5505666906872448e-02
         - 1.8191512802173172e-02
         - 3.2503741287491922e-02
         - 3.1523780471109063e-02
         - -1.5634280868630245e-02
         - 4.4138288841561821e-03
         - -2.2902203234287780e-02
         - -2.6115850900621667e-02
         - -1.9513014469719828e-02
         - 8.9466160558866765e-03
         - 9.4770289277152123e-04
         - -1.8946505858653848e-02
         - 3.0593465557293514e-02
         - 5.4402127942472988e-03
         - -3.0612360983079404e-02
         - 3.4230756169740674e-02
         - 2.6579741235605199e-02
         - 2.4819239050467897e-02
         - -2.5636770741772452e-02
         - -2.8257499540533661e-02
         - -6.2157147241811133e-03
         - 3.1042670312807432e-03
         - -5.7294042914998223e-04
         - 6.2107327957467186e-03
         - 6.8713944792209184e-03
         - 1.9779443805278251e-02
         - -5.1535371066159137e-03
         - 3.7567072432595661e-02
         - 1.6904672780763533e-02
         - 2.4028619617911568e-03
         - 2.3441086689629895e-02
         - 1.8952211635702085e-02
         - -1.4877784332362582e-02
         - -7.5589872346828856e-03
         - 3.4030024244392471e-02
         - 2.9047525712611728e-02
         - -3.3236377149112227e-02
         - -3.2768760925878382e-02
         - -3.6143961769490807e-02
         - -6.6263096192995035e-03
         - -2.6617934910895983e-02
         - -4.5372985416284588e-02
         - 4.3953256259216464e-02
         - 2.4044783122128807e-02
         - 4.2557760367235541e-02
         - -3.2754316928121523e-02
         - 1.8083913131972110e-02
         - -1.4268017800509170e-02
         - -3.1238200915039704e-02
         - -2.0844832556804149e-02
         - -2.8967175204590148e-02
         - 1.6562628096035690e-03
         - 4.0638972881430176e-03
         - 3.1488774749475930e-02
         - 2.4239605435628937e-02
         - -2.6416148150938647e-02
         - -2.6157747432754640e-02
         - -3.8942680508851225e-02
         - -3.1847595654021983e-03
         - 2.0257269187372372e-02
         - 1.4766048048356481e-02
         - 2.9551084753325907e-02
         - 1.3603931107839305e-02
         - -1.4018378458837785e-02
         - 2.6265815050042305e-02
         - 2.8819267507744135e-03
         - 1.7383816903333828e-02
         - 1.7394971161748447e-02
         - -7.2345283665772161e-03
         - 3.6752130008429434e-03
         - 2.0515585019853559e-02
         - -5.3917374928543222e-03
         - 1.8125922142537859e-02
         - -1.8413920495581888e-03
         - -2.4409198647194957e-02
         - -4.9701260951412500e-03
         - 1.0360493296373828e-02
         - -1.3281994218747067e-02
         - -1.0996944567211925e-02
         - 1.9762881780209823e-02
         - 2.5162631373701651e-02
         - -2.8913989774512604e-02
         - -3.8514754909681884e-02
         - -3.2082908599692803e-02
         - 2.7563995163839602e-02
         - -3.4360340583912685e-02
         - 3.4606563582085186e-02
         - 2.8956728789519506e-02
         - 2.5494383464383159e-02
         - -1.9862610787123938e-02
         - -2.9637192498245354e-02
         - -2.5453368029206173e-02
         - 3.7844494548613120e-02
         - -3.3371922572077745e-02
         - 8.1417962248650083e-02
         - -6.0250373486811955e-03
         - -6.5974084074170408e-02
         - 5.6682301127668276e-02
         - 6.2047337155629378e-02
         - -9.5769808678813906e-02
         - -1.7592495051318383e-02
         - -6.0766439723837024e-02
         - -5.8668244601096736e-02
         - -6.3247812602999817e-02
         - 4.9751162398556535e-03
         - 6.6626221883909945e-02
         - 3.1522509550107033e-02
         - 2.4734193082877991e-02
         - -5.0219793416030348e-02
         - 1.1066533793681376e-02
         - -1.1301132085293037e-02
         - 1.5587884749781762e-02
         - -3.7926981474000004e-02
         - -2.1722617909787516e-02
         - 1.0872411438563897e-02
         - -7.3824415788346729e-03
         - 7.7857652927344881e-02
         - 9.5699425963717052e-03
         - 3.5686804302639805e-02
         - 5.0847540011810272e-02
         - 2.1088637286595324e-02
         - 3.6972814210580796e-02
         - -2.9186375433268359e-02
         - -3.6825250729359313e-02
         - -5.0329936544486593e-02
         - -9.0087223793905311e-02
         - -2.2491816335823648e-02
         - -9.5312702673577207e-02
         - 2.6037812428548027e-02
         - -8.1780956568914161e-03
         - 3.8546656265254615e-02
         - -6.8969694586933097e-02
         - 5.3746968815250769e-02
         - -1.7602115882279668e-02
         - -6.0733062767710205e-02
         - 9.4514987760030950e-02
         - 7.3226310470800374e-02
         - 2.0467148984302137e-02
         - 5.4334806796349239e-03
         - -6.6156930929252636e-02
         - 7.3311682861389185e-02
         - -6.7558329887533741e-02
         - -7.8728970832131165e-02
         - -4.3430899482645974e-02
         - -3.3279602965775902e-02
         - -3.0450457033555620e-02
         - 3.9005465606890506e-02
         - -8.1816096617001975e-03
         - -2.4655822895347655e-02
         - 1.1897871233182325e-02
         - 5.4847619259604539e-02
         - 2.4099603235798996e-02
         - -4.4676572876241633e-02
         - 8.7249535569214397e-04
         - -6.5744157538512676e-02
         - 5.9386275226337527e-02
         - -2.6993770776532932e-02
         - -2.3022540772650792e-02
         - 9.3259432438941969e-02
         - 2.9733703132114750e-02
         - -1.3037487053227964e-02
         - -9.4017903487126825e-02
         - 6.4039157996296961e-02
         - -4.8941167984211484e-02
         - -2.3573010308294201e-02
         - 1.7415722468397687e-02
         - 4.8687109149740601e-02
         - 3.9427018827791663e-02
         - 1.9078485613721576e-02
         - -3.4700514985363660e-02
         - 4.8291570362863509e-02
         - -1.6372847281499462e-02
         - 5.6714378355819148e-02
         - 1.8390252734642731e-02
         - -5.7914896261378419e-02
         - -3.7756166670366686e-02
         - -3.4244811258419175e-02
         - -1.6715982524766700e-02
         - -5.1957075208923630e-03
         - 6.7035364178608309e-02
         - 4.6368981457235357e-02
         - -7.7111715542300674e-02
         - -6.8620475330898414e-04
         - 9.0690254246814012e-02
         - 4.1972853071184160e-02
         - -1.9562678917187326e-02
         - 9.8554126324262692e-02
         - 5.7642571214849656e-02
         - -1.1874276699755931e-01
         - 4.1124713531652361e-03
         - -2.8388806501922697e-02
         - 8.0853781659316115e-02
         - 1.3911603521243680e-02
         - -4.8231090954205434e-02
         - -1.8094375253056880e-02
         - -1.2463953349074314e-02
         - -4.0038976378027176e-02
         - 3.1976055002355258e-02
         - -1.4011192947393572e-03
         - -1.8142434731873859e-02
         - 6.1680615134369248e-04
         - -3.6467531386717107e-02
         - 2.6639300488440109e-02
         - 3.1716819738157993e-02
         - -5.8415748237598021e-03
         - -1.1691991072586984e-02
         - -2.0384611995617499e-02
         - 2.1869742487748218e-02
         - 2.1775413691960687e-02
         - -6.4531553601282678e-03
         - 8.5720358341349785e-03
         - -3.7054126839846532e-02
         - -2.5762497261828769e-02
         - 1.1386153144402104e-02
         - 1.4229762016944139e-02
         - -2.4099309011775795e-02
         - 8.1718096048629622e-03
         - 3.6365970972232187e-03
         - 9.8582470076447812e-03
         - 1.3579434633051746e-02
         - -2.0375228387335822e-02
         - -1.5097893076173456e-02
         - -4.1630810177753505e-03
         - -5.4577754124442825e-03
         - 2.7559302340271416e-02
         - -3.3622736183233581e-03
         - -3.0615333535440790e-02
         - -1.7523277768846407e-02
         - -2.7579201813985343e-03
         - -2.4893466071657003e-02
         - -2.9651791228325234e-02
         - 3.9190266665577921e-02
         - -2.1555631970832233e-02
         - -3.9085562844675806e-02
         - -3.6084684992246874e-02
         - 1.0952316958230698e-03
         - 7.8470524350290356e-03
         - -2.9224729148816252e-02
         - -2.6945021105078282e-02
         - -3.8427296762679440e-02
         - -3.5979344792269073e-02
         - -2.4421350847231367e-03
         - 3.3300890154708829e-02
         - 2.5212005800690565e-02
         - -4.0758689247630271e-02
         - 5.3004884993083420e-03
         - 2.8512893432051982e-02
         - 1.5177505988897796e-02
         - 2.0503153386641493e-02
         - 9.5317355238928748e-03
         - -2.8684270287627055e-02
         - 3.4704072157572777e-02
         - 9.7583971900766699e-03
         - -2.6531131173832198e-02
         - -1.8765839661134275e-02
         - 1.2641601516412975e-02
         - -2.7396459996629031e-02
         - -5.7964697518268693e-03
         - -1.9856089981319013e-02
         - 4.8050472911779331e-03
         - 4.4632878043108999e-04
         - -1.0926279149166419e-02
         - 2.5209108968425299e-02
         - 2.5781074987513843e-02
         - -3.8340250709670551e-02
         - -9.4276995690025563e-03
         - -1.7578559388796173e-02
         - 3.1342589385269501e-02
         - 1.8022963516507378e-02
         - 1.8601419733834498e-02
         - -6.1502261028326816e-03
         - -2.6081851409412490e-02
         - 1.4082950556295363e-02
         - 1.3639616596274020e-02
         - -2.4097724934151809e-02
         - -6.4520080682868774e-03
         - 1.5453654059083751e-02
         - -1.3265579337708729e-02
         - 5.3599147423119631e-03
         - 2.3178972239891134e-02
         - -2.9742659397237921e-03
         - -1.5023220258486803e-02
         - -1.0298922350719521e-02
         - -3.7114513983863891e-03
         - -3.3893450354665094e-02
         - 6.6147357607237636e-03
         - -3.3311627191874804e-02
         - -2.5003760933184942e-02
         - -9.5885880507822104e-03
         - 3.6039083064586898e-02
         - -9.9978492964193973e-03
         - 2.0300238065003022e-02
         - 2.0611001543624420e-02
         - -3.0348198642883451e-03
         - -9.0643543741987784e-02
         - -4.8733018899301421e-02
         - 2.7687707042985645e-02
         - 7.6495465440381194e-03
         - -3.7878261592796156e-02
         - 1.0391748792305028e-01
         - 3.0022267492582584e-02
         - 3.6537393248293077e-04
         - 6.4915869462516831e-02
         - 8.2681598350864263e-02
         - 4.4250585424865894e-02
         - -1.0304607744608585e-01
         - 3.0341253240452917e-02
         - -1.5592313652975672e-02
         - -2.9569073450152550e-03
         - -6.1524510384010035e-03
         - 3.2068797761315528e-02
         - -7.3476205844572776e-02
         - 2.2941093637023047e-03
         - -5.3457035404014068e-04
         - 3.5264250491799801e-03
         - 1.0725509629581661e-02
         - -7.8305477652632710e-02
         - 1.8630799467539387e-04
         - -4.9051781578436440e-02
         - -3.6163895498815865e-02
         - 9.0824958299213273e-03
         - -1.1087742447903011e-01
         - 3.3837557528953961e-02
         - 1.0503279668425460e-02
         - 4.6304608439193026e-02
         - 1.3280100121585953e-01
         - -4.5836270887369517e-02
         - 4.1724985229539095e-02
         - -7.5311889732044626e-02
         - 9.3483190738177346e-02
         - -3.5054934365973775e-02
         - 4.2326150201208237e-02
         - -1.3532020156247807e-02
         - -1.5409455806741097e-02
         - 6.2074257004656422e-02
         - -5.1081284956510105e-02
         - -9.5162137730668631e-02
         - -2.0524264381377885e-02
         - 3.2690088552245471e-02
         - 1.1675843262836522e-01
         - -3.3415074916841307e-02
         - 9.2558442672390454e-02
         - 1.2510952102557091e-01
         - 9.8483410622901557e-03
         - -5.7161279140866428e-03
         - 4.5271128162061615e-02
         - -1.1182613355106653e-02
         - 2.3459052446084018e-03
         - 1.9610045406778329e-02
         - -8.2987850026090999e-03
         - -7.2874832221027155e-02
         - -2.7110053944092532e-02
         - 5.1093825108016452e-02
         - -3.5233904052793016e-02
         - 7.0066899282860459e-02
         - -3.8534820769885729e-02
         - 1.0206710757469583e-02
         - 4.9715054263574964e-03
         - -8.7700397821349155e-02
         - 9.0645555605807053e-03
         - -1.5311147863214141e-02
         - 1.0615433485148941e-01
         - -8.8839633799562737e-02
         - 2.6709074621462086e-02
         - -1.6136082667497290e-02
         - 1.5114931059877197e-02
         - -5.2986141864263932e-02
         - -1.8072161422040340e-02
         - -4.1500764451109846e-02
         - 5.1334124597019748e-03
         - 1.2535440047191647e-02
         - 3.2758095502753944e-02
         - 9.7819389472857780e-03
         - -2.4732243338219755e-02
         - -2.0213819710806900e-02
         - 4.1823217687282650e-02
         - 1.6492759575252654e-02
         - 9.6707475519925784e-02
         - -6.7191502704722393e-03
         - -1.0553368877105269e-02
         - -3.8353723315989408e-02
         - -5.3446283198484547e-03
         - -2.1141900978005022e-02
         - -7.2579382272162124e-02
         - -7.2964501777589008e-03
         - -8.4954923158185782e-03
         - -9.8242738232028351e-02
         - -1.0067251658495308e-01
         - 1.4059389351186921e-01
         - -1.4739283700296545e-02
         - -1.8205012111643624e-02
         - -6.7450558211098341e-02
         - -2.8439921421540233e-02
         - 7.0601551857302020e-02
         - 2.4866850183428688e-02
         - 2.7713858550409108e-02
         - 8.9788399043034695e-03
         - -1.9574854266329267e-02
         - -2.9825280953528401e-02
         - -4.0926772130012799e-02
         - 3.8059932420777494e-02
         - 3.3060992945489191e-02
         - 3.7561773534151917e-02
         - 3.0274466514435657e-02
         - -2.7444683191305292e-02
         - -2.1112469028354647e-02
         - -1.2294687571567556e-02
         - 2.8123781742579217e-02
         - 1.3541164904302171e-02
         - 1.4763347651725300e-02
         - -1.5290628525585662e-02
         - -8.2924919710182510e-03
         - -3.8946869284350101e-02
         - 6.9530661152261142e-03
         - -2.9127893914022450e-02
         - 2.8643344127750367e-02
         - 1.3429011746345322e-02
         - 5.7594180750855199e-03
         - 1.6928072902160335e-02
         - 1.4871650124704318e-02
         - -1.0776926720952464e-02
         - 4.0213312774453995e-02
         - -1.4195082360543830e-02
         - -1.1581501201345707e-02
         - -1.5872027589294964e-02
         - 4.0999842898497986e-02
         - -2.7460796494014117e-02
         - 1.6528740093834510e-02
         - -2.5781120384456447e-02
         - -2.1915113539599077e-02
         - 3.6296598172976327e-02
         - -2.5075411201278024e-02
         - 9.3431752547463963e-03
         - -2.8849315819021098e-02
         - 2.7697229638639055e-02
         - -2.6442048210376094e-02
         - 3.5241722499127805e-02
         - -4.0800606077105908e-02
         - 4.5121277249049581e-02
         - -2.1804974214971489e-04
         - -1.3055209670285981e-02
         - 6.5354789254664101e-03
         - -2.2637940970041241e-02
         - -3.2118581734112202e-02
         - 3.6841084207075839e-02
         - -2.9537170252843182e-02
         - -2.5334341139112121e-02
         - 1.9434007567105825e-04
         - 2.5115369990371322e-02
         - -4.5358444885040677e-02
         - -4.3980408688535869e-03
         - 3.4044437317952148e-02
         - 2.0302876423396527e-02
         - -1.4921657322953278e-02
         - 9.1406294494402827e-03
         - 3.3645942203832865e-03
         - -3.9760799759158104e-02
         - -2.4305590158029494e-02
         - 1.2006986627439422e-02
         - 1.8399492476013232e-02
         - 3.1062124310973969e-02
         - -2.3505320627564181e-02
         - -1.1477012583830449e-02
         - -3.0371209302524974e-03
         - 1.5903543946256146e-02
         - 3.4379036606452522e-02
         - -3.2466448917658548e-02
         - -2.9851207493680754e-02
         - 6.8978291576976035e-03
         - 1.0481750864759869e-02
         - -3.5857336006102948e-02
         - 3.7769347317570624e-02
         - 9.5569071491722023e-03
         - -1.0907482356432182e-02
         - -3.6795460245489121e-03
         - -4.1909400435563814e-03
         - 3.9092857237191204e-03
         - 1.8079641345856094e-02
         - -3.5070932413533658e-02
         - 7.0360819497089014e-03
         - -2.7093455285636617e-02
         - -9.4924848744236158e-03
         - -1.1518335072985268e-02
         - -4.4230371977975080e-02
         - 1.7981419182928865e-03
         - -3.8597473719081711e-02
         - -2.0520318812463526e-02
         - -1.2494425521758922e-03
         - -3.2933738324454898e-02
         - 1.3393090707897770e-02
         - -3.4653353201616437e-02
         - 1.1533837164704795e-03
         - 3.3665444815681412e-03
         - 2.5689001274962500e-02
         - 8.1649034296068138e-02
         - 2.6174953037712334e-02
         - -2.0615898237768274e-02
         - -4.4321088199346111e-02
         - 1.5748215924583048e-02
         - -6.1314836425663287e-02
         - -3.4759097201056972e-02
         - 3.1167255288620806e-02
         - 1.8269534709460421e-02
         - -6.7394045168439637e-02
         - -3.0539559803392523e-02
         - 2.6858055980563469e-02
         - -1.9983479877842769e-02
         - -5.8366130743950168e-02
         - 1.8011688602324520e-03
         - 3.3468355531236033e-02
         - 2.1061589393137802e-02
         - 3.3511685297591354e-02
         - 1.4366818757588249e-02
         - 3.5483006293787998e-02
         - 3.0007163310841749e-03
         - -3.5410993136293867e-02
         - 4.3480201580968915e-02
         - -6.2045896289466178e-03
         - 5.1169842105173668e-02
         - 5.0351646153801999e-03
         - -1.6738229483590794e-03
         - 9.7470951550930718e-02
         - -3.7762337128354126e-02
         - -3.1114258237718847e-02
         - -2.9715442332953761e-03
         - -6.9853767224223109e-02
         - 1.4264638302597553e-02
         - 1.3735298142592450e-02
         - 6.1463296622793338e-02
         - -1.6568707501042775e-03
         - 5.8103036726084835e-02
         - -7.2607938965447663e-02
         - 6.0432346987081366e-02
         - -2.3035415955781173e-02
         - -4.5585857584810055e-02
         - 3.2605297031722401e-02
         - 8.9896565618508506e-02
         - 2.7930075820419564e-02
         - -3.0150030163851430e-02
         - -5.4436361476451173e-02
         - 2.6835060280446691e-02
         - -4.5783010607355124e-02
         - -8.1222963437272352e-02
         - -2.9728668515926891e-02
         - -2.7101134282093309e-02
         - -3.0271385457881887e-02
         - -3.8619231634620742e-02
         - -4.6223484740320113e-02
         - -1.2429228065302424e-02
         - -3.0558606613433629e-02
         - 3.2192946754206059e-02
         - -3.2101656731891047e-02
         - -6.2860215737252534e-02
         - -8.0372221840902657e-03
         - -2.3714091799129974e-02
         - -2.0469087962067381e-02
         - -1.3260664309320887e-02
         - 4.3000956863133245e-02
         - -9.5747318579068423e-03
         - -4.1217398858394767e-02
         - -6.0556129530656477e-02
         - -2.5629612368571347e-02
         - 4.0935309534194476e-02
         - -8.3230491143188338e-04
         - -6.6406626737280875e-03
         - -4.6362020219076559e-02
         - -3.0178032618460312e-04
         - 4.5370495802409219e-02
         - 2.1517390606705739e-02
         - 3.2121000947596470e-03
         - -9.8376867553575508e-03
         - 3.8240594620747505e-02
         - -2.0630845397190938e-02
         - -4.2121327201998862e-03
         - -3.0454666040991380e-03
         - -3.0510808149772056e-02
         - 6.6742618513904650e-03
         - 6.7773072986468648e-03
         - 2.7617937411403674e-02
         - 2.2772074415010307e-02
         - -2.2523103707231217e-02
         - -8.4328217459817573e-03
         - 4.9082859038311930e-02
         - 1.3335135097104068e-02
         - -2.3849789969758707e-02
         - -4.0831655328245911e-02
         - 9.4487834993981015e-02
         - 6.1673171105589987e-02
         - -1.0278142128916845e-02
         - 1.7281726936270930e-02
         - -1.1780657323380682e-02
         - -8.2968604779793675e-03
         - 4.3034030715462059e-02
         - 6.5645224111730094e-03
         - 3.8222189391117502e-03
         - 2.4866948216483171e-02
         - 3.6309154803534027e-02
         - 2.5645216093933020e-02
         - -2.3522299812968078e-02
         - 2.6134046684620191e-02
         - -2.0922959565337882e-02
         - 4.0710675826512700e-02
         - -3.1511750772983800e-02
         - 2.7071256076956957e-02
         - -3.6627120490603682e-02
         - 4.1309439892491293e-02
         - 6.4477239429149014e-03
         - 2.9501579808161347e-02
         - 2.0575429737476583e-02
         - -8.9218739104903778e-03
         - 3.1821226446049393e-02
         - 2.3733630141014869e-02
         - -1.8629692328693357e-02
         - -3.6727941875052406e-02
         - -3.3312674083360368e-02
         - -3.2792221819773868e-03
         - 5.6388894630068423e-03
         - -2.6170466446946823e-02
         - -3.9986593503560514e-02
         - -1.2360274520051692e-02
         - -2.7013844316512523e-03
         - -2.8701826918286346e-02
         - 7.9155823566973947e-03
         - -3.3191163750595659e-03
         - -1.5149462876680658e-02
         - -4.2501602987012284e-02
         - -1.6566201965385632e-02
         - -1.9915035758255183e-03
         - -3.0687613668983312e-02
         - -1.1024867778728943e-02
         - 2.9616558317242969e-02
         - -1.1545162767969980e-02
         - -1.1973117428220379e-02
         - 1.5043207613420170e-02
         - -1.2382284453722091e-02
         - -2.3353060188308866e-03
         - -3.6050343730954807e-03
         - -2.7996961708022908e-02
         - -7.6918329651193005e-03
         - 3.3286788342063035e-02
         - -6.1434563754607296e-03
         - 6.0435055203153327e-03
         - 9.7109379920640188e-03
         - 1.4333383070070609e-02
         - -1.6012963905642205e-02
         - -6.6560558979232723e-03
         - 1.4223490427963044e-02
         - 9.3470354923620193e-04
         - -3.4470000765403845e-02
         - 2.9458448814608403e-02
         - 4.9229252437416682e-03
         - -2.7035556946927580e-03
         - 2.7315959469616593e-02
         - 2.5276586824935884e-02
         - 4.9612420434931527e-04
         - 2.7744207728297485e-02
         - 3.2609157683682291e-02
         - -3.0308637139641260e-02
         - 2.5113811648089807e-02
         - 1.6181079779788131e-02
         - 1.5346182863396811e-02
         - 2.0402756712669518e-02
         - -1.2621646545653802e-02
         - -1.3939652937624562e-02
         - -1.2898111987581333e-02
         - -2.5791292514023127e-02
         - 1.5703422970910462e-03
         - -2.2509470808743239e-02
         - 1.4456387780332184e-04
         - 6.9841594971383212e-03
         - 1.9416731762140680e-02
         - 1.9571632493407279e-02
         - 1.5116966415035042e-02
         - 7.6164423057261017e-03
         - 3.3976276103556122e-02
         - -4.1151430891533079e-02
         - -3.7546806399001376e-02
         - 2.6884836705009406e-03
         - -1.5341099447534479e-02
         - 1.1311624815927701e-02
         - 3.8286155519436434e-02
         - 1.2642499507848445e-02
         - 6.4482806629154489e-03
         - -4.8132753344401702e-02
         - 3.5794879630083536e-02
         - -2.7635800087224511e-02
         - 2.1560132395943366e-03
         - -1.6109897849592103e-02
         - 5.0674248999814056e-02
         - 1.7364874928234769e-02
         - -3.5912808155587464e-02
         - -9.8258113271974291e-03
         - -2.8504075070004072e-02
         - 2.3313711966841898e-03
         - -3.4182005299937111e-02
         - -3.3742676086233207e-02
         - 3.8353766717262178e-02
         - 7.4280850585452859e-03
         - -3.1986565913235954e-03
         - 1.6074313358588062e-02
         - 2.6500344427461395e-02
         - 2.4802932587380953e-02
         - -2.6057439516119330e-02
         - -6.0394440590884413e-03
         - -1.5787460242903229e-04
         - 2.1148414519658468e-03
         - -1.0165151205750582e-02
         - 2.6824380605372952e-02
         - 2.8678890388320229e-02
         - 3.3404794511200250e-02
         - -8.7948205706206461e-04
         - -3.2137519081856178e-02
         - -2.3045805019053057e-02
         - 3.4097818278145092e-02
         - -2.7558560300793008e-02
         - 3.6528218017883606e-02
         - 4.4769240854135584e-02
         - 5.6800513855920203e-03
         - 4.3164954236611666e-02
         - 2.3538400781175872e-02
         - 1.4890939650311913e-02
         - -1.6297431897447270e-02
         - 3.0701974431688820e-02
         - 1.4562638687929562e-02
         - -2.2652808851633326e-02
         - -1.5386348824310734e-02
         - 1.0573516283722483e-02
         - -3.9498990887299530e-02
         - -1.6001925381377093e-02
         - 1.9705224339176004e-02
         - -3.1577549723793251e-02
         - 2.5811403013951642e-02
         - 3.6987975497055556e-02
         - 3.5064329835340115e-02
         - -2.5553503423469869e-02
         - -2.9463097949395108e-02
         - -3.7717068360474303e-02
         - -2.0523526984488453e-02
         - 2.1307867161253512e-02
         - 6.8364318643831176e-03
         - 1.7721849934923001e-02
         - 1.5933225697780406e-03
         - 2.2362293392182379e-03
         - 3.2612354838855703e-02
         - 1.3477528738579896e-02
         - 1.5591777386114045e-02
         - -1.9699360080666504e-02
         - 3.6998922914014201e-02
         - -1.9874940976683797e-02
         - 3.4865234007290843e-02
         - 2.4381636975750038e-02
         - -3.6445947733731957e-02
         - 1.6097989745694222e-02
         - -8.6419743847576218e-03
         - -1.1805992973513519e-02
         - -1.9266241951484360e-02
         - 2.1777602337107377e-02
         - -3.5376743853703034e-02
         - 1.8212223689503242e-02
         - -1.9988834101409399e-02
         - 6.0627857035685316e-02
         - -2.1585385210680905e-02
         - -5.0671702785174324e-03
         - 1.0355524579156686e-03
         - 1.5876256456673246e-02
         - 2.2716095380973050e-02
         - 2.0606422072068149e-02
         - 3.0886993537909253e-02
         - -1.6966825536580061e-03
         - -3.0979673843375775e-02
         - -2.5189043761114343e-02
         - -7.5555663247409274e-03
         - 2.5229974980419890e-02
         - -3.5575272731767017e-03
         - -3.4532900302503201e-02
         - -4.4833704770275734e-02
         - -2.3468389259753763e-02
         - -2.3189782819495984e-02
         - -1.6323204836848099e-02
         - -3.5136627506741555e-02
         - -2.9407723913822759e-03
         - -2.8950882036472749e-02
         - -2.2530884920260227e-02
         - -4.4142931769027484e-02
         - 1.4717380643293487e-02
         - 1.0041147916921711e-02
         - 5.4577035291180137e-03
         - -3.7288121359359043e-02
         - -1.1493078022035311e-03
         - 3.1010345883138172e-02
         - -2.0417469876128424e-02
         - -8.5980163449005491e-03
         - -2.9977431915222452e-02
         - 3.1047873011421836e-03
         - -2.0800837442250190e-02
         - -1.7862785969935607e-02
         - 3.3281133558762478e-02
         - -2.1825500573794388e-02
         - 3.1103092151194230e-03
         - -1.0725551751918461e-02
         - 2.6161848670039754e-02
         - -2.5072466927071414e-02
         - 8.9614248444074476e-03
         - -1.3966458541096740e-02
         - -3.2291898662563656e-02
         - -1.9745656367718262e-02
         - -2.7515426011941499e-02
         - 2.9468233772870247e-02
         - -4.1934579302794019e-02
         - 2.6919277343260266e-02
         - -3.1320432469489193e-02
         - -7.4483098345058691e-03
         - -2.3114018605180250e-02
         - -3.1658982776883338e-02
         - -1.7082272656032810e-02
         - 1.2889116183578735e-02
         - 1.4384655310517734e-02
         - -2.9882409501417958e-02
         - -4.1786188572912213e-02
         - 1.7113387799496716e-02
         - 3.2037957673180427e-02
         - -2.0038445972125098e-02
         - 3.7808004246582143e-02
         - 2.9535777998152959e-02
         - 2.2682515831117144e-02
         - 1.8833121729321355e-03
         - -3.1070502441702823e-02
         - -1.3608121684210566e-02
         - 6.4783257486623483e-03
         - -1.9745783814338676e-02
         - 7.2213818944135118e-03
         - 3.6302084081595611e-02
         - -3.2423208784513748e-02
         - 2.0965231968122156e-02
         - 8.4120542313295601e-04
         - 1.1822208476327242e-02
         - -3.1916600590850996e-02
         - -2.8803172818999696e-02
         - 2.1118878692146570e-02
         - 3.7662745128478371e-02
         - -1.6890624831881147e-02
         - 4.1982404749397698e-02
         - 8.9540670678898374e-03
         - -1.4208490032761737e-02
         - -8.7804964475129733e-03
         - -1.2156563422126366e-02
         - -3.1085451562530494e-02
         - -1.7226093167288715e-02
         - 5.9287358685894184e-03
         - 1.6800465321679430e-02
         - 3.6964423986102370e-02
         - -1.7182680912416423e-05
         - 3.3054370642866871e-03
         - -3.7362868315585926e-02
         - -3.4709233451917731e-02
         - -1.4396304389666922e-02
         - -2.6472216782730620e-02
         - -7.0286522869818496e-03
         - 3.2596963501957350e-02
         - -4.0111383168216072e-03
         - 1.5981135401202981e-02
         - 3.6260007415941091e-02
         - -3.0845536215151081e-02
         - -4.5345031454755984e-02
         - 4.0823655380505801e-02
         - 2.8492628831041009e-02
         - -7.6892093874926558e-03
         - 1.9216821086384499e-02
         - 4.6119904411003262e-02
         - -2.0555209794963062e-02
         - -1.7877485458438102e-02
         - -2.6930012205821550e-02
         - 2.6652876210494614e-02
         - -3.6362219946164100e-02
         - -4.6158656584529131e-03
         - 1.2929498883327364e-02
         - -3.9283776578787163e-02
         - 1.5177282037757282e-02
         - -2.0595941118323538e-02
         - -2.5043528704654941e-02
         - 2.6429591252497588e-02
         - -1.2932533182652578e-02
         - -2.6956575775716933e-03
         - -4.3432894450280571e-03
         - 1.4599442621386823e-02
         - 2.4807291358255740e-03
         - -2.0838952310144265e-02
         - -2.5929590023549047e-02
         - -5.1419064025080910e-03
         - -1.4693114542896112e-02
         - 4.0578204674699470e-02
         - 1.7704505657481683e-02
         - 1.1572608066458757e-02
         - -3.7558591863740241e-02
         - -9.1251350484653770e-03
         - 3.0416809923937546e-03
         - -2.5113619181499364e-02
         - 3.2245568874443020e-02
         - -2.4254214738495310e-02
         - 1.9227885579679454e-02
         - -7.0344523654528529e-03
         - -3.1276863589497821e-02
         - -3.9479974704150399e-02
         - 5.7758386538526328e-03
         - -3.0883986433811659e-02
         - 1.3984887532013525e-02
         - 2.3528873002344710e-02
         - 2.2256059542829627e-02
         - -2.7149507623903248e-02
         - -4.2532725059700814e-02
         - -4.6093242033596384e-04
         - 1.5025907259346962e-02
         - 2.5115251245081691e-03
         - 3.4797572009883863e-02
         - 1.1038603097202775e-02
         - 2.1468482090716480e-02
         - 4.8256657433435352e-02
         - 3.8936740485275831e-02
         - 3.9015913351760419e-02
         - 3.0464912878880847e-02
         - -6.2941835806027344e-03
         - 4.3305101663504899e-03
         - 8.0655480943898090e-03
         - 7.1345214237670844e-03
         - 1.2790316855441538e-02
         - -4.3154005276906555e-02
         - -2.6063573826505870e-02
         - 1.5168384456855479e-03
         - 1.3833820347321621e-02
         - 6.6551244799858168e-03
         - -2.5310872797288768e-02
         - -1.1667845938539652e-02
         - 5.3935554725281368e-03
         - -3.2019365526799771e-02
         - -3.0162188952306854e-02
         - 3.8034644520918953e-02
         - -3.3581091265033405e-02
         - -4.4587179998972125e-02
         - 3.3326326437708248e-02
         - -1.2231444459592185e-02
         - 1.4967011602413581e-02
         - -1.1234137418313989e-02
         - 3.7496114076829832e-03
         - -8.6143803169222519e-04
         - 3.2044543183508398e-02
         - 1.1172115906990064e-02
         - -1.8383793158326913e-02
         - -1.0461452728546591e-02
         - 3.4801529498231579e-02
         - 6.0811368040857424e-03
         - 2.6364251480908305e-02
         - 2.5709237346661938e-02
         - 2.3981067765440667e-02
         - -7.2253115416092114e-03
         - 2.5201358841551145e-02
         - 1.3402270761778535e-02
         - 2.2471679539654392e-03
         - -3.2443861148063038e-02
         - 2.0919767841919464e-02
         - 1.1485233721131607e-02
         - -1.5245460738812090e-02
         - 2.8522760229200170e-02
         - 4.8671683951256060e-02
         - 3.3049313274258374e-03
         - 4.3187433449275781e-02
         - 1.4542220127431314e-02
         - 2.3780497440791717e-02
         - -1.4258795427158161e-02
         - -3.1078242122340741e-02
         - 3.7575828984581998e-02
         - 3.5678175903346591e-02
         - 6.5220999322955298e-03
         - -2.1742077109047398e-02
         - 3.0952553258801682e-02
         - 1.0016713019245503e-02
         - -4.4239721807569306e-02
         - 4.2553297171439471e-03
         - -1.8098405496268039e-02
         - 8.3792691294554671e-03
         - -2.5992308528458456e-02
         - -8.6819190831224843e-03
         - 2.9953419505139175e-03
         - -1.8727758389534131e-02
         - 1.3041673605188630e-02
         - -1.6911295568123444e-02
         - 6.4072361203699564e-03
         - 8.6439784815920389e-03
         - -2.5221044480948248e-02
         - -3.4292751974802999e-02
         - 2.1155316613168641e-02
         - -2.3216476598791527e-02
         - 6.9884246266539865e-03
         - -1.2018972726615831e-02
         - -9.6708276107373269e-03
         - -2.4056272499019555e-02
         - -1.9045533161199286e-02
         - 3.0206266888778033e-02
         - -3.9287584356816681e-02
         - 7.1385687600666555e-04
         - 4.1480508410246801e-02
         - 2.3581558302280283e-02
         - -5.7318463783942808e-03
         - 6.7102745036641768e-03
         - 3.0753229816228331e-02
         - 1.3458272728316957e-02
         - -3.3599544465350385e-02
         - 2.6468171272264203e-02
         - -1.5103017746080249e-02
         - 1.7332998988846823e-02
         - -5.7022488091651273e-03
         - 2.6110269281161527e-02
         - 3.9781403932558267e-02
         - -2.3823827838949860e-02
         - -1.6027862958297175e-02
         - -4.0342987603830038e-02
         - -2.8299013515000623e-02
         - 1.9810680210255494e-02
         - 3.7986460466924561e-02
         - -1.3323069281513085e-02
         - 3.8447684775839527e-02
         - -1.8555920184807197e-02
         - 3.9406701180557356e-02
         - -2.6747245316410782e-03
         - -3.6033235963987213e-02
         - 3.4413856441481282e-02
         - -3.9197911557938760e-02
         - -2.7974928392016592e-02
         - -1.7243110639304737e-02
         - 2.2554946049624661e-02
         - 1.0891608065637834e-02
         - 1.4529062692936899e-02
         - 4.0876096418441032e-02
         - 2.7751465978629593e-02
         - 2.6927998863951082e-02
         - 1.5207482630294377e-02
         - 2.1941773525983317e-02
         - -1.4863215729485171e-02
         - 8.5245123586663758e-03
         - -4.1329418842322899e-02
         - -3.3890259723029281e-02
         - 3.6395289952962529e-03
         - 1.6233715624260635e-02
         - 1.8028364603380243e-02
         - 2.0185019466025186e-02
         - -2.4895622969025654e-02
         - 1.5808481208188070e-02
         - 2.6343844476075375e-02
         - 2.7709318235203648e-02
         - -2.4533562024501968e-02
         - 1.4722815970790765e-03
         - -2.0085835106746514e-02
         - -2.5466164983102852e-02
         - 6.2057192371315802e-03
         - -3.1348451343658275e-02
         - 2.9836270560443915e-02
         - -3.0221964179103632e-02
         - -6.6794238789811104e-03
         - -4.0565615222439351e-02
         - 2.5657369199319205e-03
         - -1.7206393713064441e-02
         - -6.0465751298517346e-03
         - 3.0888059965447679e-02
         - -3.8588806974720492e-03
         - -2.0218483969123655e-02
         - -2.9670516332880020e-02
         - -3.9229788079108811e-02
         - 2.6234679994501648e-02
         - -1.3868407674527627e-02
         - -2.6630522947886311e-02
         - -3.5263362088602729e-02
         - -5.0489138614168193e-03
         - 1.4421042876043393e-02
         - -5.3748905272132160e-03
         - 2.5825042243195189e-02
         - -3.3141864321094533e-02
         - -3.8588643781421489e-02
         - -2.4997212723817903e-02
         - -4.1192673977864171e-02
         - 4.3735263442415878e-02
         - -2.9188281500062311e-02
         - -7.5235795916005670e-03
         - 1.9434926579364322e-02
         - -6.8191969578252085e-03
         - 1.5994166985498048e-02
         - 3.1714115755046283e-02
         - -3.0048302228541445e-02
         - -3.7788558562311596e-03
         - 5.8012769854088563e-03
         - 3.4372996763569287e-02
         - 3.9492332455971606e-03
         - 1.4656249913389222e-02
         - 3.9635749264363786e-02
         - 2.0174879355790099e-02
         - 2.6909929098437223e-02
         - -1.7874440444589759e-02
         - -3.5951113164276544e-02
         - 3.7864506696578008e-03
         - 5.0023722591313116e-02
         - 4.1933670809292244e-02
         - 2.3641341073428815e-02
         - 3.4077500685666284e-02
         - -2.4950990618456910e-02
         - -3.8594578153574990e-02
         - -1.7900046766162650e-02
         - 2.7905967845228734e-02
         - 2.9337744572186419e-02
         - 1.3139709042470214e-02
         - -1.2595621200768750e-02
         - -1.3595750218109100e-02
         - 1.8385745021534186e-02
         - 5.1440415229249623e-03
         - -2.7503140511583056e-02
         - -3.6587757038254641e-02
         - -2.0235937886240309e-02
         - -2.7410668730531419e-02
         - 1.8369604439781268e-02
         - 6.3179296316299927e-02
         - -2.0467308999580564e-02
         - -2.3367765555505259e-02
         - 3.4419340630492117e-02
         - -2.1943101463576992e-02
         - 3.5452085246764804e-02
         - -3.0193701763534211e-02
         - 1.7988486996932507e-02
         - -2.7983972127264306e-02
         - -4.1801851411882120e-02
         - 1.6252180181951053e-02
         - -3.1682388747471084e-02
         - -2.7477909020699427e-02
         - -1.2171724093950708e-02
         - -1.2926155293891989e-02
         - 1.7125532830918468e-02
         - 3.3659475038766769e-02
         - -1.3212690985706817e-02
         - -4.5738714937172353e-02
         - 4.1094199858839268e-02
         - 2.8963347071567298e-02
         - -4.9246805415373983e-02
         - 2.1274491851537881e-02
         - -2.9425155061403967e-02
         - 8.3033601569348549e-03
         - -1.6432889644902166e-02
         - -3.6060742942961493e-02
         - -1.8409222230164311e-02
         - 1.1016552003826242e-02
         - 3.2766710174556679e-02
         - 3.7657443775589078e-02
         - -2.0968277442365322e-02
         - 1.3518484054473227e-02
         - -1.7955793711919299e-02
         - -1.8802981898591430e-02
         - 2.5621229464785705e-02
         - 4.6843826995178146e-02
         - -3.5156217379365140e-03
         - 1.7793923898992019e-02
         - 1.3993386768919201e-02
         - -4.0590651269962766e-02
         - -1.9088918153438404e-02
         - 1.0867001518816553e-02
         - -2.7875743856597031e-02
         - 5.0571922191439835e-02
         - -1.6205545901173346e-02
         - 3.6010621840637511e-03
         - 1.8076661318213421e-03
         - -1.1116451550509748e-02
         - -7.3016399455108384e-03
         - -1.2789470294351412e-02
         - -1.4049592298884903e-02
         - -4.2127452530823284e-02
         - 2.7949457896588051e-02
         - 1.9770575557488040e-02
         - -1.4749076344519663e-02
         - 4.1227695645249189e-02
         - 1.7781516993453554e-03
         - -4.3790983219961610e-02
         - -3.7444853037381889e-02
         - -4.9875998651957251e-04
         - -4.4391325040055829e-02
         - -2.0710172858840043e-02
         - -2.5565345370504814e-02
         - -2.9675261475926112e-02
         - 1.8325101043109072e-03
         - -2.6526842574855630e-02
         - 1.0084979671359802e-02
         - 3.5417673447226440e-02
         - -4.6598208019235692e-02
         - -3.1129801456990690e-02
         - -1.3646693057144587e-02
         - -7.6637514707401072e-02
         - 2.6530449105343412e-02
         - -3.6794649327629762e-02
         - 2.2813962187101137e-02
         - 1.3264552749143090e-02
         - -2.5764637815997145e-02
         - -1.0137987518848595e-03
         - 3.4829517037890986e-02
         - -8.7270303058707959e-03
         - 1.6385610309722274e-02
         - 1.0484500840741060e-03
         - -7.9998476571277802e-03
         - 2.6050529938099184e-02
         - 2.4798162840725814e-02
         - -1.3145325466545833e-02
         - -2.5773674483781060e-02
         - -2.3367552464221401e-02
         - 6.3792191317148363e-03
         - 1.5334206128469110e-02
         - 3.0101614537365044e-02
         - 4.7440634460553131e-03
         - 3.8097526108795819e-02
         - -2.7672549178576877e-02
         - 2.0344505907223222e-02
         - 8.9918948260734478e-03
         - 2.8504046170687952e-02
         - -2.4665991974706668e-02
         - 3.2046625937195851e-02
         - 2.9752094714384694e-02
         - 2.3603016431852264e-03
         - 1.6682111254944069e-02
         - 2.5972390330696305e-02
         - 1.9587008693496194e-02
         - 2.8340032572907845e-03
         - -4.1094611559642173e-03
         - 3.1180042195195285e-02
         - 6.9207848633617008e-03
         - -3.9477677349594356e-02
         - 1.9481729122095531e-02
         - 1.8673230485912625e-02
         - -1.4972851190945859e-02
         - -1.7717170347344574e-02
         - -1.8419188937783684e-02
         - -7.6526634497654953e-03
         - -1.7976251478388293e-02
         - -4.8702277449756536e-03
         - 1.5354883226277202e-02
         - -1.5851053824903056e-02
         - 8.4934150958479570e-03
         - 2.3136805518363671e-02
         - -1.4416913391962211e-02
         - 4.2322060289646031e-02
         - 2.5101991817133231e-03
         - 1.8389419244457632e-02
         - -1.8537239444344978e-02
         - 3.7692503545873612e-02
         - -1.8844605750124047e-02
         - -3.0677710655007216e-03
         - -2.1775638226334583e-02
         - -3.1315587860249905e-02
         - -3.6149862353897798e-02
         - 2.6439270140281967e-02
         - -2.9780552800644497e-02
         - -3.5832948471185587e-02
         - 1.0266222503077448e-02
         - 3.2316986409043000e-02
         - 2.5873266873188337e-02
         - 1.1599047791694309e-02
         - 3.3564634859251471e-02
         - 1.8572670819494140e-03
         - -3.7008373309264889e-02
         - 1.3983387769731362e-02
         - 7.3148298838315038e-03
         - 3.4112616631370475e-02
         - 2.3247425480811677e-02
         - 3.9496646205860228e-02
         - 2.8694753523377192e-02
         - 1.0534004290936157e-02
         - 1.9565266650346851e-02
         - 2.1788864991027803e-02
         - -8.0586698587186509e-03
         - -3.6212681744946740e-02
         - 2.6390639849221534e-02
         - 2.1196897901585476e-02
         - -3.5359753011473906e-02
         - 1.8471698287915082e-02
         - 1.4102520344900405e-02
         - -1.6320179132982074e-02
         - -4.8284159991800911e-03
         - -8.5818033015614345e-03
         - -1.1261895092296590e-02
         - -9.4898168959062848e-03
         - -2.9463004046281136e-02
         - -3.4653851079380793e-02
         - 4.3809825286779423e-02
         - 1.8414220730666665e-02
         - -2.1599936482052766e-02
         - -3.1954336994868895e-02
         - -2.8705332563644291e-02
         - 3.4873059656042212e-02
         - 3.9390752465518722e-02
         - -1.5204104074528638e-03
         - -4.0295607047120860e-02
         - -9.5670868422531516e-03
         - -9.6455450568823028e-03
         - -2.7452529343903770e-02
         - -1.9732767291537109e-02
         - -3.0227156788668767e-02
         - 2.2451535009884557e-02
         - -5.4252577231631224e-03
         - -3.7786260960288760e-02
         - 2.2465249509038216e-03
         - 4.3397246306381816e-02
         - 4.6537336307301167e-03
         - 2.0382439618529587e-02
         - -3.2382148416011287e-02
         - 3.0167405538364920e-02
         - 3.7831202917814159e-02
         - 1.1886777332875144e-02
         - 2.6486787725167476e-02
         - 4.2783137915174414e-02
         - -5.2586734582670295e-03
         - 2.5963674481860217e-02
         - 1.4739705389989612e-02
         - -1.2493757922872391e-02
         - -3.6553334425532360e-03
         - -3.3654434067122943e-02
         - 2.5300728547084973e-02
         - -2.2951149829991972e-02
         - -2.1158436542754247e-02
         - 3.3870792956640347e-02
         - 6.2935977508186136e-03
         - 7.5086714651635862e-04
         - -1.9738831203034390e-02
         - -3.0059708256621399e-02
         - 2.1384562481760416e-02
         - 2.8448065800668089e-02
         - 3.6827952257376742e-03
         - 8.5969606602363124e-05
         - 1.5956343395286725e-02
         - -1.3064893942379497e-02
         - 4.4332729876147510e-02
         - -2.1649011871985938e-02
         - 3.0923340914350013e-02
         - 3.2083216247008682e-02
         - -2.8657131552337047e-02
         - -9.4432369045452710e-03
         - -2.6833552035370710e-02
         - 3.1695258843117809e-02
         - -1.9039053170845605e-02
         - 9.9165261266519270e-03
         - 2.6333326815179386e-02
         - -3.0198368266642073e-02
         - 4.5333175203733135e-04
         - 3.1831300164838566e-02
         - -2.5575832037780039e-02
         - -2.1904950088887119e-02
         - 3.6519928510105222e-02
         - 2.1186878457539748e-02
         - -3.3764270839829143e-02
         - 1.9541761344065724e-03
         - 3.9209758240540585e-02
         - 3.0011593905100154e-02
         - -3.8406657239070476e-02
         - -2.2637510131704730e-02
         - 3.9713132975686388e-03
         - 1.3339718156104439e-02
         - -9.2838827636268165e-03
         - -1.9174320506007612e-02
         - -5.2203660386132824e-03
         - -3.3291619473028403e-02
         - 1.7670310007641712e-02
         - -3.3174245334131908e-02
         - 3.7755060053604267e-02
         - -3.2791666227815756e-02
         - -1.4864201606566219e-03
         - -3.6714612709425429e-02
         - 2.6713725596555101e-02
         - 3.7758594877712423e-02
         - -2.6817079806681569e-02
         - 2.2833169414803616e-03
         - -2.9263387461180453e-02
         - -4.8230640828092683e-02
         - 2.4694140956411075e-02
         - 2.5552204585106153e-02
         - 2.3991821300437168e-02
         - -1.3367907568561193e-02
         - -7.5502826979967769e-03
         - 1.1764216778105208e-02
         - -3.4268626960280026e-02
         - 2.3062986379217366e-02
         - 4.8006825956331762e-03
         - 1.3613425861035535e-02
         - -2.7532197390123123e-02
         - 3.8232488885836260e-02
         - 2.2134338542682513e-02
         - -1.8832059614714777e-02
         - -2.0817247630197471e-02
         - -2.3521182369689159e-02
         - -1.0395912781727398e-02
         - 4.1012578692716448e-02
         - -1.0511132466337217e-02
         - -2.4623311558391054e-02
         - -3.8458635235241991e-02
         - -4.2682358695054511e-02
         - 4.4198636623890050e-02
         - -1.1041309523418077e-02
         - 1.8630408444486102e-02
         - 2.5263362338812708e-02
         - 1.6411858793798223e-02
         - 1.2622873201050565e-02
         - -2.9750823381374095e-02
         - 7.5194823334507272e-03
         - -2.2995352053490289e-02
         - 1.1055796925496792e-02
         - -9.4550907580063064e-03
         - 2.0910981963106208e-02
         - -1.6467014690361065e-02
         - -3.5825627564564110e-03
         - -2.8157255966279181e-02
         - -5.4066445557605734e-03
         - 3.6019517078328511e-02
         - -3.7162042287320397e-03
         - 2.5347759535161991e-03
         - 3.0554453029698419e-03
         - 3.1653932871895718e-02
         - 2.5476896818707358e-02
         - 3.0497653493681456e-02
         - -1.2924953438567614e-02
         - -3.3474751584867561e-02
         - -3.1720464849294867e-02
         - -2.2409290197863307e-02
         - -9.1822023449210349e-03
         - -1.3205428501939521e-02
         - -3.4636689177991599e-02
         - 1.2576844430340354e-02
         - -3.6080466876087222e-02
         - -1.6297846625007675e-02
         - 2.9564999112327126e-03
         - 3.4304253372291170e-02
         - 7.5393756770576878e-03
         - -4.1474922618917061e-02
         - 3.8613781618366885e-02
         - -3.0958455736166398e-02
         - 6.2919193816856624e-04
         - -6.4856123242063926e-03
         - -1.9797526178696939e-02
         - 4.5276960394519663e-03
         - 1.3716164862310348e-02
         - 2.8799327613233890e-02
         - 3.3795147789924353e-02
         - 4.2364259895770175e-02
         - 3.4049707327018092e-02
         - 3.7233525117171547e-02
         - -2.3535086514376920e-02
         - 2.6801601935162272e-02
         - -7.6688956447044767e-03
         - -1.4673390197052178e-02
         - -3.7208442798727905e-02
         - 1.1631670839328452e-02
         - 1.3120289089022880e-04
         - 2.6627025387899086e-02
         - -1.2833725631200030e-02
         - -5.4747785737786448e-03
         - -3.7068940881440937e-03
         - -3.7812237295977734e-02
         - -3.3913322730018076e-02
         - 3.0195680722259595e-02
         - -2.3987364997770520e-02
         - -2.0290544530074939e-02
         - 3.2338141188339373e-02
         - 1.1556204589953200e-02
         - -2.8982403888835304e-02
         - -2.9905166080700738e-02
         - 1.3978084015528738e-02
         - 3.5181351042257301e-02
         - -2.0814841339610281e-02
         - -3.4655866164841904e-02
         - 3.1138553089415093e-02
         - 8.4677233279677952e-03
         - 9.7633857206401321e-03
         - 3.1918066155688041e-02
         - -1.2053213178503816e-02
         - 2.4932152716883902e-02
         - 1.0219463697833987e-02
         - 2.6991374613155324e-02
         - -1.4107421343603779e-02
         - -4.1322954765370831e-02
         - -1.9263005293286173e-02
         - 2.5005426235181340e-02
         - 2.6563630890663225e-02
         - 2.8001041270906408e-03
         - 1.9428030133737118e-02
         - -2.7786733643138283e-02
         - 3.2257263679549848e-02
         - -3.8634498100222271e-02
         - -2.1477247195936053e-02
         - -3.1260141824186051e-02
         - 3.0833175981843115e-02
         - -2.8341210526556072e-02
         - 2.9166572344908607e-02
         - -3.6392398506655238e-02
         - 3.1373334641111236e-02
         - -1.7048192734439311e-03
         - -2.5763834253477745e-02
         - 2.6125168770432056e-02
         - 1.8785301989106586e-02
         - -4.0840578402159260e-02
         - -4.1373514873515940e-02
         - 5.8704240330902428e-02
         - -3.0640657485622204e-02
         - -3.7754162589458011e-02
         - -3.7889779638244629e-02
         - -3.8517257089111454e-02
         - 1.8247950359213588e-02
         - 2.0239820649207811e-02
         - 7.9599658883695683e-03
         - -3.0837156401791514e-02
         - -2.4206069907802958e-02
         - 2.4109658000441812e-02
         - 1.7746164606312275e-03
         - -1.6584424018900611e-02
         - 1.2266437049732558e-02
         - -3.9248867256990949e-02
         - 1.8222127575255230e-02
         - 3.1737887791214703e-03
         - 2.7448760401815583e-02
         - -1.2821697730603453e-02
         - -1.9859154050769025e-02
         - -2.0507700221805352e-02
         - 2.0748669985476944e-02
         - 3.4235999424487809e-02
         - -1.1288630237390174e-02
         - 2.6078964747528813e-02
         - 3.9338247329272193e-02
         - -2.3203966321739201e-02
         - 1.4253102979105895e-02
         - -4.9016220260998278e-02
         - 2.0387789166019167e-02
         - -6.5892798459959559e-02
         - -2.2060647933061481e-02
         - -2.1024729900984990e-03
         - -1.7394164027390153e-02
         - 1.8003740322466402e-02
         - 1.8898334362572284e-02
         - 1.3114506685535474e-02
         - -4.6198575144476520e-02
         - 4.4879185629500905e-02
         - -3.2016815520025943e-02
         - -1.6910843582775916e-02
         - 1.3762740273937037e-02
         - -1.7777449870112781e-02
         - 3.5541347307825003e-02
         - -8.3387838042374186e-03
         - -2.8544486131730929e-02
         - -4.8843259911492609e-03
         - 6.7687696696600297e-03
         - 4.7863225138976687e-02
         - -1.3888349988138008e-02
         - -2.2910382982653986e-02
         - 7.5036644712205272e-03
         - 3.3954214922793366e-02
         - 1.6173981559556839e-02
         - -1.1207644051933887e-02
         - 2.1847463600723007e-02
         - -3.0702509589768539e-02
         - -4.3780360020474939e-02
         - 4.4118098614290516e-02
         - 7.0702245944358364e-03
         - 1.8798682827079112e-03
         - 1.4901298163226313e-02
         - 3.2693451408420220e-02
         - 6.6117738202320073e-02
         - 1.8017751683568707e-02
         - -5.0568882572395012e-03
         - 3.2985205868922132e-02
         - 2.0485092895743460e-04
         - -2.7315962831898011e-02
         - -7.0695544904419115e-03
         - 4.5781693103932597e-02
         - -4.9651602287316297e-03
         - 4.3324774935014153e-02
         - 4.4121056361710702e-02
         - -3.9686749988655963e-02
         - 4.5713380917169408e-03
         - 1.2380086304191370e-02
         - -1.3359549168874387e-02
         - -4.2926033866591551e-02
         - -3.3868634899009029e-02
         - -3.1113723501953960e-02
         - -2.7565882397306875e-02
         - 1.2661273825426651e-02
         - -1.7721196295847001e-02
         - -2.9963178392818816e-02
         - 3.9012510223767748e-02
         - -3.7869009303398479e-03
         - 1.8809655633589047e-03
         - 1.1077820438852391e-02
         - -2.4377457993866734e-02
         - 3.7940693379076830e-02
         - 4.3275325181402436e-03
         - 2.0825481083732193e-03
         - 3.2095321765198942e-02
         - 4.5679019528465661e-02
         - -3.0604713352246592e-02
         - 3.5150782512061385e-02
         - -2.0727228998946978e-02
         - -2.9768572118477138e-02
         - 2.9199009444173203e-02
         - -1.7772124256760812e-03
         - -4.0762080195774403e-02
         - -1.8812303352890920e-02
         - 3.9936387210239239e-02
         - 2.5846702699416916e-02
         - 2.8363117623075936e-03
         - -3.0301319715386188e-02
         - 1.3301364798621113e-02
         - -1.6051870488567429e-02
         - 4.0072852023285206e-02
         - 8.2098673499030120e-03
         - 2.2806361640414892e-02
         - -2.9450190179729496e-02
         - -1.7994814089916503e-02
         - -3.3190258323191314e-02
         - 3.0864612195848327e-02
         - -3.2425613021537673e-02
         - -4.6112935646406891e-03
         - -2.0885866559386009e-02
         - 2.0271780930322246e-02
         - -1.2085125271489763e-03
         - -9.5202698342854563e-03
         - 6.9827081339693996e-03
         - -3.9089322010636370e-02
         - 5.6476576687515267e-03
         - 4.4289367501498724e-03
         - 1.4590021448747468e-02
         - 1.3399635894541713e-02
         - 1.4760072611585528e-02
         - -2.2900712994725562e-02
         - -3.0968825631197194e-02
         - 1.0648643185760715e-02
         - 4.9534838816312288e-03
         - 3.8226215642805136e-02
         - 2.8284211022605362e-02
         - 6.6627725546201059e-03
         - -3.6201259276502390e-02
         - -2.5378536379930369e-02
         - 9.2664946362803324e-03
         - 2.1367548007453295e-02
         - -4.3811996639124863e-03
         - -2.6538980940872557e-02
         - 2.6385833095928790e-02
         - 2.4220674135136941e-02
         - -4.5957097844063079e-02
         - 4.2809265874696342e-02
         - 2.7044844607580594e-03
         - 1.7832804078957473e-02
         - -8.1277956949091339e-03
         - 1.5218276483297379e-02
         - -1.2934103763612663e-02
         - 2.3855555326075067e-02
         - -3.4065174607642089e-03
         - -9.8669984349032897e-04
         - -1.4391417972812294e-02
         - -2.6428830327887586e-02
         - -2.7706110474950137e-02
         - -3.6935069074649704e-02
         - 2.8012604533929640e-02
         - -1.1132809594983990e-02
         - -2.0438171038605242e-02
         - -1.4250441321804365e-02
         - 8.9572448276609047e-03
         - -1.9801064195140387e-02
         - -2.6507643018057695e-02
         - 1.3150739192006286e-02
         - -2.7072241310976849e-02
         - 1.6691387584345147e-02
         - -7.0101740244877635e-03
         - -3.7454384482222394e-02
         - -3.3925826030145129e-02
         - 5.0598846866553575e-02
         - -2.7523418937812971e-02
         - -1.5295099777682099e-02
         - 2.5698408341555755e-02
         - 3.5128207176892620e-02
         - -1.5502725989188219e-02
         - 3.2767290609694848e-02
         - 3.0206887011382171e-02
         - 2.2368683180591355e-02
         - -3.4512736322320395e-02
         - -1.1434962200821189e-02
         - -2.9785886913695783e-02
         - 3.0647166053092586e-02
         - 1.6369352149770627e-02
         - 3.0077507812185281e-02
         - -1.9929389714713221e-02
         - -6.0110491594238405e-03
         - 1.8530123446842569e-02
         - 1.7342973555823080e-02
         - 3.1511109156579287e-02
         - 8.7067401822983805e-03
         - 2.6494849116622865e-02
         - 1.9398899829428728e-02
         - 1.8473106203178791e-03
         - -2.3522737601825154e-02
         - -1.6215691081419186e-03
         - 1.8130557627749320e-02
         - -1.6296209072713581e-02
         - 1.9838844257304995e-03
         - -4.2704165060844686e-02
         - 3.9449515947271231e-02
         - -7.2345491910378992e-02
         - 2.0237804775305207e-02
         - -3.2784285360468110e-02
         - -2.0806940432107145e-02
         - 1.0936762962207063e-02
         - 1.2008106144619531e-02
         - 8.9579502826300575e-03
         - -4.5062239382781304e-02
         - -5.1392942507047831e-02
         - 4.5291513845686845e-03
         - -1.0248072974939093e-02
         - 3.8827381200530864e-02
         - 5.7355804466890280e-02
         - 7.7611065988655720e-03
         - 1.9420524082354493e-02
         - -9.0904052714587662e-03
         - 1.1356195892221581e-02
         - 4.0486769837984445e-02
         - -5.0983048214215112e-03
         - 4.6450141209567093e-03
         - -2.7449257514145120e-02
         - -2.9752989623164774e-02
         - 7.6113327669502283e-03
         - -1.4873949512472237e-03
         - -4.1284751715594530e-02
         - -1.4637442511576511e-02
         - -3.4163494017640177e-02
         - -2.2621478791256290e-02
         - 3.9682096385217393e-02
         - -6.1503779417580191e-03
         - -5.5988364390785382e-02
         - 2.5698681593810491e-02
         - -5.6930804622755106e-02
         - -7.3171582636805989e-03
         - -5.8469161157109787e-03
         - -4.0956882071037239e-02
         - -1.4403836105908823e-02
         - 2.1024930347905727e-03
         - 4.9420127638225599e-02
         - -3.6254415406555995e-02
         - -5.3916052472324887e-02
         - -1.7947206515728453e-02
         - -4.1503015936844703e-02
         - -4.7700815524334222e-02
         - -1.6996066678704611e-02
         - 4.5016355251049365e-03
         - -2.0954977193854783e-02
         - -4.0178460503702530e-02
         - 2.7246460740736691e-02
         - -3.4641523383130382e-02
         - -2.3834612385939539e-02
         - -1.5141417108240572e-02
         - -3.1631820719217857e-02
         - -3.3665669052728490e-02
         - 1.7431633219846823e-02
         - -5.2493561465804826e-02
         - -2.1603607733946574e-02
         - 4.4585167872069720e-04
         - 3.6127841113695922e-02
         - -2.7324829651762653e-02
         - 6.9086292233494148e-03
         - -2.3886861959501699e-02
         - 9.2710710376872792e-03
         - 3.4773440501414378e-02
         - -1.8811518618053573e-03
         - 2.4781292176791710e-02
         - 6.2202035997878354e-03
         - -3.3614698844919216e-02
         - 6.9997666310313601e-03
         - 5.6295340504888505e-02
         - -4.6002790677817249e-02
         - -1.0026933265699948e-02
         - 3.8108529965026421e-04
         - -3.9594830383615207e-02
         - -4.4257653816805458e-02
         - -1.6838520921881747e-02
         - 2.0066222668010419e-02
         - 4.9820776862369767e-03
         - -1.6748311222079246e-02
         - 5.3311418871558351e-03
         - 3.1356159621077226e-02
         - -1.8262615112333173e-02
         - 3.7110624050385066e-02
         - 1.8551959547555001e-02
         - -4.1082648865139418e-02
         - 2.4009047945580255e-02
         - -1.9480505857393658e-02
         - 2.1735197976825521e-02
         - 6.8888469139591546e-03
         - -5.9186251190201120e-04
         - -4.3360009158135294e-02
         - -1.1638813146888665e-04
         - -3.0860514323491076e-02
         - -1.2492089754752107e-03
         - 5.5536759128747681e-03
         - -2.6181088898701198e-02
         - 2.9509092999659491e-02
         - -3.1903789667183991e-03
         - -1.5568784896894264e-03
         - 2.6445917375112534e-02
         - -3.5731121432975958e-02
         - -3.4898429495412608e-02
         - -8.9670348406291310e-03
         - -1.9975674997426415e-02
         - -4.8724020866287845e-03
         - -3.0457550763464031e-02
         - 4.6109481358690991e-03
         - -3.8111447912201162e-02
         - 9.0022395171746525e-03
         - -2.0049768668558138e-02
         - -1.8822675801708780e-02
         - -2.0281278130392259e-02
         - 1.6956920007573033e-02
         - 9.4876342484758389e-03
         - 1.9640193613149448e-02
         - 2.8788423851793771e-02
         - 3.8088723289088064e-02
         - 1.0048132960155186e-02
         - -2.4365670575762847e-05
         - 7.7955313051418680e-03
         - 2.1838007668510202e-02
         - 1.9480303344446431e-02
         - -2.3777056272423221e-02
         - 3.5828820283684920e-02
         - 2.7260919126598657e-02
         - 2.3952847081814686e-02
         - 1.7791248356476903e-02
         - 1.6977059636151266e-02
         - -6.8213264108676914e-03
         - 3.2352899515151794e-02
         - 3.5238552036154419e-02
         - -1.1100150718707605e-02
         - -2.9003199275059646e-02
         - 1.2541661142005145e-02
         - -9.1879711340526523e-03
         - 3.6868805585775336e-02
         - 1.1192377743359676e-02
         - 1.0291325958491389e-02
         - 4.1606624613482135e-02
         - 4.8263576314004165e-02
         - 2.7682465495334270e-02
         - 1.8244381050119739e-02
         - 3.7176743072046799e-03
         - 2.8884866398650157e-02
         - -3.9892709227870991e-02
         - -6.7059789914377093e-04
         - 1.5909342275973289e-02
         - -1.8384485568015255e-02
         - 3.4145707887940205e-02
         - -2.7431338193282834e-02
         - -3.1870174647390684e-02
         - -3.0377794737151208e-02
         - 2.4301950915971589e-02
         - -3.7104212998990055e-02
         - -2.8215167649238992e-02
         - 6.3330390359231702e-03
         - 2.0970617493243925e-02
         - -3.3525955425379374e-02
         - 4.5169079433727130e-03
         - -2.8970502735811147e-02
         - 2.7589205392773105e-03
         - -1.7046640850153189e-02
         - -1.2794031541420680e-02
         - 4.2385470078605166e-02
         - 3.8893050287448917e-02
         - 8.6770362636075845e-03
         - 4.9115918908691014e-05
         - 2.2930778850879102e-02
         - -3.1806134495043020e-02
         - -4.9513096843618832e-03
         - -3.0366381223049185e-02
         - -6.3885135621002146e-03
         - 2.6434312554245304e-02
         - 6.4916712608791369e-03
         - -3.1694366447440066e-02
         - 3.5984385199792517e-02
         - -3.2393482143531736e-02
         - 4.1079289857883977e-02
         - -1.5284211876547781e-02
         - -4.1246060318973557e-02
         - 2.6055482674155021e-02
         - -3.6781968720430401e-02
         - 2.8305599257389371e-02
         - -1.3291297667428753e-02
         - 5.4808179455050419e-02
         - -4.2098281611036570e-02
         - -8.3264531890657779e-03
         - 2.4453489703572077e-02
         - -3.6673431145323766e-02
         - 1.1990276367115096e-02
         - -7.0159270416616194e-03
         - -2.3533127092666598e-02
         - 3.0538976993749425e-02
         - -9.4984659655549617e-03
         - 4.1007463723938251e-02
         - -3.0555192454061384e-02
         - -3.7702374063751730e-02
         - 4.9730296331776079e-02
         - 4.7626896964883460e-02
         - -5.1662949811667191e-03
         - 6.6236913683743792e-02
         - 3.5867516693433479e-02
         - 5.3387076799190350e-03
         - 4.1516723900461107e-02
         - 2.4441758278417696e-02
         - -1.4309794474315674e-02
         - -3.7466987534337401e-02
         - 4.2654785231256966e-02
         - 3.6299774072866033e-02
         - 4.7812460504662847e-02
         - -3.4682036400217241e-02
         - -7.6048543441854079e-03
         - -7.3753625239710560e-02
         - 4.6062884423503422e-03
         - 3.7709214776394657e-03
         - -4.5327493773167145e-02
         - -2.9185617814587970e-02
         - -6.7193231272852302e-02
         - 5.0491277443844698e-02
         - 6.9751167685835527e-03
         - -9.1835741934745228e-03
         - 2.6300834056981245e-02
         - -1.9482047900633029e-02
         - -1.4091045220974534e-02
         - 5.9970978438005758e-02
         - 2.2110584412958524e-02
         - 7.2709266549780591e-02
         - -4.3086162258979495e-02
         - 2.7442608590124627e-02
         - -6.8958870514156237e-02
         - 3.1663265668131754e-02
         - -1.5177847606682393e-02
         - 4.2402924352213961e-02
         - -4.5631612889347958e-03
         - -2.7771049285906391e-02
         - 6.0324020498175542e-02
         - -5.3732724399622823e-02
         - -8.6945082490589437e-02
         - -7.3651921279130575e-02
         - 4.5181292828982984e-02
         - 5.0378074663496468e-02
         - 2.3348163917623475e-02
         - 1.9029153528350516e-02
         - 3.8031560152224302e-02
         - -2.9693919956311560e-02
         - -2.3218093197103707e-02
         - 7.4198646915760044e-02
         - 3.1078542547371087e-02
         - -1.5524820566353245e-02
         - -1.8550088348503319e-02
         - -6.3593453112272512e-04
         - 1.5238270297979478e-02
         - 2.2831550303929544e-02
         - 1.7938673204166004e-03
         - -4.5301917967130637e-02
         - 2.5140976194395724e-02
         - -1.6034188958990305e-02
         - -2.8457258630066117e-02
         - -1.9111109809340786e-02
         - -5.3061061206276919e-02
         - 3.3767371502193194e-02
         - 1.2685705550704765e-02
         - 6.5511977444427702e-02
         - -6.4783146884844336e-02
         - -3.7407199387824559e-02
         - 6.2605997265199484e-02
         - -1.8156420765312976e-02
         - -4.4777982526582487e-02
         - 2.3692787111881320e-02
         - -5.7888116523529189e-02
         - 3.6863854769122566e-02
         - 3.5367046027906274e-02
         - -4.2216654364282631e-02
         - 2.6606212681135239e-02
         - 1.9038667094270340e-02
         - 2.4450604897980156e-02
         - 4.8342808167304754e-02
         - 2.9483361094716196e-02
         - 3.8740496817453632e-02
         - -3.5059260284526453e-02
         - 7.1062141548191337e-03
         - -2.6972097194670419e-02
         - 8.4595116952313112e-03
         - 2.0648681374645778e-02
         - -6.7812843651740340e-02
         - 2.5901181175352308e-02
         - 3.3823211133319812e-02
         - -7.4948632296827522e-02
         - -7.0199958139640167e-02
         - 2.2283133107173555e-02
         - -1.6880257922197054e-02
         - 3.0514466544623031e-03
         - -1.9088444693593727e-02
         - -7.7492576605443430e-03
         - 9.9125811179788335e-03
         - -3.2183927574202076e-02
         - -2.2273067001883400e-02
         - 4.0457141411289685e-02
         - 1.0663806508963787e-03
         - 3.1160397584863140e-02
         - -1.6586220969455356e-03
         - 1.0298309292219044e-02
         - 1.4136956576458557e-02
         - -4.0492829883974464e-02
         - 1.7278781402673436e-02
         - 2.4060064789079877e-02
         - 3.3831068016652303e-02
         - 3.3746897315435620e-02
         - 2.1039450592926532e-02
         - 2.7929236155929463e-02
         - -1.2962944739587715e-02
         - 1.4536937428169939e-02
         - -1.2660348121283390e-02
         - 3.9817790485227773e-03
         - 3.4909555873593727e-02
         - 3.5533879491495279e-02
         - 2.7141940917798129e-02
         - 1.0623409258825873e-02
         - 1.3523107517877794e-02
         - 4.1362803636509730e-02
         - 3.4562671848784379e-02
         - 2.3282496650570052e-02
         - -3.8296788800209321e-02
         - 3.2670123291127506e-02
         - 2.2721100627705021e-02
         - -3.0232925273168947e-02
         - -1.0552258078379761e-02
         - -2.8660231626713606e-02
         - 3.7689300278434069e-02
         - -5.1314175935620546e-03
         - -1.5768285116420696e-02
         - 1.2136889568899594e-02
         - 4.1831490620166095e-03
         - 3.2624200526026589e-02
         - 2.9072261650697338e-02
         - 3.6776291112511392e-02
         - -3.7679134781054301e-02
         - -3.8682249729382605e-02
         - 2.2384353542282843e-02
         - 3.7355812827288573e-02
         - 3.4321433616857418e-02
         - 2.8285996039934331e-02
         - -2.7741122494320640e-02
         - -1.8839000200241908e-03
         - 2.2170474108705839e-02
         - 1.3271443957444276e-02
         - 2.5970444559758259e-02
         - 1.1733159626783113e-03
         - 2.6373729041989796e-02
         - 1.0313606999846126e-02
         - -2.3443283430787491e-02
         - -3.4566382415819157e-02
         - -2.4840382066965077e-02
         - 1.7366161749609456e-02
         - 3.9847815620202176e-02
         - 1.8336832621747935e-02
         - 3.6621041912629701e-02
         - 6.2484640821225627e-03
         - -3.4393717876692091e-02
         - 2.2003073312697921e-02
         - 1.4730275301422178e-02
         - 1.4107513361115232e-02
         - 1.4167501443771904e-02
         - 4.6833559357259302e-02
         - -2.1919410481333997e-02
         - -2.0101725538828347e-02
         - -8.9307909583751129e-03
         - -1.1498955489438361e-02
         - 1.5736919345439526e-02
         - 1.3144743291749666e-02
         - -2.0312644660932348e-02
         - 4.4647196260209548e-02
         - 1.7200551212763149e-02
         - -2.1621331220378268e-02
         - -2.6762676860920622e-02
         - -3.5995074951076636e-02
         - -1.1302410241676445e-02
         - -1.0980581112148545e-02
         - 4.0081211117117370e-02
         - 1.4250488139245635e-02
         - 1.2199368689123943e-03
         - -8.9622026894778245e-03
         - -4.1513543426488931e-03
         - -1.3474805494109350e-03
         - -2.7786671655466474e-03
         - -3.9719118085818787e-02
         - 2.4512113756750085e-02
         - 1.6961790581405300e-02
         - -2.6179033182410563e-02
         - -1.8724991967940936e-02
         - 7.7681414955572906e-03
         - 1.4706881910579292e-02
         - 3.1411303433210047e-03
         - 1.7816027722319112e-02
         - -1.1145605192347377e-02
         - -3.5127140161527334e-02
         - -1.2141899081444007e-03
         - -3.8385666867096289e-02
         - -2.0122478615247748e-02
         - -2.8905339976785661e-02
         - 2.9146246286726230e-02
         - 9.9092906570186160e-03
         - -3.9644545713000183e-02
         - -6.3994131406492384e-03
         - -3.9041829696204061e-03
         - -1.7892261075370567e-02
         - 3.9225504301645064e-02
         - 1.5628169863994679e-02
         - 4.3665612347963408e-02
         - -2.3514530139728620e-02
         - -2.1751499101717985e-02
         - 3.9634178213523767e-02
         - -4.5925890334217810e-02
         - 3.5661666400543524e-02
         - -1.4697286639272044e-02
         - -1.9013907430435516e-03
         - 1.6805713357197299e-02
         - 5.1391773259566231e-02
         - 2.7060788030132767e-02
         - 3.7581897403978749e-02
         - -1.7647406993708391e-02
         - 3.3269091330351453e-03
         - 6.2524407842216613e-03
         - -3.3129592399344758e-02
         - -1.3685305420170893e-02
         - 2.8630824216676436e-02
         - 1.1151637769553149e-02
         - 2.6960245463114801e-02
         - -2.4891867150493886e-02
         - -3.3254244121574468e-02
         - 4.5557805567312717e-02
         - -2.5373503467334517e-02
         - 3.9142447505089016e-02
         - -2.1971260241454127e-02
         - 3.9974103049007566e-02
         - 5.8659055680235000e-03
         - 9.6443867702869831e-03
         - 3.6826919132241049e-03
         - -8.9539954531186582e-03
         - 3.6575904510521069e-02
         - 4.1823520218611694e-03
         - 3.3226973836762604e-02
         - -2.1306703023371596e-02
         - 2.5184694279328543e-03
         - -2.8430948154846307e-02
         - 5.1611142758556782e-03
         - 4.1172880135429787e-02
         - -2.4923191073960099e-02
         - -3.1961708074739401e-03
         - -3.1780893906888388e-02
         - 4.8726719844063475e-03
         - -6.8700281461541723e-03
         - -3.2557758561110428e-02
         - 4.5665057555381049e-02
         - -1.4002562749332849e-02
         - 3.7083220306286298e-03
         - -4.2093081631677201e-02
         - -1.6524435373494413e-02
         - -2.7894223857491608e-02
         - -1.9722642587024858e-02
         - -2.8824967934919048e-02
         - -2.2926809432611023e-02
         - 4.7964475220142770e-03
         - 2.3599819717017516e-02
         - -3.7398289897267602e-02
         - 2.5159999034983648e-03
         - 3.5770244415860193e-02
         - -3.0707744134257323e-02
         - 3.0964375198018295e-02
         - -5.4747940522394366e-02
         - 3.2250162105712327e-02
         - 2.6905415221598922e-02
         - -2.7338718865347951e-02
         - -2.1990536005368131e-02
         - -1.5256997198406704e-02
         - 1.2029990640590993e-02
         - -7.5547485175341371e-03
         - -7.6902934589266909e-03
         - 1.1351164260329052e-02
         - 4.7198748972764092e-03
         - 3.3901544140147954e-02
         - -3.7749619213039968e-05
         - -1.0379050085068408e-02
         - 1.7077131581480096e-02
         - 1.8535601762427249e-02
         - 2.4260126626290530e-02
         - -4.8132067045023083e-02
         - -2.9761126265065958e-02
         - -1.4667818381813365e-02
         - -1.9038026334995499e-04
         - 3.0024844739727326e-02
         - -2.3513490692694650e-02
         - -1.6115023078554155e-02
         - -3.2933679738097218e-03
         - 2.3700966470417598e-02
         - -3.2555393837954097e-02
         - 1.5343300028872658e-02
         - -1.5426547637717546e-02
         - -1.2951854975573791e-02
         - 2.3711498228128250e-02
         - 4.5213543910817807e-03
         - 5.2530799315334224e-03
         - 3.6345693616852328e-03
         - -1.8878478624392108e-02
         - -3.5902316889460280e-02
         - 6.0647379437185379e-03
         - 3.8706142778905203e-02
         - -3.9057984566925504e-02
         - -2.5176797574593585e-02
         - -4.8234490096801808e-02
         - -1.1061134922190406e-02
         - 9.7422089907859520e-03
         - 8.9863580817209885e-04
         - -6.7070263166989635e-03
         - 2.6110855138929821e-02
         - -2.1807543902685727e-02
         - 2.5715655146491767e-02
         - 1.2489990242982710e-02
         - -5.9707387705429885e-03
         - -1.6283523878661183e-02
         - -1.3848792539164457e-02
         - -4.2053021888939862e-02
         - 2.9137124813554655e-02
         - -2.8017426529526650e-02
         - 1.1822196810233858e-02
         - -2.6366238760767633e-02
         - 2.0236135832057224e-02
         - -2.0698966167668059e-02
         - 4.0053411867557306e-03
         - -3.1392297087832123e-02
         - 3.8825130584947021e-02
         - 2.3643542029338424e-02
         - 7.8426082775579428e-03
         - 7.8508889443195291e-03
         - -3.6287169278151954e-02
         - -8.5048318597357991e-03
         - -1.1997786512652773e-02
         - -3.7111746275484067e-02
         - -2.3062648552766483e-02
         - -5.6593076687742674e-03
         - 5.6981694300830650e-03
         - -3.8059551155399857e-02
         - 1.1963770283739164e-02
         - -3.3704829481852328e-02
         - 2.2188564982441581e-03
         - -2.0621981140570133e-02
         - 2.3385080167971712e-02
         - 1.5928954363279235e-02
         - 2.0482459371664097e-02
         - 3.7585952129464773e-03
         - 2.5517433191743842e-02
         - -2.4419595493014364e-02
         - 2.8076817086226884e-02
         - -2.9153959092518195e-02
         - 1.2065199191199361e-03
         - -1.3130786950428540e-02
         - -1.6100481702752308e-02
         - 1.1604264542864149e-02
         - 5.6517792535614843e-03
         - -8.1465958432969474e-03
         - -3.0089958332427520e-02
         - 3.5341303063476465e-02
         - 1.6436604742483565e-02
         - -1.4409053199045445e-02
         - -1.8604560471989235e-02
         - -4.3349644279293623e-02
         - -2.0339874029156719e-03
         - -2.8102767879695133e-02
         - -2.8115686657064147e-02
         - -4.6817044467521031e-02
         - 7.5394716825871299e-03
         - 1.3092385693750695e-04
         - 3.7726442764685383e-02
         - -1.0238757391585189e-02
         - 1.9859149891548838e-02
         - 1.9660847048523123e-03
         - 3.3050203613992732e-02
         - -2.5277659013650693e-02
         - 4.2089771383507446e-02
         - -1.5510095161467306e-02
         - 3.2315923537032047e-02
         - 8.3294773142209670e-03
         - 3.6412869961935206e-02
         - -1.4674673367801315e-02
         - -1.1008133612469123e-03
         - 2.1553156075782655e-02
         - -4.9943953317119040e-03
         - -3.0861701592315607e-03
         - 1.8346200850360875e-02
         - -7.4346970919446677e-03
         - 3.1687532900277426e-02
         - 7.5425943448289333e-03
         - 2.3919806861855887e-02
         - -8.7942595033813822e-03
         - -4.0652929568335931e-02
         - 1.1528895612358177e-02
         - -3.2056363517105620e-02
         - -6.0956450465927290e-03
         - 7.3553323886738117e-02
         - 1.3654108609149097e-02
         - -2.6257102052521859e-02
         - 2.0530721711785764e-02
